%YAML:1.0
---
opencv_ml_ann_mlp:
   format: 3
   layer_sizes: [ 784, 28, 28, 32 ]
   activation_function: SIGMOID_SYM
   f_param1: 6.6666666666666663e-01
   f_param2: 1.
   min_val: -9.4999999999999996e-01
   max_val: 9.4999999999999996e-01
   min_val1: -9.7999999999999998e-01
   max_val1: 9.7999999999999998e-01
   training_params:
      train_method: BACKPROP
      dw_scale: 1.0000000000000000e-03
      moment_scale: 0.
      term_criteria:
         epsilon: 1.0000000000000000e-02
         iterations: 10000
   input_scale:
      - 1.3050220778557833e-01
      - -3.0077009799516764e-02
      - 4.7129513429016071e-02
      - -8.3792562933189318e-02
      - 2.5887999853271636e-02
      - -1.5512744650617646e-01
      - 2.1631995890173065e-02
      - -1.8767048209818640e-01
      - 2.0673717161072681e-02
      - -1.9705429117150267e-01
      - 2.2517613897245735e-02
      - -1.7978475782710562e-01
      - 2.6425380175851786e-02
      - -1.5182225363137056e-01
      - 2.9281697286341980e-02
      - -1.3641792670554351e-01
      - 3.1558467133333663e-02
      - -1.2624405525610202e-01
      - 3.4482765248881719e-02
      - -1.1523565804443914e-01
      - 3.8906972082197552e-02
      - -1.0183881104407357e-01
      - 4.0723377467251867e-02
      - -9.7207674748330392e-02
      - 3.5353258556858544e-02
      - -1.1232476564724295e-01
      - 2.5853367131095366e-02
      - -1.5534552264213694e-01
      - 2.3527967615634280e-02
      - -1.7158404530020185e-01
      - 2.6242429961330183e-02
      - -1.5293119125947552e-01
      - 3.2849185008090517e-02
      - -1.2113269513635445e-01
      - 3.7316536609981063e-02
      - -1.0627624354740572e-01
      - 3.8548810731715330e-02
      - -1.0280512403661461e-01
      - 3.1182062108524956e-02
      - -1.2781827201941848e-01
      - 2.6388474068281650e-02
      - -1.5204462947670350e-01
      - 2.4343260361884739e-02
      - -1.6550745416474444e-01
      - 2.4145153235766392e-02
      - -1.6694292521307816e-01
      - 2.2815720502975104e-02
      - -1.7728212522518294e-01
      - 2.1360259958007239e-02
      - -1.9023593689521553e-01
      - 2.1044332122357363e-02
      - -1.9331168610007934e-01
      - 2.5000504121370368e-02
      - -1.6092157930414672e-01
      - 3.9028628364648099e-02
      - -1.0151474737325189e-01
      - 3.5908903586541294e-02
      - -1.1054332262906531e-01
      - 1.1191783199351400e-02
      - -4.0901668619450143e-01
      - 8.1922932296829825e-03
      - -7.4282785880044788e-01
      - 7.8643894554810412e-03
      - -9.2904383323406381e-01
      - 7.8599295872502674e-03
      - -9.3666867152593247e-01
      - 7.9085399655357894e-03
      - -8.7892776587280108e-01
      - 8.1196522332275499e-03
      - -7.6738576404742653e-01
      - 8.5740038249646211e-03
      - -6.5153572771396751e-01
      - 8.8467464246372758e-03
      - -6.0614205603174864e-01
      - 8.6636562906723946e-03
      - -6.3538606440355760e-01
      - 8.4116555943860513e-03
      - -6.8489557038783211e-01
      - 8.1440895858913322e-03
      - -7.5870159822288941e-01
      - 7.9062951168474439e-03
      - -8.8089092088185883e-01
      - 7.8431396084315975e-03
      - -9.9922560649201375e-01
      - 7.8463612222822200e-03
      - -1.0290864921736749e+00
      - 7.8440788358634279e-03
      - -1.0156157786466620e+00
      - 7.8601299455782307e-03
      - -9.3630436236165526e-01
      - 7.8950844733723328e-03
      - -8.9133923668100723e-01
      - 7.8806708097030088e-03
      - -9.0683677758264225e-01
      - 7.8733632963871054e-03
      - -9.1597610690572995e-01
      - 7.8881257336352595e-03
      - -8.9847483521695948e-01
      - 7.8862778141282671e-03
      - -9.0047139085167094e-01
      - 7.8578670178266127e-03
      - -9.4056233228453268e-01
      - 7.8549167376988135e-03
      - -9.4667466664665711e-01
      - 7.8880159324550125e-03
      - -8.9859218298322241e-01
      - 8.0533438732834760e-03
      - -7.9373268503445982e-01
      - 8.8011579492797976e-03
      - -6.1301570802244809e-01
      - 1.1940813793172503e-02
      - -3.7447055005670582e-01
      - 3.1368533363469731e-02
      - -1.2703344724922250e-01
      - 8.9668589117854747e-03
      - -5.8912957707028002e-01
      - 7.8515765542352747e-03
      - -1.0474783719082170e+00
      - 8.0274200735636157e-03
      - -1.2415423470457194e+00
      - 8.0603761599001272e-03
      - -1.2646855081279580e+00
      - 7.9365834709913975e-03
      - -1.1667392544201460e+00
      - 7.8880159324550125e-03
      - -1.1128518797928058e+00
      - 7.8470965324367020e-03
      - -9.6872634658937518e-01
      - 7.8821882919469909e-03
      - -9.0506501941666984e-01
      - 7.8450946195234225e-03
      - -9.7790699787301461e-01
      - 7.8474588298735066e-03
      - -1.0337519830177655e+00
      - 7.8825981458780538e-03
      - -1.1054695073729801e+00
      - 8.0387080860631396e-03
      - -1.2496402657493240e+00
      - 8.2237696331385699e-03
      - -1.3638344155894562e+00
      - 8.2174825012648958e-03
      - -1.3603567481177241e+00
      - 8.1681428107197428e-03
      - -1.3322878978047683e+00
      - 7.9722039907041548e-03
      - -1.1986175246617665e+00
      - 7.9413004460447655e-03
      - -1.1712239010658061e+00
      - 8.0382303264660473e-03
      - -1.2493013421951140e+00
      - 8.1480746254935059e-03
      - -1.3204299474761982e+00
      - 8.2909705419243161e-03
      - -1.3998198475715833e+00
      - 8.6143056662329430e-03
      - -1.5525436862911011e+00
      - 8.8280544692090138e-03
      - -1.6422233023257440e+00
      - 8.4243887188874111e-03
      - -1.4661699529825576e+00
      - 7.9918175399277952e-03
      - -1.2145911671915053e+00
      - 7.8490670853287210e-03
      - -1.0396492195598126e+00
      - 7.9720134752731993e-03
      - -8.3440579259688086e-01
      - 9.7225021674609245e-03
      - -5.0705139773800090e-01
      - 4.2504237020487549e-02
      - -9.3062052843759541e-02
      - 9.0812317968826332e-03
      - -5.7421936020759712e-01
      - 7.8983290871380146e-03
      - -1.1258790218986221e+00
      - 8.1758630965446076e-03
      - -1.3367773679854531e+00
      - 8.1781350563943506e-03
      - -1.3380912526148083e+00
      - 8.0876421711489725e-03
      - -1.2828102157101477e+00
      - 8.0865596956051656e-03
      - -1.2821060290016271e+00
      - 8.0173970536998422e-03
      - -1.2341848522616230e+00
      - 7.9104192103265046e-03
      - -1.1398434043729448e+00
      - 7.8944947245985480e-03
      - -1.1211736944624580e+00
      - 7.8962743745542210e-03
      - -1.1233762945092887e+00
      - 7.9549512620881117e-03
      - -1.1837136950802893e+00
      - 8.2027175753115310e-03
      - -1.3521059926279253e+00
      - 8.3507001108552269e-03
      - -1.4302501231827718e+00
      - 8.2676986773468231e-03
      - -1.3875883114244976e+00
      - 8.2262317293853564e-03
      - -1.3651906860105303e+00
      - 8.0403853530514168e-03
      - -1.2508275406401326e+00
      - 7.9905861404306541e-03
      - -1.2136147625281710e+00
      - 8.0659926882800329e-03
      - -1.2684880037792436e+00
      - 8.2836394033769523e-03
      - -1.3959911056135774e+00
      - 8.8063623158111740e-03
      - -1.6334039686328177e+00
      - 9.7885519553956718e-03
      - -1.9947697603124577e+00
      - 1.0299533972752585e-02
      - -2.1643483244904855e+00
      - 9.5491449019043401e-03
      - -1.9120267015929591e+00
      - 8.3361479170735667e-03
      - -1.4229546176110157e+00
      - 7.8967542223298097e-03
      - -1.1239645536860685e+00
      - 7.9284308829657979e-03
      - -8.6299613780073026e-01
      - 1.0077229492258933e-02
      - -4.7810566340581101e-01
      - 6.2614862366774771e-02
      - -6.2877610336680545e-02
      - 9.6618788065923767e-03
      - -5.1247877639021067e-01
      - 7.8739038035844609e-03
      - -1.0925842134219124e+00
      - 8.1392268400181395e-03
      - -1.3151104206499935e+00
      - 8.1823787402292344e-03
      - -1.3405366992772201e+00
      - 8.3719596925364102e-03
      - -1.4407823750531172e+00
      - 8.3898127799673025e-03
      - -1.4495175408049061e+00
      - 8.1234466198702865e-03
      - -1.3054730087352682e+00
      - 7.9049935825915383e-03
      - -1.1337261164197585e+00
      - 7.8830101878432143e-03
      - -1.1060463806908887e+00
      - 7.9231629060250407e-03
      - -1.1534186599344580e+00
      - 7.9853140498523205e-03
      - -1.2093961756587182e+00
      - 8.1893010340690683e-03
      - -1.3445018914949360e+00
      - 8.2394058932403775e-03
      - -1.3723956585597525e+00
      - 8.1643227159901438e-03
      - -1.3300519746511821e+00
      - 8.0830604644362598e-03
      - -1.2798213856986265e+00
      - 7.9242024462224826e-03
      - -1.1544831420602057e+00
      - 7.8956776892558610e-03
      - -1.1226415036498536e+00
      - 7.9841121360176223e-03
      - -1.2084255248243534e+00
      - 8.2164407824168503e-03
      - -1.3597785146763932e+00
      - 8.6665589440110546e-03
      - -1.5750869424906340e+00
      - 9.2108569417596164e-03
      - -1.7901588863057185e+00
      - 9.7373768610193919e-03
      - -1.9772878381582906e+00
      - 9.6508541596901469e-03
      - -1.9474850499559628e+00
      - 8.5512697047988064e-03
      - -1.5247123663029276e+00
      - 7.8911424365476768e-03
      - -1.1169303344549011e+00
      - 8.0325476691968777e-03
      - -8.0305511999569545e-01
      - 1.0931496588404185e-02
      - -4.2289860107173716e-01
      - 7.3684626052938615e-02
      - -5.3372595501224744e-02
      - 9.9938598538164992e-03
      - -4.8451510030470274e-01
      - 7.8431437924895188e-03
      - -1.0012919902028945e+00
      - 8.0498761864984340e-03
      - -1.2574722504253923e+00
      - 8.3415216391405662e-03
      - -1.4256570563380973e+00
      - 8.6333344185261385e-03
      - -1.5608054253702250e+00
      - 8.3507001108552269e-03
      - -1.4302501231827718e+00
      - 7.9431217242055454e-03
      - -1.1729308893390287e+00
      - 7.8442085913775963e-03
      - -9.8360754643856696e-01
      - 7.8663064508347948e-03
      - -9.2603286924657868e-01
      - 7.8560570309908137e-03
      - -9.4422552987296982e-01
      - 7.8594667490077385e-03
      - -9.3751920569038527e-01
      - 7.8485277458022369e-03
      - -9.6360565407935672e-01
      - 7.8666209521059596e-03
      - -9.2555188417681278e-01
      - 7.9431217242055437e-03
      - -8.5256515033338531e-01
      - 8.0442490086995774e-03
      - -7.9773607406349867e-01
      - 8.2136714087242442e-03
      - -7.3624773461771431e-01
      - 8.2140169016332205e-03
      - -7.3614348245224459e-01
      - 7.9276675445723692e-03
      - -8.6356558530155059e-01
      - 7.8432696442364228e-03
      - -1.0058271778433467e+00
      - 7.9187870492932397e-03
      - -1.1488708145695570e+00
      - 8.2078276186277853e-03
      - -1.3549751011425342e+00
      - 8.6942048930774736e-03
      - -1.5868383254122167e+00
      - 8.8663877825847209e-03
      - -1.6576739407319396e+00
      - 8.3528010164210676e-03
      - -1.4312974805604493e+00
      - 7.8752764062330269e-03
      - -1.0947193456054924e+00
      - 8.2297656886864169e-03
      - -7.3145828037899174e-01
      - 1.1594305465349442e-02
      - -3.8956192711223003e-01
      - 8.3795987686052717e-02
      - -4.6901950499553070e-02
      - 1.0190638847063409e-02
      - -4.6972989908349089e-01
      - 7.8562326513793874e-03
      - -9.4385864440868472e-01
      - 8.0703880051645888e-03
      - -1.2714377900841447e+00
      - 8.5117796924462068e-03
      - -1.5068817364237870e+00
      - 8.5681408626662181e-03
      - -1.5322341587308907e+00
      - 8.2506529967897192e-03
      - -1.3784795805311045e+00
      - 7.8747237059195070e-03
      - -1.0938647030852127e+00
      - 7.8632794589328665e-03
      - -9.3085441318544171e-01
      - 7.9619489978491574e-03
      - -8.4043023424294661e-01
      - 8.1170428111319512e-03
      - -7.6834177029194473e-01
      - 8.2658250789624781e-03
      - -7.2119190408120015e-01
      - 8.3090329433462857e-03
      - -7.0964183615691001e-01
      - 8.4523018474670086e-03
      - -6.7596042644439347e-01
      - 8.6665589440110564e-03
      - -6.3488558823218499e-01
      - 8.9086589532487142e-03
      - -5.9718496518368858e-01
      - 9.4896349006591517e-03
      - -5.2880668853301893e-01
      - 9.3339823287050903e-03
      - -5.4487197166462253e-01
      - 8.4757451783566608e-03
      - -6.7099831720418857e-01
      - 8.0466849794506214e-03
      - -7.9665298153234931e-01
      - 7.8499244787557029e-03
      - -9.5925418324595957e-01
      - 7.9293516388219912e-03
      - -1.1596715164377092e+00
      - 8.3663784164592549e-03
      - -1.4380313781016154e+00
      - 8.5367305260505098e-03
      - -1.5181850527821519e+00
      - 8.2000098654327856e-03
      - -1.3505797397954828e+00
      - 7.8672564019782090e-03
      - -1.0815598350093354e+00
      - 8.2602348281856607e-03
      - -7.2274388434543124e-01
      - 1.1943509523099406e-02
      - -3.7435847279891693e-01
      - 9.9704925551750728e-02
      - -3.9392778849368267e-02
      - 1.0126317634253725e-02
      - -4.7443334388037156e-01
      - 7.8508850300974854e-03
      - -9.5652821352334594e-01
      - 8.1879760892916292e-03
      - -1.3437451953975341e+00
      - 8.5356999049622916e-03
      - -1.5177207321976707e+00
      - 8.5107744529688608e-03
      - -1.5064235612764301e+00
      - 8.2122913738819272e-03
      - -1.3574694970763621e+00
      - 7.8486032151969046e-03
      - -1.0380373110960259e+00
      - 7.9859170736678916e-03
      - -8.2652695053248926e-01
      - 8.3373847290542733e-03
      - -7.0245561239776899e-01
      - 8.5934216768978489e-03
      - -6.4791847491601018e-01
      - 8.7602722699430327e-03
      - -6.1939762407026200e-01
      - 8.9277922537141993e-03
      - -5.9449932310521969e-01
      - 9.1116400025527226e-03
      - -5.7044219283896325e-01
      - 9.4516608882488275e-03
      - -5.3260322667665028e-01
      - 9.9514306944422891e-03
      - -4.8786423208860746e-01
      - 1.0688931832796570e-02
      - -4.3691785176969922e-01
      - 1.0022614400844534e-02
      - -4.8227927584799779e-01
      - 9.3275167294777708e-03
      - -5.4556940410960630e-01
      - 8.5102722173229124e-03
      - -6.6392484891302694e-01
      - 8.0089878566376761e-03
      - -8.1441169061103846e-01
      - 7.8571894735879506e-03
      - -1.0616792676435458e+00
      - 8.1966424274257637e-03
      - -1.3486757566714480e+00
      - 8.3090329433462874e-03
      - -1.4091615643963933e+00
      - 8.0503695993789422e-03
      - -1.2578143806497684e+00
      - 7.8471937643967964e-03
      - -1.0326836070309837e+00
      - 8.1691019967184905e-03
      - -7.5027321563083127e-01
      - 1.2022693579542993e-02
      - -3.7110073387469289e-01
      - 9.4011823661674918e-02
      - -4.1786404513275130e-02
      - 1.0094831630430593e-02
      - -4.7678039681503359e-01
      - 7.8431584367449712e-03
      - -9.9767861435672944e-01
      - 8.2658250789624781e-03
      - -1.3865934910542319e+00
      - 8.3222673268265688e-03
      - -1.4159271381408594e+00
      - 8.2901953014423158e-03
      - -1.3994160082861411e+00
      - 8.2081698268038072e-03
      - -1.3551667188004468e+00
      - 7.8472264377657530e-03
      - -1.0328170896923166e+00
      - 8.0969537310645913e-03
      - -7.7590405135405949e-01
      - 8.5047644899537388e-03
      - -6.6503524780222512e-01
      - 8.7665738113751890e-03
      - -6.1840000253998606e-01
      - 8.8201244488476330e-03
      - -6.1012598761683201e-01
      - 8.8320375909257311e-03
      - -6.0833295974890134e-01
      - 8.9086589532487142e-03
      - -5.9718496518368858e-01
      - 9.3638503661864370e-03
      - -5.4168272418519570e-01
      - 9.4605835777788749e-03
      - -5.3170434120767940e-01
      - 9.4038410381940152e-03
      - -5.3749417053424486e-01
      - 9.3875450623166993e-03
      - -5.3918992280296041e-01
      - 9.1418307081934450e-03
      - -5.6676399509357067e-01
      - 8.3951107074421213e-03
      - -6.8866193331645853e-01
      - 7.9847124042666702e-03
      - -8.2719094679230409e-01
      - 7.8683891406736498e-03
      - -1.0835289971751094e+00
      - 8.2133261095605706e-03
      - -1.3580461651600211e+00
      - 8.1827064905042185e-03
      - -1.3407251009358983e+00
      - 7.9965893991704468e-03
      - -1.2183441508571486e+00
      - 7.8431437924895188e-03
      - -9.9870967688193280e-01
      - 8.0570950592181098e-03
      - -7.9211283291677803e-01
      - 1.1752547476836153e-02
      - -3.8249648303646183e-01
      - 9.2320763438505843e-02
      - -4.2554567524269317e-02
      - 9.9565293429797561e-03
      - -4.8745856409525873e-01
      - 7.8814763094888114e-03
      - -1.1038849652994418e+00
      - 8.3819277510212477e-03
      - -1.4456715007811265e+00
      - 8.4080513471717980e-03
      - -1.4583436664570386e+00
      - 8.3046730556894464e-03
      - -1.4069183057524546e+00
      - 8.1827064905042185e-03
      - -1.3407251009358983e+00
      - 7.8564094662944717e-03
      - -1.0598925288542422e+00
      - 8.1926266434648454e-03
      - -7.4272322182169337e-01
      - 8.5057635986274301e-03
      - -6.6483332597819067e-01
      - 8.5896182180890054e-03
      - -6.4862153553424384e-01
      - 8.5756084937856983e-03
      - -6.5123414495594079e-01
      - 8.5565125568724809e-03
      - -6.5485492921946686e-01
      - 8.6027149214890075e-03
      - -6.4621161960118501e-01
      - 8.8148644750054919e-03
      - -6.1092303144881510e-01
      - 8.6613394363278164e-03
      - -6.3578648801674387e-01
      - 8.7805497854783095e-03
      - -6.1620583296003739e-01
      - 9.0040071089767925e-03
      - -5.8415893894136695e-01
      - 8.6758968098152364e-03
      - -6.3328445745344042e-01
      - 8.2091976077681861e-03
      - -7.3760355962012158e-01
      - 7.9167888788391465e-03
      - -8.7202483983342449e-01
      - 7.8764906775819002e-03
      - -1.0965737781393856e+00
      - 8.0753577386644109e-03
      - -1.2747465697736295e+00
      - 8.0955719421378011e-03
      - -1.2879328501258247e+00
      - 7.9569020892641829e-03
      - -1.1854448545190068e+00
      - 7.8489493410110415e-03
      - -9.6223609195221771e-01
      - 8.0474189564313011e-03
      - -7.9632821262186448e-01
      - 1.1490126194472289e-02
      - -3.9438430241743411e-01
      - 7.2069652000875339e-02
      - -5.4575662877357503e-02
      - 9.6268172804452046e-03
      - -5.1569039217527557e-01
      - 7.9899725202499505e-03
      - -1.2131269671618883e+00
      - 8.4089510077701487e-03
      - -1.4587765693072865e+00
      - 8.3986610838925838e-03
      - -1.4538114868152539e+00
      - 8.2301201660883710e-03
      - -1.3673263423254862e+00
      - 8.0732578260563816e-03
      - -1.2733518543588624e+00
      - 7.8540963096454808e-03
      - -1.0542793307783447e+00
      - 8.0191965035902313e-03
      - -8.0937714071629985e-01
      - 8.3754132553343474e-03
      - -6.9325063597123182e-01
      - 8.4874441685122842e-03
      - -6.6857115482985641e-01
      - 8.5885339880089444e-03
      - -6.4882243577134457e-01
      - 8.4589398965646111e-03
      - -6.7454175203579980e-01
      - 8.4786564702512661e-03
      - -6.7039132936005752e-01
      - 8.4603685564133228e-03
      - -6.7423784805082032e-01
      - 8.3767120720384929e-03
      - -6.9294444359640561e-01
      - 8.5988786105993201e-03
      - -6.4691434401949122e-01
      - 8.7031669869736296e-03
      - -6.2868442016812609e-01
      - 8.3042779736808535e-03
      - -7.1087621646874188e-01
      - 8.0055151150202463e-03
      - -8.1616717574994835e-01
      - 7.8561154384099736e-03
      - -9.4410322069723474e-01
      - 7.8714230970182847e-03
      - -1.0886117163784961e+00
      - 8.0096434677857462e-03
      - -1.2283762962687195e+00
      - 8.0368009348893363e-03
      - -1.2482853640589817e+00
      - 7.8894540859058525e-03
      - -1.1147431908927781e+00
      - 7.8611497403980515e-03
      - -9.3448465979539408e-01
      - 8.0085515679679167e-03
      - -8.1463100292516510e-01
      - 1.0906782028977293e-02
      - -4.2427663739772131e-01
      - 6.6534511477074273e-02
      - -5.9146560557734845e-02
      - 9.0907697151237903e-03
      - -5.7302660400247218e-01
      - 8.0657356436455163e-03
      - -1.2683147999590705e+00
      - 8.3469324011890486e-03
      - -1.4283681335792022e+00
      - 8.3650958212805812e-03
      - -1.4373977983566373e+00
      - 8.2272898544568044e-03
      - -1.3657726066847848e+00
      - 8.0387080860631396e-03
      - -1.2496402657493240e+00
      - 7.8973571584297110e-03
      - -1.1247004117677040e+00
      - 7.8480859790611493e-03
      - -9.6510178032373339e-01
      - 7.8874689900424733e-03
      - -8.9917910282706603e-01
      - 7.9180702162728860e-03
      - -8.7099283552030560e-01
      - 7.9785758891965878e-03
      - -8.3062692384998071e-01
      - 7.9051231046499641e-03
      - -8.8193156336050782e-01
      - 7.9028131462452259e-03
      - -8.8401561709669196e-01
      - 7.9141216072521267e-03
      - -8.7420644132270831e-01
      - 7.9326151633545804e-03
      - -8.5992569831671573e-01
      - 7.9569020892641847e-03
      - -8.4356517824335986e-01
      - 7.9861183880344782e-03
      - -8.2641631683228578e-01
      - 7.8939084406437939e-03
      - -8.9250597859503567e-01
      - 7.8507502877753019e-03
      - -9.5689951958202235e-01
      - 7.8433805295490058e-03
      - -1.0079073108769001e+00
      - 7.8748154837015461e-03
      - -1.0940070888362894e+00
      - 7.9764335842985035e-03
      - -1.2021422603863436e+00
      - 8.0212330331537601e-03
      - -1.2370201626158186e+00
      - 7.8618462853075055e-03
      - -1.0714975775336031e+00
      - 7.8681441916601171e-03
      - -9.2327008447573244e-01
      - 7.9781850122198697e-03
      - -8.3084890824804636e-01
      - 1.0623596553172774e-02
      - -4.4089297367268454e-01
      - 6.3663160631446392e-02
      - -6.1834231872182760e-02
      - 8.8732279785558605e-03
      - -6.0225960837149017e-01
      - 8.0358512432642110e-03
      - -1.2476087045953723e+00
      - 8.2782854534396814e-03
      - -1.3931809301859932e+00
      - 8.2488259451984278e-03
      - -1.3774953550008830e+00
      - 8.3050683493335956e-03
      - -1.4071219935501644e+00
      - 8.1794374325027050e-03
      - -1.3388429522143621e+00
      - 8.0862895028586193e-03
      - -1.2819300721558919e+00
      - 7.9967987283148315e-03
      - -1.2185076889907638e+00
      - 8.0244265989670421e-03
      - -1.2393620684076656e+00
      - 8.0353773673064611e-03
      - -1.2472705723088973e+00
      - 7.9135665978897485e-03
      - -1.1432932484238547e+00
      - 7.9754658789207410e-03
      - -1.2013399459000529e+00
      - 7.9319886306021825e-03
      - -1.1622770080214628e+00
      - 7.8708194738598240e-03
      - -1.0876212368762257e+00
      - 7.8540426739637792e-03
      - -1.0541428360110268e+00
      - 7.8510209596737955e-03
      - -1.0458533059682693e+00
      - 7.8616359197645844e-03
      - -1.0710806463752605e+00
      - 7.8950844733723328e-03
      - -1.1219073040289376e+00
      - 7.8941425385934197e-03
      - -1.1207338114571699e+00
      - 7.8927462581003128e-03
      - -1.1189763942907536e+00
      - 7.9335593007005979e-03
      - -1.1638131999211407e+00
      - 8.0363257656839056e-03
      - -1.2479469684740190e+00
      - 7.9758525062993222e-03
      - -1.2016607840607556e+00
      - 7.8640905107875188e-03
      - -1.0758167202636728e+00
      - 7.8556518941241826e-03
      - -9.4508208720311038e-01
      - 7.9750798576096200e-03
      - -8.3262613922045536e-01
      - 1.0468917367273012e-02
      - -4.5067371358501135e-01
      - 5.8056915530161721e-02
      - -6.7858002303006967e-02
      - 8.8582252559750371e-03
      - -6.0444949257160852e-01
      - 7.9758525062993222e-03
      - -1.2016607840607556e+00
      - 8.2119468490402751e-03
      - -1.3572773610660369e+00
      - 8.2202689799558016e-03
      - -1.3619006254770931e+00
      - 8.2495561637251896e-03
      - -1.3778889085522739e+00
      - 8.2174825012648958e-03
      - -1.3603567481177241e+00
      - 8.0969537310645913e-03
      - -1.2888191500674113e+00
      - 8.0358512432642110e-03
      - -1.2476087045953723e+00
      - 8.0654787657733415e-03
      - -1.2681416308221305e+00
      - 8.0806547354564176e-03
      - -1.2782432469344855e+00
      - 7.9512767111884260e-03
      - -1.1804181027941765e+00
      - 8.1386222387187686e-03
      - -1.3147447712898359e+00
      - 8.0766756568796810e-03
      - -1.2756194121553539e+00
      - 7.9671129674768817e-03
      - -1.1943108666152580e+00
      - 7.9595912716751011e-03
      - -1.1878109873352081e+00
      - 7.9727764430178732e-03
      - -1.1990973417540269e+00
      - 7.9815268678092958e-03
      - -1.2063261158299594e+00
      - 7.9422916785661813e-03
      - -1.1721545803149247e+00
      - 7.8888981958045012e-03
      - -1.1140153017766823e+00
      - 7.9108255011931857e-03
      - -1.1402926379957470e+00
      - 7.9485207519054916e-03
      - -1.1779153564368350e+00
      - 8.0232824525922480e-03
      - -1.2385249507604368e+00
      - 7.9972178517551083e-03
      - -1.2188348568266587e+00
      - 7.8994331553966356e-03
      - -1.1272067837765913e+00
      - 7.8516237117534898e-03
      - -9.5455012804269712e-01
      - 7.9530183642831011e-03
      - -8.4603377603933738e-01
      - 1.0399724060650867e-02
      - -4.5522794710807085e-01
      - 5.7259805840847437e-02
      - -6.8811574288403815e-02
      - 8.8870130625833613e-03
      - -6.0026925254511176e-01
      - 7.9367440885542168e-03
      - -1.1668935229821702e+00
      - 8.1428695706358446e-03
      - -1.3173075993552488e+00
      - 8.2027175753115310e-03
      - -1.3521059926279253e+00
      - 8.2699537363003003e-03
      - -1.3887836350109644e+00
      - 8.2040760280233972e-03
      - -1.3528701446766394e+00
      - 8.0085515679679167e-03
      - -1.2275496469066536e+00
      - 8.0131639767113769e-03
      - -1.2310268424029047e+00
      - 8.0346677647790410e-03
      - -1.2467636203651289e+00
      - 8.0384691252334134e-03
      - -1.2494707874445281e+00
      - 8.0598695534377842e-03
      - -1.2643406538767403e+00
      - 8.2251753697066346e-03
      - -1.3646091627408254e+00
      - 8.1787858701442614e-03
      - -1.3384670197192734e+00
      - 8.0881844323235745e-03
      - -1.2831625248836076e+00
      - 8.0606297118572638e-03
      - -1.2648579867929617e+00
      - 8.0616455788846981e-03
      - -1.2655482454010551e+00
      - 7.9656255644780776e-03
      - -1.1930388414030662e+00
      - 7.9434547661689520e-03
      - -1.1732416024097676e+00
      - 7.9167888788391465e-03
      - -1.1467563242705578e+00
      - 7.8940254203586930e-03
      - -1.1205872308545524e+00
      - 7.8956776892558610e-03
      - -1.1226415036498536e+00
      - 8.0758844003053290e-03
      - -1.2750956008553096e+00
      - 8.1583285163365615e-03
      - -1.3265236760970520e+00
      - 7.9540704518088028e-03
      - -1.1829279198010578e+00
      - 7.8432755937416967e-03
      - -9.9407821775567584e-01
      - 7.9225720315310964e-03
      - -8.6744491790425415e-01
      - 1.0423091567320054e-02
      - -4.5367700429428842e-01
      - 5.8468241275963832e-02
      - -6.7376249630468329e-02
      - 8.8609405760835085e-03
      - -6.0405129154410986e-01
      - 7.9372268128416763e-03
      - -1.1673564885869285e+00
      - 8.1161761706488641e-03
      - -1.3009643563763742e+00
      - 8.2010238212792911e-03
      - -1.3511517645485864e+00
      - 8.2550584288590516e-03
      - -1.3808463794310775e+00
      - 8.1130120054650392e-03
      - -1.2989880222797938e+00
      - 7.9089403359374304e-03
      - -1.1381981204825744e+00
      - 7.9184998890523030e-03
      - -1.1485684404920695e+00
      - 7.9483497563033034e-03
      - -1.1777591684896023e+00
      - 7.9106899297892233e-03
      - -1.1401428686573716e+00
      - 7.9385204738681749e-03
      - -1.1685922382000613e+00
      - 8.0506165519531291e-03
      - -1.2579854964067443e+00
      - 8.0535927984258879e-03
      - -1.2600415247799295e+00
      - 8.0162775495718711e-03
      - -1.2333526884742525e+00
      - 8.0033650049470655e-03
      - -1.2235925729012631e+00
      - 7.9230149728265285e-03
      - -1.1532666939562104e+00
      - 7.8555945480477691e-03
      - -1.0579721009930660e+00
      - 7.8752764062330269e-03
      - -1.0947193456054924e+00
      - 7.9190747791227350e-03
      - -1.1491732902118503e+00
      - 7.8761146124647387e-03
      - -1.0960027881786270e+00
      - 7.8688826725094273e-03
      - -1.0843741960717874e+00
      - 8.0140504089917502e-03
      - -1.2316907377455442e+00
      - 8.1966424274257637e-03
      - -1.3486757566714480e+00
      - 7.9893602852280018e-03
      - -1.2126394426468403e+00
      - 7.8500517059819294e-03
      - -1.0428811428763662e+00
      - 7.9035780906446772e-03
      - -8.8332052115129833e-01
      - 1.0492962110762999e-02
      - -4.4911774560593087e-01
      - 4.9459608246366943e-02
      - -7.9793131702821804e-02
      - 8.8447310024038495e-03
      - -6.0644077981782241e-01
      - 7.9498940160290209e-03
      - -1.1791658487106182e+00
      - 8.1179110341189839e-03
      - -1.3020442761383100e+00
      - 8.1929602469973575e-03
      - -1.3465862719196586e+00
      - 8.1520903330906790e-03
      - -1.3228253308834783e+00
      - 7.9170726253430194e-03
      - -1.1470580906900709e+00
      - 7.8472921786065259e-03
      - -9.6797539541937816e-01
      - 7.8715967759081500e-03
      - -9.1836227369074042e-01
      - 7.9186433979855433e-03
      - -8.7053445164593946e-01
      - 7.9463092758864894e-03
      - -8.5042181624578483e-01
      - 7.9528435340509591e-03
      - -8.4614609935091634e-01
      - 7.8524951309574074e-03
      - -9.5232921662941394e-01
      - 7.8496735819841758e-03
      - -9.5999886283685687e-01
      - 7.8510209596737955e-03
      - -9.5615703874854863e-01
      - 7.8741758851157660e-03
      - -9.1490400363282798e-01
      - 7.9403144687531790e-03
      - -8.5448599735126407e-01
      - 8.0578497538529442e-03
      - -7.9178907818533228e-01
      - 8.0048684404679018e-03
      - -8.1649658092772603e-01
      - 7.9034502500078055e-03
      - -8.8343634185771558e-01
      - 7.8905762041051510e-03
      - -8.9589622597332952e-01
      - 7.8543121764736087e-03
      - -9.4802409966853762e-01
      - 7.9070827768827553e-03
      - -1.1361084384468261e+00
      - 8.1115807570953848e-03
      - -1.2980911890012705e+00
      - 8.0136068771538057e-03
      - -1.2313587269719286e+00
      - 7.8658387263500756e-03
      - -1.0790341315172480e+00
      - 7.8555373345999373e-03
      - -9.4532694438741216e-01
      - 1.0355180983316092e-02
      - -4.5822177231789424e-01
      - 5.3398203675059423e-02
      - -7.3840511473193857e-02
      - 8.9905239103245035e-03
      - -5.8594825442534226e-01
      - 7.9671129674768817e-03
      - -1.1943108666152580e+00
      - 8.2572720319683997e-03
      - -1.3820322537766812e+00
      - 8.2756236577759719e-03
      - -1.3917793207488076e+00
      - 8.1768356727748102e-03
      - -1.3373402139638169e+00
      - 7.9704947834680906e-03
      - -1.1971796367406409e+00
      - 7.8466281018292183e-03
      - -9.7060611407823827e-01
      - 8.0072464688029001e-03
      - -8.1528915102867749e-01
      - 8.2081698268038072e-03
      - -7.3791658703452390e-01
      - 8.1850060066791658e-03
      - -7.4513145386175761e-01
      - 8.0508636686732870e-03
      - -7.9481358956511261e-01
      - 7.8712499582744878e-03
      - -9.1884012464827114e-01
      - 7.8908022830050349e-03
      - -8.9566209451494683e-01
      - 7.9597717408373316e-03
      - -8.4177283951584569e-01
      - 8.0070295012242693e-03
      - -8.1539887321602311e-01
      - 8.1456186719675271e-03
      - -7.5817357215510783e-01
      - 8.5259610933564461e-03
      - -6.6079776184752403e-01
      - 8.6016174463987849e-03
      - -6.4641238404884871e-01
      - 8.5523161480372100e-03
      - -6.5566008759582761e-01
      - 8.3328593402642107e-03
      - -7.0358328384989410e-01
      - 7.8901257019835750e-03
      - -8.9636463232369956e-01
      - 7.9799487491630430e-03
      - -1.2050366570948039e+00
      - 8.2000098654327856e-03
      - -1.3505797397954828e+00
      - 8.1243264910280111e-03
      - -1.3060156415201147e+00
      - 7.8811732231517783e-03
      - -1.1034532896734022e+00
      - 7.8431660857860123e-03
      - -9.9729223924376020e-01
      - 1.0283240297789660e-02
      - -4.6316404718927634e-01
      - 4.8252036545498693e-02
      - -8.1816639113461792e-02
      - 9.0963609627519298e-03
      - -5.7233081716640788e-01
      - 7.9706840921571712e-03
      - -1.1973392864388779e+00
      - 8.3933410527030454e-03
      - -1.4512325096525320e+00
      - 8.4085010608170568e-03
      - -1.4585600902418643e+00
      - 8.3058595718483452e-03
      - -1.4075295158369756e+00
      - 8.0865596956051656e-03
      - -1.2821060290016271e+00
      - 7.8574954544485681e-03
      - -1.0623673720260460e+00
      - 8.1228609241221286e-03
      - -7.6621809162563248e-01
      - 8.3452635948985145e-03
      - -7.0050918418003993e-01
      - 8.1863241575426647e-03
      - -7.4471239251892152e-01
      - 8.0140504089917519e-03
      - -8.1189211654735227e-01
      - 7.8968745315869168e-03
      - -8.8959132776052707e-01
      - 7.9835132442142576e-03
      - -8.2785527636881406e-01
      - 8.1222759358996251e-03
      - -7.6643033211536771e-01
      - 8.1398321607149132e-03
      - -7.6018097489816683e-01
      - 8.3928992143982688e-03
      - -6.8917135098526361e-01
      - 8.7427963340050013e-03
      - -6.2219190966658633e-01
      - 9.0670355847115944e-03
      - -5.7600845913218346e-01
      - 9.3704527419110079e-03
      - -5.4098485024531218e-01
      - 8.7748135554186757e-03
      - -6.1710335020857898e-01
      - 7.8715967759081500e-03
      - -9.1836227369074042e-01
      - 8.0846719222852532e-03
      - -1.2808750844363257e+00
      - 8.2801929248548477e-03
      - -1.3941834974196852e+00
      - 8.2023784414433469e-03
      - -1.3519150615694868e+00
      - 7.9583321558857490e-03
      - -1.1867060058323657e+00
      - 7.8453756993650328e-03
      - -1.0241785971898645e+00
      - 1.0144311113422377e-02
      - -4.7310539141401076e-01
      - 4.6286282078553363e-02
      - -8.5341266375951200e-02
      - 9.1928958053156071e-03
      - -5.6069839473641403e-01
      - 7.9267562837488804e-03
      - -1.1570735785565098e+00
      - 8.4933477239341956e-03
      - -1.4984453148571795e+00
      - 8.6254594425020994e-03
      - -1.5573938016247626e+00
      - 8.4854843491939252e-03
      - -1.4948229725813214e+00
      - 8.4452424682669343e-03
      - -1.4760555531197845e+00
      - 7.9617667392598828e-03
      - -1.1897084542625436e+00
      - 7.8996800363789685e-03
      - -8.8691630414891309e-01
      - 7.9893602852280018e-03
      - -8.2464743008630026e-01
      - 7.9456338151215628e-03
      - -8.5087273929491736e-01
      - 7.9362626715112402e-03
      - -8.5731618404560828e-01
      - 7.9250990672682948e-03
      - -8.6550370168662083e-01
      - 7.9918175399277935e-03
      - -8.2332230549008223e-01
      - 8.1073132145407772e-03
      - -7.7195858014141272e-01
      - 8.0964004990987035e-03
      - -7.7611760665553242e-01
      - 8.2782854534396797e-03
      - -7.1778186044112535e-01
      - 8.4405664007610303e-03
      - -6.7849566574587528e-01
      - 8.5809750341353744e-03
      - -6.5022906139069769e-01
      - 8.8602612292159079e-03
      - -6.0415084008457931e-01
      - 8.4560891711304327e-03
      - -6.7514966316304470e-01
      - 7.8586245076940203e-03
      - -9.3910055531597658e-01
      - 8.1684623541375297e-03
      - -1.3324744889685565e+00
      - 8.3523803926356388e-03
      - -1.4310879055694441e+00
      - 8.4303634878272055e-03
      - -1.4690139681895416e+00
      - 8.1205252121687877e-03
      - -1.3036667060434379e+00
      - 7.8637198429875547e-03
      - -1.0751187405089069e+00
      - 9.9349433892472905e-03
      - -4.8918211734640765e-01
      - 4.4728432694187081e-02
      - -8.8359589441066796e-02
      - 9.2677283019586745e-03
      - -5.5214181567598797e-01
      - 7.8800724164215328e-03
      - -1.1018722047641412e+00
      - 8.4680253330992397e-03
      - -1.4867288570215214e+00
      - 8.7452777936946110e-03
      - -1.6082531988061612e+00
      - 8.6776560692207964e-03
      - -1.5798179864251622e+00
      - 8.5831292711735837e-03
      - -1.5388708539412288e+00
      - 8.0356142244978074e-03
      - -1.2474396220102422e+00
      - 7.8478370268482006e-03
      - -9.6597551644187996e-01
      - 7.9583321558857490e-03
      - -8.4266869391850030e-01
      - 7.9723946571177880e-03
      - -8.3418320286400049e-01
      - 8.0281147166175581e-03
      - -8.0512298822961337e-01
      - 8.0966770289830955e-03
      - -7.7601082530655863e-01
      - 8.0521017159544111e-03
      - -7.9427303666298921e-01
      - 8.1742458674821782e-03
      - -7.4859258160134634e-01
      - 8.2329630796235467e-03
      - -7.3052266654542175e-01
      - 8.4728428175959766e-03
      - -6.7160543786409166e-01
      - 8.5239227821653045e-03
      - -6.6120107541243023e-01
      - 8.6953959231982538e-03
      - -6.2998396073523921e-01
      - 8.8366998960419298e-03
      - -6.0763578720275158e-01
      - 8.3365599695594383e-03
      - -7.0266060014569420e-01
      - 7.8512963813285267e-03
      - -9.5541508243699291e-01
      - 8.2401257280415308e-03
      - -1.3727868595083264e+00
      - 8.6282655427361021e-03
      - -1.5586106674701763e+00
      - 8.5403459595179958e-03
      - -1.5198121791290724e+00
      - 8.1843480613974333e-03
      - -1.3416677333005738e+00
      - 7.8752764062330269e-03
      - -1.0947193456054924e+00
      - 9.7213625246042479e-03
      - -5.0715199801937183e-01
      - 4.3488192911946305e-02
      - -9.0920924948572068e-02
      - 9.3971127879859482e-03
      - -5.3819248704311129e-01
      - 7.8538294550950793e-03
      - -1.0535970521975662e+00
      - 8.3871762088805948e-03
      - -1.4482335874765579e+00
      - 8.8070143440521793e-03
      - -1.6336698899508644e+00
      - 8.7621593911074349e-03
      - -1.6152523253527029e+00
      - 8.4742928830502124e-03
      - -1.4896428242949382e+00
      - 8.0518537778653219e-03
      - -1.2588415822297403e+00
      - 7.8454735871472375e-03
      - -9.7588777264322490e-01
      - 7.9076106944269125e-03
      - -8.7973572844408998e-01
      - 8.0408660330852193e-03
      - -7.9925377808140607e-01
      - 8.2354609940978978e-03
      - -7.2979529150828859e-01
      - 8.2372511554595091e-03
      - -7.2927591104490741e-01
      - 8.2433748354247272e-03
      - -7.2751109009951909e-01
      - 8.3612601264539590e-03
      - -6.9662143721728786e-01
      - 8.4461805741812158e-03
      - -6.7727844558381911e-01
      - 8.8050592486714156e-03
      - -6.1241773454082427e-01
      - 8.8663877825847191e-03
      - -6.0325494382716427e-01
      - 8.8366998960419298e-03
      - -6.0763578720275158e-01
      - 8.5638973726450199e-03
      - -6.5344637844825471e-01
      - 8.1211080803440094e-03
      - -7.6685489780229665e-01
      - 7.8459130149453968e-03
      - -1.0269611276544137e+00
      - 8.2756236577759719e-03
      - -1.3917793207488076e+00
      - 8.7966213742288971e-03
      - -1.6294250383615241e+00
      - 8.9072521145390146e-03
      - -1.6739653638213192e+00
      - 8.4728428175959731e-03
      - -1.4889694806228817e+00
      - 7.8800724164215328e-03
      - -1.1018722047641412e+00
      - 9.9273765655790280e-03
      - -4.8979009874727492e-01
      - 4.2824679294028264e-02
      - -9.2353674100517369e-02
      - 9.3713979711477872e-03
      - -5.4088514707199842e-01
      - 7.8433073028718048e-03
      - -1.0066067173636599e+00
      - 8.1729554380792994e-03
      - -1.3350910514574257e+00
      - 8.5465738336681085e-03
      - -1.5226088196984409e+00
      - 8.3876150649892841e-03
      - -1.4484474446799926e+00
      - 8.1694220960004758e-03
      - -1.3330345069701073e+00
      - 7.9138438193350220e-03
      - -1.1435938584093814e+00
      - 7.8636461110568566e-03
      - -9.3025055153543679e-01
      - 7.9353037563919711e-03
      - -8.5799639401907868e-01
      - 8.0761479839022397e-03
      - -7.8414756657902707e-01
      - 8.1765112939909974e-03
      - -7.4785782253715716e-01
      - 8.1287497902290014e-03
      - -7.6409723254118378e-01
      - 8.1678234524712821e-03
      - -7.5069363301888503e-01
      - 8.2606060894260119e-03
      - -7.2264038047763113e-01
      - 8.2725939529719322e-03
      - -7.1933115049692864e-01
      - 8.5502243231828281e-03
      - -6.5606274179732504e-01
      - 8.7818280506404174e-03
      - -6.1600640268325357e-01
      - 8.6936098286155457e-03
      - -6.3028390637390774e-01
      - 8.2975938826222850e-03
      - -7.1262618191338389e-01
      - 8.0341955035631435e-03
      - -8.0229403684806821e-01
      - 7.8434952772619224e-03
      - -9.9049066038272648e-01
      - 8.0955719421378011e-03
      - -1.2879328501258247e+00
      - 8.6653970036046739e-03
      - -1.5745904643044570e+00
      - 9.1776574200473828e-03
      - -1.7778141504023808e+00
      - 8.6221014657168853e-03
      - -1.5559358584979384e+00
      - 7.8755545871581328e-03
      - -1.0951469623899168e+00
      - 1.0004272199646311e-02
      - -4.8370236280452616e-01
      - 4.0178273259524819e-02
      - -9.8552194480028762e-02
      - 9.0344200869878367e-03
      - -5.8018299248751359e-01
      - 7.8541500777291762e-03
      - -1.0544158450864922e+00
      - 8.1252079564992641e-03
      - -1.3065586175833845e+00
      - 8.3332696506342833e-03
      - -1.4215030168216576e+00
      - 8.2744859769344151e-03
      - -1.3911793380903779e+00
      - 8.1922932296829825e-03
      - -1.3462069147687128e+00
      - 7.9486918946462190e-03
      - -1.1780715718213348e+00
      - 7.8432696442364228e-03
      - -9.9420658143694107e-01
      - 7.9076106944269125e-03
      - -8.7973572844408998e-01
      - 8.0014432562883868e-03
      - -8.1825475820246496e-01
      - 7.9731588332233403e-03
      - -8.3373813761793658e-01
      - 7.8851032539418407e-03
      - -9.0176514769587879e-01
      - 7.8719457545514612e-03
      - -9.1788462903611623e-01
      - 7.8799731615685539e-03
      - -9.0766455222280629e-01
      - 7.8957967486883301e-03
      - -8.9063975643080506e-01
      - 7.9957536322862732e-03
      - -8.2122687298371111e-01
      - 8.1468451987980004e-03
      - -7.5775127309026602e-01
      - 8.1771602383464304e-03
      - -7.4764794904860554e-01
      - 8.0356142244978074e-03
      - -8.0164200523669860e-01
      - 7.9242024462224808e-03
      - -8.6618848172652707e-01
      - 7.8486032151969046e-03
      - -1.0380373110960259e+00
      - 8.1022438535902665e-03
      - -1.2921954361306351e+00
      - 8.5649566323825026e-03
      - -1.5308187353281530e+00
      - 8.8373672907258883e-03
      - -1.6459924628440632e+00
      - 8.3090329433462874e-03
      - -1.4091615643963933e+00
      - 7.8568266811669014e-03
      - -1.0608542008991213e+00
      - 1.0161048543570564e-02
      - -4.7187870077857991e-01
      - 3.5720738387739301e-02
      - -1.1114015407340837e-01
      - 8.5939661287556257e-03
      - -6.4781804909043661e-01
      - 7.8819841851782771e-03
      - -1.1046048740444017e+00
      - 8.0724731333038750e-03
      - -1.2728294161426761e+00
      - 8.1047715017635788e-03
      - -1.2937993647135806e+00
      - 8.0688311983856693e-03
      - -1.2703955392670716e+00
      - 8.1555122854937226e-03
      - -1.3248574425099597e+00
      - 8.0065960362674677e-03
      - -1.2260636451895932e+00
      - 7.8435050196073840e-03
      - -1.0097310109489404e+00
      - 7.9202313979669110e-03
      - -8.6927479639848770e-01
      - 7.9290441441796731e-03
      - -8.6254077112385519e-01
      - 7.8737230930012499e-03
      - -9.1549948886354393e-01
      - 7.8528961704773820e-03
      - -1.0511448795576923e+00
      - 7.8764906775819002e-03
      - -1.0965737781393856e+00
      - 7.8741758851157660e-03
      - -1.0930108470716924e+00
      - 7.8620578530395040e-03
      - -1.0719146933771890e+00
      - 7.8516710013002596e-03
      - -9.5442662115999266e-01
      - 7.9710631617687742e-03
      - -8.3496243376858303e-01
      - 8.0452214380424391e-03
      - -7.9730273915680749e-01
      - 8.0059470137895626e-03
      - -8.1594761655291481e-01
      - 7.8901257019835750e-03
      - -8.9636463232369956e-01
      - 7.8579919359671631e-03
      - -1.0634693792720751e+00
      - 8.1392268400181395e-03
      - -1.3151104206499935e+00
      - 8.3999962871622782e-03
      - -1.4544574591242785e+00
      - 8.3324492472780527e-03
      - -1.4210887295971051e+00
      - 8.0241974504988867e-03
      - -1.2391945805163438e+00
      - 7.8599962400606061e-03
      - -1.0677518197617775e+00
      - 9.7247834038215117e-03
      - -5.0685018627548228e-01
      - 2.4201241961385213e-02
      - -1.6653391740891219e-01
      - 8.4085010608170585e-03
      - -6.8560768026648533e-01
      - 7.8675773521295744e-03
      - -1.0821220295768792e+00
      - 8.0122800688225242e-03
      - -1.2303634514463531e+00
      - 7.9645163092508554e-03
      - -1.1920860221010807e+00
      - 7.8845748498025392e-03
      - -1.1082128803900317e+00
      - 7.9190747791227350e-03
      - -1.1491732902118503e+00
      - 7.8610120334019640e-03
      - -1.0698309588401664e+00
      - 7.9172147117736718e-03
      - -8.7168073970608728e-01
      - 8.0327825906282447e-03
      - -8.0294636875565839e-01
      - 8.0167248760646698e-03
      - -8.1057938464436707e-01
      - 7.9167888788391465e-03
      - -8.7202483983342449e-01
      - 7.8477323050171032e-03
      - -1.0348215377412966e+00
      - 7.8763023734553378e-03
      - -1.0962882391690798e+00
      - 7.8690482601735858e-03
      - -1.0846560991620740e+00
      - 7.8540963096454808e-03
      - -1.0542793307783447e+00
      - 7.8626279132328839e-03
      - -9.3194221101972730e-01
      - 7.9957536322862732e-03
      - -8.2122687298371111e-01
      - 8.0563418519590015e-03
      - -7.9243665940548957e-01
      - 8.0652220546188428e-03
      - -7.8866312757463930e-01
      - 7.9458024602339031e-03
      - -8.5075999330840113e-01
      - 7.8433140370252341e-03
      - -1.0067367000906950e+00
      - 7.9381961859294192e-03
      - -1.1682831404172560e+00
      - 7.9078754969508971e-03
      - -1.1370034261164708e+00
      - 7.9263025930551949e-03
      - -1.1566158991048752e+00
      - 7.8927462581003128e-03
      - -1.1189763942907536e+00
      - 7.8431388892973176e-03
      - -9.9935463045875506e-01
      - 9.3808783277075022e-03
      - -5.3988801882405968e-01
      - 1.9660130515049650e-02
      - -2.0810673336992358e-01
      - 8.6316422322251368e-03
      - -6.4099555958293974e-01
      - 7.8457535952247467e-03
      - -9.7450185754503116e-01
      - 7.9059031829531064e-03
      - -1.1347676121564154e+00
      - 7.8668582382016329e-03
      - -1.0808575667067695e+00
      - 7.8436668524677500e-03
      - -9.8844633877910648e-01
      - 7.8659940976490948e-03
      - -9.2651406591434560e-01
      - 8.1564493815327564e-03
      - -7.5448209903694663e-01
      - 8.4757451783566608e-03
      - -6.7099831720418857e-01
      - 8.3345018868924668e-03
      - -7.0317315386911505e-01
      - 8.1266806124303849e-03
      - -7.6483921437201097e-01
      - 7.9970082124981075e-03
      - -8.2056583654407222e-01
      - 7.8500517059819294e-03
      - -9.5888204214902573e-01
      - 7.8527951174256309e-03
      - -1.0508728040630086e+00
      - 7.8536709307692621e-03
      - -1.0531879191427911e+00
      - 7.8467194244837592e-03
      - -1.0306835663930767e+00
      - 7.8946123970946858e-03
      - -8.9180579203100396e-01
      - 8.0481544057753266e-03
      - -7.9600351683822024e-01
      - 8.1608442993334578e-03
      - -7.5300779444350086e-01
      - 8.3308110474865724e-03
      - -7.0409605545758525e-01
      - 8.5825903028178604e-03
      - -6.4992759362203678e-01
      - 8.3775790823214895e-03
      - -6.9274033771967169e-01
      - 8.0068126903912219e-03
      - -8.1550860422465310e-01
      - 7.9170726253430194e-03
      - -8.7179542877239913e-01
      - 7.8453036599621228e-03
      - -9.7677069418817641e-01
      - 7.8431922365227134e-03
      - -9.9626263271383864e-01
      - 7.8952028391067047e-03
      - -8.9122262726129386e-01
      - 9.8086739604591848e-03
      - -4.9959648125135464e-01
      - 2.8691276916916378e-02
      - -1.3933513919141605e-01
      - 1.1520530234207989e-02
      - -3.9296238570343012e-01
      - 8.8725423946732617e-03
      - -6.0235913706173627e-01
      - 8.4161819682069868e-03
      - -6.8387862619385220e-01
      - 8.7140114292225384e-03
      - -6.2688564468393382e-01
      - 9.3751839837144524e-03
      - -5.4048631693330174e-01
      - 1.0480108921983639e-02
      - -4.4994781391065197e-01
      - 1.1724760912019461e-02
      - -3.8371531935049352e-01
      - 1.1816641933272490e-02
      - -3.7971928267951677e-01
      - 1.1264062211405039e-02
      - -4.0535353121391288e-01
      - 1.0559905665076322e-02
      - -4.4485562570801990e-01
      - 9.8936554681767503e-03
      - -4.9252392541126250e-01
      - 9.1810313063846339e-03
      - -5.6209071234689056e-01
      - 8.6389935930364647e-03
      - -6.3969265728062585e-01
      - 8.5087670453767184e-03
      - -6.6422764357262631e-01
      - 8.7397015483405872e-03
      - -6.2269104046550061e-01
      - 9.3942370399993196e-03
      - -5.3849173726183319e-01
      - 1.0202012915001155e-02
      - -4.6891059489762571e-01
      - 1.1274847903551065e-02
      - -4.0481362400254634e-01
      - 1.2896170354556579e-02
      - -3.3904273301083593e-01
      - 1.5464529746658790e-02
      - -2.7240135192871862e-01
      - 1.5204435651271759e-02
      - -2.7783185998014659e-01
      - 1.1591897125046683e-02
      - -3.8967183679684048e-01
      - 9.7651301824566213e-03
      - -5.0332658252577656e-01
      - 8.8480917437593013e-03
      - -6.0594291296190228e-01
      - 8.6492524018052415e-03
      - -6.3788934433972289e-01
      - 9.5796233671063373e-03
      - -5.2010119144627232e-01
      - 1.6002725472507733e-02
      - -2.6185996291262331e-01
   output_scale:
      - 5.2631578947368418e-01
      - 4.9999999999999994e-01
      - 5.2631578947368418e-01
      - 4.9999999999999994e-01
      - 5.2631578947368418e-01
      - 4.9999999999999994e-01
      - 5.2631578947368418e-01
      - 4.9999999999999994e-01
      - 5.2631578947368418e-01
      - 4.9999999999999994e-01
      - 5.2631578947368418e-01
      - 4.9999999999999994e-01
      - 5.2631578947368418e-01
      - 4.9999999999999994e-01
      - 5.2631578947368418e-01
      - 4.9999999999999994e-01
      - 5.2631578947368418e-01
      - 4.9999999999999994e-01
      - 5.2631578947368418e-01
      - 4.9999999999999994e-01
      - 5.2631578947368418e-01
      - 4.9999999999999994e-01
      - 5.2631578947368418e-01
      - 4.9999999999999994e-01
      - 5.2631578947368418e-01
      - 4.9999999999999994e-01
      - 5.2631578947368418e-01
      - 4.9999999999999994e-01
      - 5.2631578947368418e-01
      - 4.9999999999999994e-01
      - 5.2631578947368418e-01
      - 4.9999999999999994e-01
      - 5.2631578947368418e-01
      - 4.9999999999999994e-01
      - 5.2631578947368418e-01
      - 4.9999999999999994e-01
      - 5.2631578947368418e-01
      - 4.9999999999999994e-01
      - 5.2631578947368418e-01
      - 4.9999999999999994e-01
      - 5.2631578947368418e-01
      - 4.9999999999999994e-01
      - 5.2631578947368418e-01
      - 4.9999999999999994e-01
      - 5.2631578947368418e-01
      - 4.9999999999999994e-01
      - 5.2631578947368418e-01
      - 4.9999999999999994e-01
      - 5.2631578947368418e-01
      - 4.9999999999999994e-01
      - 5.2631578947368418e-01
      - 4.9999999999999994e-01
      - 5.2631578947368418e-01
      - 4.9999999999999994e-01
      - 5.2631578947368418e-01
      - 4.9999999999999994e-01
      - 5.2631578947368418e-01
      - 4.9999999999999994e-01
      - 5.2631578947368418e-01
      - 4.9999999999999994e-01
      - 5.2631578947368418e-01
      - 4.9999999999999994e-01
      - 5.2631578947368418e-01
      - 4.9999999999999994e-01
   inv_output_scale:
      - 1.8999999999999999e+00
      - -9.4999999999999996e-01
      - 1.8999999999999999e+00
      - -9.4999999999999996e-01
      - 1.8999999999999999e+00
      - -9.4999999999999996e-01
      - 1.8999999999999999e+00
      - -9.4999999999999996e-01
      - 1.8999999999999999e+00
      - -9.4999999999999996e-01
      - 1.8999999999999999e+00
      - -9.4999999999999996e-01
      - 1.8999999999999999e+00
      - -9.4999999999999996e-01
      - 1.8999999999999999e+00
      - -9.4999999999999996e-01
      - 1.8999999999999999e+00
      - -9.4999999999999996e-01
      - 1.8999999999999999e+00
      - -9.4999999999999996e-01
      - 1.8999999999999999e+00
      - -9.4999999999999996e-01
      - 1.8999999999999999e+00
      - -9.4999999999999996e-01
      - 1.8999999999999999e+00
      - -9.4999999999999996e-01
      - 1.8999999999999999e+00
      - -9.4999999999999996e-01
      - 1.8999999999999999e+00
      - -9.4999999999999996e-01
      - 1.8999999999999999e+00
      - -9.4999999999999996e-01
      - 1.8999999999999999e+00
      - -9.4999999999999996e-01
      - 1.8999999999999999e+00
      - -9.4999999999999996e-01
      - 1.8999999999999999e+00
      - -9.4999999999999996e-01
      - 1.8999999999999999e+00
      - -9.4999999999999996e-01
      - 1.8999999999999999e+00
      - -9.4999999999999996e-01
      - 1.8999999999999999e+00
      - -9.4999999999999996e-01
      - 1.8999999999999999e+00
      - -9.4999999999999996e-01
      - 1.8999999999999999e+00
      - -9.4999999999999996e-01
      - 1.8999999999999999e+00
      - -9.4999999999999996e-01
      - 1.8999999999999999e+00
      - -9.4999999999999996e-01
      - 1.8999999999999999e+00
      - -9.4999999999999996e-01
      - 1.8999999999999999e+00
      - -9.4999999999999996e-01
      - 1.8999999999999999e+00
      - -9.4999999999999996e-01
      - 1.8999999999999999e+00
      - -9.4999999999999996e-01
      - 1.8999999999999999e+00
      - -9.4999999999999996e-01
      - 1.8999999999999999e+00
      - -9.4999999999999996e-01
   weights:
      -
         - -7.7080109959579294e-03
         - 3.2944798683388053e-03
         - -2.8672312681837322e-03
         - 4.6476583664064579e-03
         - 1.2009841939931256e-02
         - -8.3796041719347346e-05
         - -2.4466007789854999e-02
         - -2.6837242754923826e-02
         - -2.2069255767696951e-03
         - 1.4788456033190218e-02
         - -1.6056513915932265e-02
         - 1.9084066523581588e-02
         - 1.4386899614281197e-02
         - -1.8568417553258366e-02
         - 7.5848457107875571e-04
         - 7.5074626494379846e-03
         - 2.7224449761081094e-03
         - 1.6354264637013082e-03
         - 6.0924288765296999e-03
         - 3.0553706933807582e-03
         - 1.2479649782347686e-02
         - 4.9105550064420141e-02
         - 1.9652620848544526e-03
         - -9.9477025966840504e-03
         - -1.8299861029743493e-02
         - 4.2698216020760982e-03
         - -2.5255581656573014e-02
         - 7.8008132973156627e-03
         - 3.2018074119660746e-03
         - -1.4954147116500584e-02
         - 8.7422240765859163e-03
         - 2.5999928505561634e-03
         - -9.5249229923441720e-03
         - -1.0227738421041965e-02
         - 8.9421255622420641e-03
         - -2.4754027087194631e-03
         - -4.9800401890116404e-03
         - 9.4114819234924346e-03
         - -1.3529628805317259e-02
         - 8.5635684948185582e-03
         - 1.1928540691950170e-02
         - -1.5265548203391561e-02
         - -5.6857782716487242e-04
         - 1.9286235726541424e-03
         - -2.1222227680753867e-03
         - 6.3508959095509064e-03
         - 8.1910118945669828e-03
         - -1.9401971093805257e-03
         - -1.2861226243627595e-02
         - 1.6468652534570714e-02
         - 3.6801953423279380e-03
         - 2.0824081553265510e-04
         - 7.4913465487494559e-03
         - -2.0948526035721341e-02
         - -4.8097898816384654e-03
         - 8.6884809537652215e-03
         - -8.6921575785956599e-03
         - -4.6513678976850124e-02
         - 2.9483562209191547e-02
         - 6.3883505392833663e-03
         - -3.7161412269526045e-02
         - -2.2061597920425585e-02
         - -6.5943597973306895e-03
         - -1.2285518990150473e-02
         - 1.3889173870106854e-03
         - 1.0952798950070794e-02
         - -3.9370559012832148e-03
         - 2.7672982536494625e-02
         - 2.9808452465411198e-02
         - -1.7830982191617904e-02
         - 1.2815439014974003e-02
         - -8.5935570673173443e-03
         - -1.8166972263968420e-02
         - 1.8951743584538955e-02
         - 1.1580366284748752e-02
         - -1.5702144108012524e-02
         - -3.1769638837605023e-02
         - 1.5455297022047523e-02
         - 1.0952545119096074e-02
         - 1.4723514319618138e-02
         - 2.5215318220895906e-02
         - -5.3706109762604939e-02
         - -5.5519571879208505e-03
         - 2.3563697711288883e-02
         - -2.0205991993547732e-03
         - -3.4232515920788298e-02
         - 1.3690201895958140e-02
         - 5.8509663775721784e-03
         - -3.4179235929281140e-02
         - -1.9520224707664381e-02
         - -3.5983204566141049e-03
         - -3.8464356762537835e-03
         - 1.6684582434751544e-02
         - -7.2075548422250750e-03
         - 1.4397623729097057e-02
         - 2.5494910475066093e-02
         - 2.1185186362328783e-02
         - 1.6746124500110926e-02
         - 1.0554053052873635e-02
         - -1.3527492924417057e-02
         - -1.1966391894103732e-02
         - 4.0301105666625519e-03
         - 1.6144318438447328e-02
         - -2.4725958685411684e-03
         - -6.9345243822978081e-03
         - 1.4207070524426275e-02
         - -1.4827466268733193e-02
         - 1.6465786825128233e-02
         - 1.5665425878654726e-02
         - -4.8581046908489189e-02
         - -9.8178633714627074e-03
         - 9.5802067653964658e-03
         - -1.6542172028288563e-02
         - -2.5219841221759257e-03
         - 1.2754634772494524e-02
         - 2.0838609750890361e-02
         - -1.3194781817659864e-02
         - -1.7199117077130507e-02
         - -1.5179525661330972e-02
         - -2.9460441174517502e-03
         - 9.9457523452558243e-03
         - -4.9695319483179720e-03
         - 2.2986938863468635e-02
         - 2.7632202451544602e-02
         - 4.4323964586151631e-03
         - 2.9901449602783476e-02
         - 3.0883555566562432e-02
         - -9.3306851293769634e-04
         - -1.6009700351832006e-02
         - -6.7279758306253755e-03
         - 1.5490763868150527e-02
         - -4.6845908846466422e-03
         - -1.4960914598012077e-03
         - 1.1910755799262767e-02
         - -2.3887983602805418e-02
         - 2.6079264016589938e-03
         - -9.0767251291820929e-03
         - -4.0623153805561092e-02
         - -1.5815775116665997e-02
         - -5.7656512434592572e-03
         - -2.8748840499968578e-02
         - 2.2210337429315614e-02
         - -1.1106310765619327e-03
         - 2.8317538475960500e-02
         - 8.9058463620111678e-03
         - -1.1399629655512011e-02
         - -2.6513040547814573e-02
         - 3.6274520331387623e-03
         - -5.2352253377715551e-03
         - -1.3502461758803161e-02
         - 2.5250620981465112e-02
         - 2.5619745151717215e-02
         - -1.3311565399327466e-02
         - 4.0358782394457733e-02
         - 5.0992158042666942e-02
         - 6.3099027594163554e-03
         - -2.5261232529891885e-02
         - -8.0971090218871604e-03
         - 4.3048343751070520e-06
         - 7.4114283253948080e-04
         - 1.4538629827142595e-02
         - 9.0565440307044213e-03
         - -1.8788174313928326e-02
         - -1.2231831013473445e-02
         - -2.2363434799188633e-02
         - -2.0074786679223501e-02
         - -6.4834409736245699e-03
         - -2.2339280869058200e-02
         - -2.2186167722860441e-02
         - 3.7923703098212413e-02
         - -2.0011512065841588e-02
         - 2.7514576296455696e-02
         - 1.5713026052043725e-02
         - -5.3782405377856123e-03
         - -2.0083751354351372e-02
         - 1.0678637040744843e-02
         - -8.9480997494504472e-03
         - -1.5726705353059041e-02
         - 1.9939520563362022e-02
         - 2.2196458028144433e-02
         - -3.8382745499434823e-02
         - 3.0420023124616315e-02
         - 5.0151517856747575e-02
         - 1.3028321590085745e-02
         - -2.1290421805437623e-02
         - -8.8028907202304021e-03
         - -2.7050389211894467e-03
         - -3.7340205341870308e-03
         - 1.8606897171634055e-02
         - 7.4540333505840578e-04
         - -1.9139150213762491e-02
         - -2.5586178404725230e-02
         - -2.0922622182351212e-02
         - 4.0352454361144013e-03
         - 8.9215992121594728e-03
         - -1.5081543475149653e-02
         - -4.5538673263603550e-03
         - 1.5915695269612829e-02
         - -1.6231477192375776e-02
         - 2.2502108355195637e-02
         - 1.4929618847199393e-02
         - -8.4082739019925769e-03
         - 2.0470912285425243e-04
         - 1.5626730472738149e-02
         - -1.8172645801917499e-02
         - -3.0504859231450343e-03
         - -2.6484607494917871e-02
         - -5.9787491670226199e-03
         - -6.2983799181670644e-02
         - 1.9388451059128852e-02
         - 5.0146402023747089e-03
         - 1.4739501188317902e-02
         - -3.4644981417865588e-02
         - -1.0166557435776748e-02
         - -1.1212762562512807e-02
         - 3.5354737825830851e-03
         - -8.1944804220362589e-03
         - -2.3415376668202096e-03
         - -3.2057210974559325e-02
         - -3.2984959229697068e-02
         - -1.8051167508030076e-02
         - 2.6333618232636614e-02
         - 7.9493190281991338e-03
         - -1.6520423782134624e-02
         - 1.3454929013040757e-02
         - 3.1380227208464258e-03
         - -9.0956916325292403e-03
         - -1.8214674466034495e-03
         - 1.0478704935426399e-03
         - -6.3795345346573436e-03
         - -2.1117088688739748e-03
         - 4.6094390067582796e-03
         - -1.5163790159117440e-02
         - 2.4635379018412496e-02
         - -3.0784709494736461e-02
         - -9.7298703134448029e-03
         - -4.5494956575517199e-02
         - 1.8649839222715296e-02
         - -5.8696046539408846e-03
         - 5.1738869105037964e-03
         - -3.8483369732806479e-02
         - -7.2867068082780031e-03
         - -1.6935536792704271e-02
         - -5.1899529143383982e-05
         - -1.8225881476245900e-02
         - 1.0214918898352313e-02
         - -2.3006768967324467e-02
         - -1.8244965967204312e-02
         - -7.6963871499145385e-04
         - 2.2201566646769266e-02
         - 7.5979711713815854e-03
         - -7.9674246347607846e-03
         - 1.0063460380836326e-02
         - -6.3029409018197343e-03
         - -9.6879254495520917e-03
         - -5.8690170402526964e-04
         - 5.7050621524859747e-03
         - -1.3199012439461035e-02
         - -3.6900891321612343e-03
         - -8.6023110098482829e-04
         - -1.1791456022044943e-02
         - 2.6178507807033423e-02
         - -4.0646614949741637e-02
         - -1.2557763309612118e-02
         - -4.4776824548690780e-02
         - 9.9471694522279379e-03
         - -1.5345412375584179e-02
         - -1.3986211990209205e-03
         - -1.2026501221866961e-02
         - -8.1302343658423183e-03
         - -1.2429942103621597e-02
         - 2.5417694255306629e-03
         - -7.8325043134732444e-03
         - 2.9124660632583090e-03
         - -7.9764833039523801e-03
         - -2.1437995185636431e-02
         - 5.8616134909641087e-03
         - 3.4342999012036760e-02
         - 9.1390347116376228e-03
         - -2.3075811207202866e-03
         - -3.2072439281574864e-03
         - -1.4790391121611953e-02
         - 4.2745296689348251e-03
         - 2.1594886306794668e-03
         - 1.5270381279198621e-03
         - -6.1566723302431143e-03
         - 1.4717950480808840e-03
         - -8.0964031457561782e-03
         - -1.1639412715646244e-02
         - 1.4298473230695975e-02
         - -2.1233929940251934e-02
         - -1.7487154154015637e-03
         - -2.4885232184491915e-02
         - 2.2718542215780348e-03
         - -2.0007664337458077e-02
         - 8.0542443050213210e-03
         - -4.7241073052333733e-03
         - -5.1405176684150219e-03
         - -4.0598904316801971e-04
         - 6.8185112273050933e-03
         - -8.0695805403613024e-03
         - -1.0555651130666449e-02
         - -4.6029125423621420e-03
         - -1.6772773359496035e-02
         - -3.1471462493209571e-03
         - 1.5378066734023976e-02
         - -1.1874437419427242e-04
         - -4.9729230513282860e-03
         - -1.5704109878983005e-02
         - -7.4108306317853742e-03
         - 4.4237269160994751e-03
         - -5.8678579308170057e-03
         - -6.4435608489074184e-03
         - 3.3418404010019383e-03
         - 6.9260525546909818e-03
         - -2.5491980723634910e-02
         - -1.8724744305176259e-03
         - 1.1377614676274569e-02
         - 5.8828562418891291e-03
         - 1.0037414880341333e-02
         - -7.1469638778838137e-05
         - 6.9068235446445225e-03
         - 1.8711037743346478e-02
         - -5.4763328380866526e-03
         - 1.2007101054740262e-02
         - -1.7997956744728221e-03
         - -3.7662685142937817e-03
         - 6.8619990522715835e-03
         - -3.3363430581092677e-03
         - 1.1998374575312401e-03
         - 1.2294504726276589e-02
         - 1.1484498880698314e-02
         - 2.9276148470004557e-03
         - -7.7161368583195079e-04
         - -3.8673877846598700e-03
         - -7.2742808153830980e-03
         - -1.0374305570993338e-02
         - 5.0260165629335066e-03
         - -8.4570273231426851e-03
         - -9.0660689444464967e-03
         - -1.0828209618309033e-02
         - -2.6948224175909963e-02
         - 3.1952644472687149e-02
         - 9.8877888915501749e-05
         - -1.0790114659899423e-02
         - 4.9832018921748215e-03
         - 2.7626981448068487e-02
         - 1.1211156072091361e-02
         - 1.5921546442874350e-02
         - -5.3560619595519477e-04
         - 2.1347180624812688e-02
         - -1.3839682212104874e-02
         - 2.6465856665427976e-02
         - 1.1890012363341352e-02
         - -1.2049334472497165e-02
         - 5.0519331302126165e-03
         - 1.7378574695269929e-02
         - -1.7264066060318970e-02
         - -1.1129598349517000e-02
         - 1.6391854705367265e-02
         - 7.0328395866775016e-03
         - 1.4542933203556431e-02
         - -1.1775733759267605e-03
         - 1.1592796496664394e-02
         - 1.2465579786290978e-02
         - 2.7162025783587125e-02
         - 1.8232507980671685e-02
         - -2.2798945719292328e-02
         - -5.9708838190157109e-03
         - -9.7301427378527969e-03
         - 3.9611683215798457e-02
         - -1.4816424269436140e-03
         - -1.9907733500414398e-02
         - 1.3415775992095520e-02
         - 4.2202076987878236e-02
         - 9.7193695244003377e-03
         - 1.8856845171725714e-02
         - -1.0978134226521708e-02
         - 3.0564097707544082e-03
         - 2.4147894586899646e-03
         - 3.3874146586816582e-02
         - 6.4780115132398236e-03
         - -2.3126227102755668e-02
         - -6.4450672756147511e-03
         - 3.4344627283646047e-02
         - -2.8479783865743822e-02
         - -6.1690768311958334e-04
         - 2.5440477489520556e-02
         - 1.8404036554847045e-02
         - 1.7454397424112329e-02
         - -9.2712712203321165e-03
         - 2.6599758805796105e-02
         - 2.6666083821240142e-02
         - 2.4894606390349898e-02
         - 2.4190987667931995e-02
         - -3.6209719359666707e-02
         - -1.9713238346772497e-03
         - 3.2640669307156380e-04
         - 2.5690960777179035e-02
         - -1.8296630185306327e-02
         - -7.5726142364272398e-03
         - 1.1699623674138770e-02
         - 1.4308702989013334e-02
         - -1.4638597867181006e-02
         - 2.4851840254327261e-02
         - -2.3983010262222118e-02
         - -1.0239476674390605e-03
         - 3.7182288846493486e-03
         - 3.1177399270775927e-02
         - -3.0955501855184728e-03
         - -2.9901637637187100e-02
         - -6.3966151761737679e-03
         - 2.9497510801469382e-02
         - 4.8070676791592938e-03
         - -1.1073304212248577e-02
         - 1.9821054924755405e-02
         - 2.0412783932663034e-02
         - 2.6763369634919234e-02
         - -2.3951544176666305e-02
         - 2.5131262794675355e-02
         - 3.1895116862172626e-02
         - 3.4415584130191662e-02
         - 1.6214466849320149e-02
         - -3.5614811297706307e-02
         - -3.1757004759285093e-03
         - 4.0696997139539537e-03
         - 7.7543214935317977e-03
         - -4.1059755138803389e-02
         - 2.4278683795483222e-03
         - 2.4447709149354901e-02
         - -2.9411934991181374e-04
         - -4.2915120043001210e-03
         - 2.3370368505348030e-02
         - -1.8016352709735485e-02
         - 1.1049860482504724e-02
         - 1.2489304591331275e-02
         - 1.3221059035679482e-02
         - -8.5317511171828335e-03
         - -1.8766853284803105e-02
         - -6.0079332759507761e-03
         - 1.2965857435025338e-02
         - 2.6311149488627169e-02
         - 4.4970404283637203e-03
         - 1.6452444558684578e-02
         - 7.3252305739300331e-03
         - 1.0856417750002406e-02
         - -1.9351185744693061e-02
         - 7.2048794634558657e-03
         - -7.5741020032967865e-03
         - 1.0762401296344691e-02
         - 1.9279675042899951e-02
         - -2.6649969977962724e-02
         - -1.4923372131246426e-02
         - -1.4357347692897303e-02
         - 1.1305892936330276e-03
         - -2.9838716796513887e-02
         - -7.5838618435903329e-03
         - 1.3088255928087045e-02
         - 2.0524721905105536e-03
         - 2.4044335187815093e-02
         - 9.0235303063319477e-03
         - 2.0728816391418609e-03
         - 3.5495852482031118e-02
         - -1.1291711603053383e-02
         - 2.6371065117637392e-02
         - -1.1386991584122427e-02
         - -2.5881823408931720e-02
         - -1.3722252475080852e-02
         - 2.1338542761285386e-03
         - 1.3996908930535219e-03
         - 3.1076544962045059e-02
         - 1.3578636870885168e-02
         - 6.4706855398708862e-03
         - 1.1686191731716093e-03
         - -7.1937136638926110e-03
         - 7.0976374966449140e-03
         - -1.1748572660575572e-02
         - 1.3427833021489706e-04
         - 1.9968724127320005e-02
         - -1.5397636355882031e-02
         - -1.7367841043803754e-02
         - -7.2119234812695271e-03
         - -7.1001355427652508e-03
         - -2.1611477926697251e-02
         - 2.1176338359305143e-04
         - 2.5459199955777778e-02
         - -4.9036219131074147e-03
         - 1.4646003014977109e-02
         - 4.4630750871976765e-03
         - -8.6898437730265031e-03
         - 2.7028166139957597e-02
         - -4.3293373686624304e-03
         - 2.2383927169130548e-02
         - -7.8851479614606848e-04
         - -2.2033530023674728e-02
         - -1.6496718047217352e-02
         - 1.5241798142529741e-03
         - 6.2068644969408247e-03
         - 1.6067681835130854e-02
         - 1.1248232061883345e-03
         - 6.1211802820156855e-03
         - -7.4561572070042832e-03
         - -2.9856552023950328e-03
         - 1.0058802438125401e-02
         - -6.6037653306793157e-03
         - -3.1631405797453564e-03
         - 2.5361484209735580e-02
         - -4.5322492279433824e-03
         - -1.2978990301736429e-02
         - -5.8311267977424032e-03
         - 3.8245647663906535e-03
         - -6.3647108983482100e-03
         - 6.3805179951711391e-04
         - 1.6889266694151726e-02
         - 5.5273273432947436e-03
         - 1.1441736668117807e-02
         - 3.3268594083679472e-03
         - -1.2401507552904445e-02
         - 1.5941608778468116e-02
         - 1.9639647649084256e-03
         - 2.2374139631388471e-02
         - 9.2331061977914413e-05
         - -1.5297542524566833e-03
         - -1.3036424089231264e-02
         - 7.1704701536096267e-03
         - 2.1913577724717598e-03
         - 1.9123477969337774e-03
         - 5.8193593154179596e-03
         - 4.4219367992705434e-03
         - -2.7407571911297643e-03
         - -2.3883852883229066e-03
         - 1.2907162484630625e-02
         - 1.6247520612119220e-03
         - -8.0112926375853679e-03
         - 2.0928813146919328e-02
         - -5.9511692009745548e-03
         - -1.4234327178852832e-02
         - -3.8053948607930039e-03
         - -1.0604552132000927e-02
         - -1.1172887733786980e-02
         - -7.7427951561117800e-03
         - 1.8805377519061198e-02
         - -1.5547770413841472e-02
         - 6.7354794496152599e-03
         - -9.3347514805476040e-03
         - 4.3790842167146776e-03
         - -4.3379115982488609e-03
         - -1.8211627876821576e-03
         - -2.1517135304656571e-02
         - 3.6381231498465805e-03
         - -1.3262971872829944e-02
         - -9.7499164179213459e-03
         - -1.1831626018485213e-02
         - 1.8638583564483058e-02
         - -1.8826006214815252e-02
         - 4.1326486560977656e-03
         - -1.7502591957318295e-02
         - 9.7975025393696354e-03
         - 2.7478676222932766e-03
         - -7.9338076118085250e-04
         - 9.1386634910202002e-03
         - -1.8990646801162085e-02
         - 3.0104333144471185e-02
         - -3.7970228816285433e-03
         - -1.4972266925427745e-02
         - -1.3824911593131567e-02
         - -6.4228578045615551e-03
         - -1.2245899710851108e-02
         - -2.4795084915079691e-02
         - 1.8697033203075770e-02
         - -3.0812020719563328e-02
         - 5.4429228849764552e-03
         - -2.2898922772712094e-02
         - 3.5629455495964678e-03
         - -1.6828277605977063e-02
         - -8.4208264445771227e-03
         - -4.3398863454568580e-02
         - 6.0080641994927312e-04
         - -9.3760398421614335e-03
         - -1.8152962732558856e-02
         - -4.2993437592587724e-02
         - 2.3954252533357090e-02
         - -3.4754165898709860e-02
         - 5.8311150938650065e-03
         - -1.7372948934150992e-02
         - 6.1803202171101732e-03
         - -6.3443957622398460e-03
         - 6.2899865363545701e-03
         - 1.0755148921972234e-02
         - -4.0370679299603238e-02
         - 4.7597453482280463e-02
         - 4.9241797797710775e-03
         - -2.7081643725770713e-02
         - -1.1602938805503771e-03
         - 1.6657306720067360e-02
         - -9.0227013330721282e-03
         - -1.2525351313894977e-02
         - 5.7364084712693171e-03
         - -3.7998395281361334e-02
         - 8.8901374984346609e-03
         - -3.5834714113364800e-02
         - 4.6379614808037739e-03
         - -3.9764173163524472e-02
         - -9.8662694842328660e-03
         - -3.0415583735997329e-02
         - -4.3541349748635267e-03
         - 2.0072996489271258e-02
         - -5.2833598670638830e-03
         - -5.5673709062285616e-02
         - 2.4752351014743594e-02
         - -3.6503690406240921e-02
         - 7.8046397947688743e-03
         - -1.9268342529586042e-02
         - -2.3100387975555102e-02
         - -1.5391116278210892e-02
         - 8.0023642532519156e-03
         - 1.3773132987608790e-02
         - -3.8174748947529556e-02
         - 3.8208724428946406e-02
         - 8.5366102826182795e-03
         - -2.2158078364740263e-02
         - 5.4396169226098787e-03
         - 3.2982798769207983e-02
         - -2.5422416765931055e-03
         - -6.9987312996922669e-03
         - 4.9990380986325612e-03
         - -3.4360527998390324e-02
         - 1.4192957186662529e-03
         - -3.3570838791181973e-02
         - 6.1179585033077893e-03
         - -3.9914250163375666e-02
         - -2.6901984716837684e-03
         - -7.9337086939049485e-03
         - -9.9377571056177647e-03
         - 2.5732162898128113e-02
         - 3.4581284345292077e-03
         - -3.8553831932893821e-02
         - 9.1760683159087444e-03
         - -1.7338416551119101e-02
         - 3.8632383400495404e-03
         - -1.0653706261244905e-02
         - -2.2293318028003668e-02
         - -1.0217777081401043e-02
         - -4.7321044963017674e-05
         - -1.9182985268927733e-03
         - -3.9767507408947442e-03
         - 1.2762799679433204e-02
         - 1.3643566803728805e-02
         - -2.3747933439085472e-05
         - 1.2704155568037934e-03
         - 4.8547834702074966e-02
         - 1.7094494706114856e-02
         - -7.5808500553588730e-03
         - -1.0724841164972241e-02
         - -3.3356765690529730e-04
         - 2.5131556907230596e-02
         - -2.1944070005880407e-02
         - 2.2477415178797668e-02
         - -2.4664527770888203e-02
         - 9.1936588081301673e-03
         - 3.5663012744904725e-03
         - -1.2033955134967349e-02
         - 2.8069938249378239e-02
         - 9.7150461006729333e-03
         - -8.4031642226887557e-03
         - -1.5761488697201502e-02
         - 7.9949552370270054e-03
         - 4.8081021430101496e-03
         - -1.3297604545555612e-02
         - -2.0724939921488592e-02
         - 4.2307960619319919e-03
         - -1.1757125770833435e-02
         - 7.8026549844292326e-03
         - 8.5841979314877914e-03
         - -4.8176163643873443e-03
         - 3.5649152905832776e-03
         - 3.3799074327137339e-03
         - -1.9198143817837892e-02
         - 3.5349288655066730e-02
         - 1.3779840330784051e-02
         - 3.8005521697389013e-03
         - -1.3814201884510414e-02
         - 2.5325096358819906e-02
         - 2.8578133376279555e-02
         - -7.4868844634456352e-03
         - 1.9988647752031172e-02
         - -2.5495846533651584e-02
         - 1.6265793237108511e-03
         - 7.4879726125789033e-03
         - -9.7355882636609888e-03
         - 1.7856223428038061e-02
         - 1.1779276272740778e-02
         - 1.2205520965674344e-03
         - -8.9198994567782890e-03
         - -2.3789731319977019e-02
         - -2.3109327059001959e-03
         - -1.4208896181981774e-02
         - -5.2550148058393481e-03
         - 1.6139880190822929e-02
         - 4.9350212161194829e-05
         - 3.4152242201022933e-03
         - -4.0038900485885719e-03
         - -2.4085545081490040e-02
         - -3.8179794086199846e-03
         - 1.4765784827966758e-03
         - -8.1296008990093989e-03
         - 1.9338164455302807e-02
         - 1.9676942432752384e-03
         - 1.6009015704930765e-02
         - -1.4873001518249969e-02
         - 8.0817754861075633e-03
         - 6.1440817492660711e-03
         - 6.0468391870580410e-04
         - 2.3137377150592438e-02
         - -1.5997100729231339e-02
         - -2.9345902116458536e-03
         - -2.4727274756895065e-03
         - -8.6504129074774332e-03
         - 1.1381486161337896e-02
         - 1.7450794489625974e-02
         - 8.6576870263932858e-03
         - 3.9819643465396678e-03
         - -8.9584213148806695e-03
         - -1.6022922104782126e-02
         - 8.8784871043812868e-04
         - -1.6508642690536183e-03
         - 1.1434326506554586e-02
         - 8.0755333219919567e-03
         - 4.4098949228791977e-03
         - -2.1579608855924706e-02
         - -2.3969641129057220e-02
         - -6.4781179436624646e-05
         - 4.3275389401529823e-04
         - -6.1178481993220913e-03
         - -9.2479813432051802e-03
         - -2.2203038180061876e-02
         - 2.3610599691728677e-02
         - 1.7902492657015782e-03
         - -8.0693958333712904e-03
         - -1.2486222692056565e-02
         - 1.6006025158810760e-02
         - 7.3339351109596882e-03
         - 1.0042346431165370e-02
         - 1.0089287834081670e-03
         - -1.1903242348754756e-02
         - -7.3494533251467460e-03
         - 6.1294080497734001e-03
         - 1.5728322842496163e-02
         - 4.8314150794339979e-03
         - 2.0290617296761630e-02
         - -1.7066948027712962e-02
         - -3.2515178534752442e-02
         - -1.2556483940043910e-03
         - 4.7871540709383880e-03
         - 4.3633091070707213e-03
         - -4.0689469221850982e-04
         - 1.0133076190476594e-02
         - -5.7265527317439009e-03
         - -1.2777878711495853e-02
         - -3.1787512291427322e-03
         - -5.4022957204953636e-03
         - -1.0662864995027548e-02
         - -8.0252784817087443e-03
         - -2.4704936084465556e-02
         - 1.8504332494568277e-02
         - 1.6931943597970147e-02
         - -1.3549854096095628e-02
         - -5.4631026745357416e-03
         - 9.2351559585644883e-03
         - 2.4855297467805563e-04
         - 9.8325538258172748e-03
         - 1.2069901518495515e-02
         - -5.3822811181740244e-03
         - -4.4493232195748468e-03
         - 1.8967972717419805e-03
         - 8.3942884953013015e-03
         - 8.1437767015054372e-03
         - 1.5300260468364940e-02
         - -8.6738955899565359e-03
         - -3.1954158286642095e-02
         - 7.6490042701257081e-04
         - 9.5558609969144774e-03
         - 3.1947814073620055e-03
         - 7.0539252802764947e-03
         - 1.6138444653123613e-02
         - 1.5192380064853081e-02
         - -1.2444418206588080e-02
         - -1.8895083003815809e-02
         - 7.8700391022423349e-03
         - 1.5476848585684606e-02
         - 2.3898246064079601e-02
         - -9.1509762772851375e-03
         - 5.4161253770380812e-03
         - 3.8190455548579041e-02
         - -4.1689962020273377e-02
         - 2.5029510733560096e-02
         - -8.2938541475839362e-03
         - -2.3287107038345377e-02
         - -1.3166477473640532e-02
         - 7.9494829168266935e-03
         - 9.5105023167697013e-03
         - -2.1614680734995520e-02
         - -2.6739841901513139e-02
         - -2.7726790812475470e-02
         - -1.5698436289917246e-02
         - 2.0675347436624143e-02
         - 4.3631093167030198e-02
         - -1.6732008925977978e-02
         - 2.1019441751732183e-02
         - -3.0151370710803382e-02
         - 3.2291736178851678e-02
         - -1.8767696908686692e-02
         - 1.5057183476360806e-03
         - -5.0348066058197444e-02
         - -1.2431104765487748e-02
         - -1.2217520781242996e-02
         - -6.0610674666118934e-02
         - -3.7649461357124035e-03
         - 3.7953919249116584e-02
         - 8.8050637709628093e-03
         - 7.3570396600485897e-03
         - 2.4637604611125317e-02
         - -3.1635710028866199e-02
         - 2.1739480777223270e-02
         - 3.8852011748850071e-02
         - -5.4970317789510136e-02
         - -2.9654419344130947e-02
         - -1.8058244246350292e-02
         - 1.8127135738653002e-02
         - 3.4201565630355812e-02
         - -3.5109605080587698e-02
         - -1.2525537709827497e-02
         - 9.9726008457993627e-03
         - -1.6145137369054013e-02
         - 7.2344126675669321e-02
         - 4.3772245248176675e-03
         - 5.0116798823379112e-02
         - -3.5425202673130214e-02
         - 4.5149481039291083e-02
         - 6.2640185329128642e-02
         - -6.5022794354940808e-02
         - -9.1132961852633587e-02
         - -5.1833893992552279e-03
         - 7.5110684081011484e-03
         - -8.5004145863093100e-02
         - 3.3261546198556188e-02
         - -2.1172487304615208e-02
         - -2.5357283256871289e-02
         - 1.7097847662315327e-02
         - 3.6393071514374764e-02
         - 7.9823294417831151e-03
         - 4.8242429041664911e-02
         - 5.6817340171077410e-02
         - -2.5138907093710135e-02
         - 4.7602799911092347e-03
         - -2.4256960649231694e-02
         - 3.2307248945131699e-02
         - 3.0527335748655411e-02
         - -2.6423073318532265e-02
         - 5.6800828902051148e-03
         - 5.4542120543768162e-02
         - -2.6686833502474184e-02
         - 1.1574301425440070e-01
         - 1.0313078869479277e-02
         - 5.5796489002040074e-02
         - -7.1125760763557033e-02
         - 5.8574279876384049e-02
         - 5.8758518789520070e-02
         - -9.3787270781743370e-02
         - -5.7702873983082541e-02
         - -3.3438475920763759e-02
         - 3.6203359598966901e-02
         - -6.1792886823427796e-02
         - 1.9358923798588185e-02
         - -7.9433843231095022e-02
         - -1.7237036820757470e-02
         - 1.0844137294411612e-02
         - 2.1262702863774151e-02
         - 3.7420406715858869e-02
         - 7.8688931799564821e-02
         - 1.9661257711240235e-02
         - 3.9007706784859185e-03
         - 5.1210033714331735e-02
         - -2.5250347823724578e-02
         - -1.0140242881757999e-03
         - 2.3704225625282307e-02
         - -3.1451321134320274e-02
         - 7.6802693787125205e-03
         - 3.8977992195533460e-02
         - -1.0822321227724203e-02
         - 8.4540772371231185e-02
         - -1.1890300271484897e-02
         - 3.8305765682432359e-02
         - -5.9511878142343877e-02
         - 5.9735455067428583e-02
         - 4.9453965076246512e-02
         - -6.3063590459982874e-02
         - -2.1522752550944171e-02
         - -4.2725842644890891e-02
         - 5.1315156467359756e-02
         - -2.2121390399301964e-02
         - 2.1625376326324233e-02
         - -7.7023958379025759e-02
         - 9.3475037610187758e-03
         - 2.5318228270332841e-02
         - 1.1848693935298579e-03
         - 1.7510611159430717e-02
         - 6.2136728458780176e-02
         - -2.7425138234494661e-02
         - 3.7086379497013620e-02
         - 3.7417469398386111e-02
         - -2.6437342107690056e-03
         - -4.5689245133319192e-02
         - -2.3399084979634468e-02
         - 1.2322113110598608e-02
         - 1.3374062248044211e-02
         - -5.7651056779904853e-03
         - 2.6027608406250111e-02
         - 1.3177811769331174e-02
         - -2.9962817050014030e-02
         - 1.5038017958736615e-02
         - -4.8149631668063742e-02
         - 3.1404960360285256e-02
         - 9.2858320096897515e-03
         - -4.4886786573526148e-02
         - 1.5652919640004995e-02
         - -6.1720923146042612e-02
         - 4.8878478076698942e-02
         - 1.1251609833108944e-02
         - 2.2684403456374409e-02
         - -6.3086485120927752e-02
         - 2.0155566673590000e-02
         - 2.3317109700267079e-02
         - -1.7959322071475929e-02
         - 1.7892244951396068e-02
         - 8.1842711468483001e-02
         - -7.7817413986565165e-02
         - 5.8086477906719801e-02
         - 2.3570388838420409e-03
         - 1.7988723777822922e-02
         - -2.5396742385408511e-02
         - -4.6289564039639644e-02
         - 4.3463976915149652e-02
         - 9.7273520633824224e-03
         - -4.1122536752376253e-02
         - 4.9625144812939267e-02
         - -1.3624238209995147e-02
         - -2.7240363822498611e-02
         - -2.3053686227371400e-03
         - -4.4186903542314082e-02
         - 1.4901402370863820e-02
         - 4.9549662723737016e-05
         - -5.9472027882352750e-02
         - 3.4037621400346121e-02
         - -7.6170641050960941e-02
         - 2.6657016625540479e-02
         - 2.9150112903781146e-02
         - 2.1773517565510270e-02
         - -8.2585203602001306e-02
         - 2.1941697333447099e-02
         - -8.4967161927521559e-03
         - 3.1416038837473615e-03
         - -7.7582869053287899e-03
         - 5.0862317629803755e-02
         - -1.2375881479471385e-01
         - 4.3610462959116685e-02
         - -2.5846093919732181e-03
         - 5.9446261022440446e-03
         - -2.8558887147926201e-02
         - -3.0940027585818822e-02
         - 3.1593499817538801e-03
         - 1.5262878232327308e-03
         - -4.6045117986681643e-02
         - 5.5650068389733881e-02
         - -3.1176044698489447e-02
         - -3.9027236704993550e-02
         - -4.2209220068592512e-02
         - 2.3095692804669755e-02
         - 2.7328323726518233e-02
         - -2.6309447097632645e-02
         - -7.3025263899932649e-02
         - -2.5575071884168740e-02
         - -5.2549772977661634e-02
         - 4.1536747981853472e-02
         - 2.4598280452364899e-02
         - 3.8023247005405540e-02
         - -5.7187528275092665e-02
         - 1.1979891811288319e-02
         - -3.6448383238353262e-02
         - 1.8443087502936835e-02
         - -3.5029408807048530e-02
         - 1.4900784852042043e-02
         - -1.3782917658048494e-01
         - 1.0122473013371559e-03
         - -2.8477365884151448e-02
         - 2.1273529013643083e-02
         - -2.5158895424168035e-02
         - -3.1956063455324410e-02
         - 8.7577296001577626e-03
         - -8.3102160166754323e-03
         - -8.8626285413071743e-02
         - 3.4509651410231830e-02
         - -2.7592157484879774e-02
         - -4.3314252369560678e-02
         - -5.6165112112310032e-02
         - 3.6477646146902187e-02
         - 3.7968755125930662e-02
         - -5.0453479303436306e-02
         - -5.2440413943617051e-02
         - -7.2788854136915132e-02
         - -4.1779491455820814e-02
         - 3.5159364290667232e-02
         - 2.8216945328483557e-02
         - 5.6899705163329664e-02
         - -2.1408446155570311e-02
         - 4.0563052525745590e-03
         - -2.4790404992299144e-02
         - 7.1158110038009653e-03
         - -3.9800734673251799e-02
         - -3.8317653380855344e-03
         - -1.1517947425875721e-01
         - -2.7070154791162891e-02
         - -8.7897016157620259e-02
         - 3.0000575263409126e-02
         - -3.6805380771339864e-03
         - -3.4387611491062064e-02
         - 2.1070742835744647e-02
         - 1.1208408754371044e-02
         - -9.8024154776497091e-02
         - 4.3676806013392105e-02
         - -5.6538030824666782e-02
         - -1.0139277460571916e-02
         - -6.3737746066618708e-02
         - 5.4060985944693600e-02
         - 4.2862691421735336e-02
         - -6.2682278388361296e-02
         - -8.8758429564916291e-03
         - -8.6847964027447433e-02
         - -2.4867941611930001e-02
         - 3.1250357268698604e-02
         - 1.0917497248875604e-02
         - 8.5044803289402476e-02
         - -2.2578647489513086e-03
         - -2.6368475548960938e-02
         - 1.3601486262988948e-04
         - 3.4368525694834874e-02
         - -2.6023653478732551e-02
         - -1.5680596508963411e-02
         - -6.7635491799731301e-02
         - 4.6973642788058576e-03
         - -5.1442277386403175e-02
         - 3.0730627661053510e-02
         - -5.1131699789670089e-03
         - -3.0218397750141950e-02
         - -5.1299309357352900e-03
         - 1.2260637634638893e-02
         - -3.9370685486268327e-02
         - 1.1606863552405901e-02
         - -4.5436095721340525e-02
         - 4.8557391893030120e-03
         - -4.3982320321386971e-02
         - 6.3102528624516444e-02
         - 5.3910034238703421e-02
         - -8.5965158738436215e-02
         - -3.7180427659058782e-02
         - -1.0079215703362256e-01
         - 7.1823985229696923e-03
         - 2.4200220311616883e-02
         - 4.0373373773420337e-03
         - 7.7280168305756236e-02
         - 7.3875060594504969e-03
         - -3.4069158947616057e-02
         - 8.0725413168853527e-04
         - 4.4330484728551715e-02
         - 6.7959200930670744e-04
         - -3.0849252737052330e-02
         - -4.2889934403563916e-02
         - 1.7913011324067116e-02
         - 9.0940177431560066e-03
         - 1.2699788656319001e-02
         - -7.3787136213230324e-03
         - -3.4689589185197101e-02
         - -1.8325298062491398e-02
         - 2.5223655166775323e-03
         - -2.6953223926654411e-02
         - -4.5899338576926511e-02
         - -3.8672628043010880e-02
         - 8.8758606694890798e-03
         - -2.5130199558798846e-02
         - 4.2848014146200812e-02
         - 4.8931331712618521e-02
         - -9.4441631273677509e-02
         - -5.9319552097027405e-02
         - -7.2604273708384084e-02
         - 2.1040110293313909e-02
         - -3.9574510419060254e-03
         - -1.1785308268128470e-02
         - 4.2714744299235996e-02
         - 3.0033046301757141e-02
         - -1.2955320703492416e-02
         - -1.4000703765701976e-02
         - 3.0714242435542837e-02
         - 4.8023952799122152e-02
         - 9.4531629711802449e-04
         - -8.4603849908569239e-03
         - 7.0484717546306615e-03
         - 3.5447071253187558e-02
         - -3.8882218161625706e-03
         - 5.2935030985262206e-02
         - 4.0988898322814136e-03
         - -9.9466701457226626e-03
         - 7.1980069417135056e-03
         - -8.6138531057270860e-04
         - -6.7939933654669410e-02
         - -1.3480165641846504e-02
         - 3.7502683916858265e-02
         - 8.8322967285621814e-04
         - 2.7701158882218243e-02
         - 3.0276594159940107e-02
         - -6.8339964147552570e-02
         - -5.0704852469612816e-02
         - -1.6843896196879784e-02
         - 5.3664394960570939e-02
         - -5.9509129102903235e-02
         - -2.4398218710599620e-02
         - 2.2463944969415561e-02
         - 5.0049996029340703e-02
         - -4.2725459159528448e-03
         - -2.4095863816134475e-02
         - 3.8385798735478115e-02
         - 1.0412916035283792e-01
         - 1.3507410987499949e-02
         - 3.1370840651212012e-02
         - -2.8404724559818245e-03
         - 7.5907179474702477e-02
         - -2.0196397270052922e-02
         - 9.7175756947096695e-02
         - 3.8890688325198382e-02
         - -1.9348236284747255e-02
         - -1.6444202220098961e-03
         - 2.2293083554655032e-02
         - -6.6260979207325099e-02
         - 1.5409656080539241e-02
         - 7.0603979608899234e-02
         - 2.5288351924676600e-02
         - 2.7453172552042750e-02
         - -3.0138261681967680e-03
         - -5.1716280689862684e-02
         - -3.6328538508369514e-02
         - -2.3974088591991159e-02
         - 6.2726497397576686e-02
         - -8.7542829010951617e-02
         - -5.6384126361297290e-02
         - 3.6846204717350707e-02
         - 3.5472994370144562e-02
         - -3.5156016210470022e-02
         - -1.3193794459917571e-02
         - 4.9899434648075759e-02
         - 1.0552000714429627e-01
         - -1.4357345051143128e-02
         - 7.9665090974724281e-02
         - -2.9864414876279461e-02
         - 1.0309332115205221e-01
         - -3.9474460875458500e-02
         - 8.9708547945018313e-02
         - 5.7288538199779075e-02
         - -4.0692441497660894e-02
         - 3.2773720358378615e-04
         - 5.0999900733126477e-02
         - -4.3044636520364228e-02
         - 3.3679595101020927e-02
         - 7.0330804579707112e-02
         - 3.5812203735523421e-02
         - 3.1001274397756660e-02
         - -3.1546367592039160e-03
         - -3.7008243664706481e-02
         - -2.1832148553807339e-02
         - -3.1364061721126789e-02
         - 6.7875900284122256e-02
         - -1.0148883792635856e-01
         - -6.8721557410938855e-02
         - 5.1247460236487574e-02
         - 2.2775082827088847e-02
         - -6.4062370434239971e-02
         - 5.4295508854396652e-03
         - 6.9410358398430516e-02
         - 8.8782834418158596e-02
         - -1.8295342028828706e-02
         - 9.7754088999718172e-02
         - -3.5158469577826063e-02
         - 9.8486177404598946e-02
         - -3.9458807593711717e-02
         - 7.9706799792531979e-02
         - 4.6924948170493593e-02
         - -3.8965062625408317e-02
         - 5.6741495201770133e-03
         - 5.7942644341074975e-02
         - -5.5655410198930831e-03
         - 4.4179560403645179e-02
         - 7.9920324954664210e-02
         - 2.6258870592417320e-02
         - 1.7378049807127594e-02
         - -8.3060050796866011e-03
         - -3.1012813516322606e-02
         - -2.1805283808521821e-02
         - -1.6076037712862146e-02
         - 5.8128857153351483e-02
         - -1.0798608475521276e-01
         - -5.1891633489208597e-02
         - 4.8922161527596847e-02
         - 1.1237550146542348e-02
         - -8.7757343640093563e-02
         - 1.7068375306886631e-02
         - 7.0030510803208199e-02
         - 5.2216349610153298e-02
         - -1.3340614195793449e-03
         - 8.1268457911450473e-02
         - -3.1566627354334596e-02
         - 7.4576757882774500e-02
         - -3.8464539676643227e-02
         - 9.1267286280211954e-02
         - 2.8758485646603694e-02
         - -4.2897361930724617e-02
         - 1.8982520255950456e-03
         - 5.3384333489738742e-02
         - 2.0957604696306115e-02
         - 5.0807927966194023e-02
         - 8.3482665105044193e-02
         - 1.4574340026472133e-02
         - 3.3823313361480817e-03
         - -1.6110299314788530e-02
         - -1.0166072959951287e-02
         - -2.7587822326390968e-02
         - 1.3712100818852739e-02
         - 5.3508939539209460e-02
         - -8.4278455479281381e-02
         - -4.2306661821927889e-02
         - 1.9896367028113832e-02
         - 1.5682334670329205e-02
         - -5.4449361827396639e-02
         - 6.4881663144018189e-03
         - 6.9827900581387201e-02
         - 6.1483140091046197e-02
         - 3.4591378668847504e-02
         - 5.9199007412136233e-02
         - -1.0397967037513799e-02
         - 6.5979674439574962e-02
         - -3.3669668440774903e-02
         - 1.0278405134615634e-01
         - 1.6819930496759082e-02
         - -2.8358979206526014e-02
         - -1.4916512536479951e-02
         - 3.4625247150596186e-02
         - -2.3047011080701194e-03
         - 6.7638597855762636e-02
         - 9.2013562222892045e-02
         - -2.4145989419726570e-03
         - -1.6850576382225535e-02
         - -7.1541970397071572e-04
         - -9.8117685616405034e-03
         - -2.4604131066596438e-02
         - 3.1118309846035743e-03
         - 3.5482423013114030e-02
         - -4.4811061125305099e-02
         - -4.1663502315636328e-02
         - 2.0184678284538876e-02
         - 2.0247532874672087e-02
         - -3.7475674307638318e-02
         - 3.4497739790142002e-03
         - 6.5146128010418122e-02
         - 3.6701475359228110e-02
         - 2.1473619271319317e-02
         - 5.8077734559773060e-02
         - -1.8440551923559818e-02
         - 5.3616731641488065e-02
         - -2.6739621466072502e-02
         - 7.8905242303803802e-02
         - 2.2124677119198782e-02
         - -1.9082363224137533e-02
         - -5.9041071555802826e-03
         - 4.2462381597296872e-02
         - -1.7024784594140557e-02
         - 4.3723184820976854e-02
         - 7.2316030265120623e-02
         - -1.5129846736885173e-02
         - 5.3952577160517792e-03
         - 2.6830026506648005e-02
         - -1.3237825008553798e-02
         - 7.8916297300437414e-03
         - -1.2085343962572503e-02
         - 4.6671885992489559e-02
         - -1.9116231685593069e-02
         - -3.0386305986043836e-02
         - 2.0806855631200175e-02
         - 2.9034647719972221e-02
         - -1.9852033412158659e-02
         - -9.1543424660980189e-03
         - 5.6932712030640674e-02
         - 6.4407771458823738e-03
         - -5.5427377568359575e-03
         - 2.5745146772442499e-02
         - -2.7913103608896279e-02
         - -8.6077137690368059e-03
         - -1.2565129298786429e-02
         - 2.7143306617260017e-03
         - -3.6229570604339911e-03
         - -4.3226398427484488e-03
         - -2.6096393715431366e-02
         - -1.4956245561227982e-02
         - 6.6652692213866951e-03
         - -3.5020489525628404e-02
         - 5.0964967075082683e-02
         - -3.8084801213419048e-02
         - 9.9112710668817824e-03
         - 4.3815585012600342e-02
         - -1.1451640983995858e-02
         - 4.4694255427584727e-02
         - -2.4448878798450570e-02
         - 7.5220154007684975e-02
         - 3.8413004403598135e-03
         - -3.6302833632084343e-02
         - 2.6645079187961725e-02
         - 4.1716149315547624e-02
         - -2.2823669145341188e-02
         - -1.8070963871659899e-02
         - 5.4942035766658265e-02
         - -3.0602695331230147e-02
         - -2.4326749815891294e-02
         - 1.7114771375399882e-02
         - -3.9258531645292617e-02
         - -4.1121210467789528e-02
         - 1.2252699995416350e-03
         - -2.7143490984841732e-02
         - -1.0599002289402332e-02
