%YAML:1.0
---
opencv_ml_ann_mlp:
   format: 3
   layer_sizes: [ 784, 28, 28, 32 ]
   activation_function: SIGMOID_SYM
   f_param1: 6.6666666666666663e-01
   f_param2: 1.
   min_val: -9.4999999999999996e-01
   max_val: 9.4999999999999996e-01
   min_val1: -9.7999999999999998e-01
   max_val1: 9.7999999999999998e-01
   training_params:
      train_method: BACKPROP
      dw_scale: 1.0000000000000000e-03
      moment_scale: 0.
      term_criteria:
         epsilon: 1.0000000000000001e-01
         iterations: 10000
   input_scale:
      - 1.3050220778557833e-01
      - -3.0077009799516764e-02
      - 4.7129513429016071e-02
      - -8.3792562933189318e-02
      - 2.5887999853271636e-02
      - -1.5512744650617646e-01
      - 2.1631995890173065e-02
      - -1.8767048209818640e-01
      - 2.0673717161072681e-02
      - -1.9705429117150267e-01
      - 2.2517613897245735e-02
      - -1.7978475782710562e-01
      - 2.6425380175851786e-02
      - -1.5182225363137056e-01
      - 2.9281697286341980e-02
      - -1.3641792670554351e-01
      - 3.1558467133333663e-02
      - -1.2624405525610202e-01
      - 3.4482765248881719e-02
      - -1.1523565804443914e-01
      - 3.8906972082197552e-02
      - -1.0183881104407357e-01
      - 4.0723377467251867e-02
      - -9.7207674748330392e-02
      - 3.5353258556858544e-02
      - -1.1232476564724295e-01
      - 2.5853367131095366e-02
      - -1.5534552264213694e-01
      - 2.3527967615634280e-02
      - -1.7158404530020185e-01
      - 2.6242429961330183e-02
      - -1.5293119125947552e-01
      - 3.2849185008090517e-02
      - -1.2113269513635445e-01
      - 3.7316536609981063e-02
      - -1.0627624354740572e-01
      - 3.8548810731715330e-02
      - -1.0280512403661461e-01
      - 3.1182062108524956e-02
      - -1.2781827201941848e-01
      - 2.6388474068281650e-02
      - -1.5204462947670350e-01
      - 2.4343260361884739e-02
      - -1.6550745416474444e-01
      - 2.4145153235766392e-02
      - -1.6694292521307816e-01
      - 2.2815720502975104e-02
      - -1.7728212522518294e-01
      - 2.1360259958007239e-02
      - -1.9023593689521553e-01
      - 2.1044332122357363e-02
      - -1.9331168610007934e-01
      - 2.5000504121370368e-02
      - -1.6092157930414672e-01
      - 3.9028628364648099e-02
      - -1.0151474737325189e-01
      - 3.5908903586541294e-02
      - -1.1054332262906531e-01
      - 1.1191783199351400e-02
      - -4.0901668619450143e-01
      - 8.1922932296829825e-03
      - -7.4282785880044788e-01
      - 7.8643894554810412e-03
      - -9.2904383323406381e-01
      - 7.8599295872502674e-03
      - -9.3666867152593247e-01
      - 7.9085399655357894e-03
      - -8.7892776587280108e-01
      - 8.1196522332275499e-03
      - -7.6738576404742653e-01
      - 8.5740038249646211e-03
      - -6.5153572771396751e-01
      - 8.8467464246372758e-03
      - -6.0614205603174864e-01
      - 8.6636562906723946e-03
      - -6.3538606440355760e-01
      - 8.4116555943860513e-03
      - -6.8489557038783211e-01
      - 8.1440895858913322e-03
      - -7.5870159822288941e-01
      - 7.9062951168474439e-03
      - -8.8089092088185883e-01
      - 7.8431396084315975e-03
      - -9.9922560649201375e-01
      - 7.8463612222822200e-03
      - -1.0290864921736749e+00
      - 7.8440788358634279e-03
      - -1.0156157786466620e+00
      - 7.8601299455782307e-03
      - -9.3630436236165526e-01
      - 7.8950844733723328e-03
      - -8.9133923668100723e-01
      - 7.8806708097030088e-03
      - -9.0683677758264225e-01
      - 7.8733632963871054e-03
      - -9.1597610690572995e-01
      - 7.8881257336352595e-03
      - -8.9847483521695948e-01
      - 7.8862778141282671e-03
      - -9.0047139085167094e-01
      - 7.8578670178266127e-03
      - -9.4056233228453268e-01
      - 7.8549167376988135e-03
      - -9.4667466664665711e-01
      - 7.8880159324550125e-03
      - -8.9859218298322241e-01
      - 8.0533438732834760e-03
      - -7.9373268503445982e-01
      - 8.8011579492797976e-03
      - -6.1301570802244809e-01
      - 1.1940813793172503e-02
      - -3.7447055005670582e-01
      - 3.1368533363469731e-02
      - -1.2703344724922250e-01
      - 8.9668589117854747e-03
      - -5.8912957707028002e-01
      - 7.8515765542352747e-03
      - -1.0474783719082170e+00
      - 8.0274200735636157e-03
      - -1.2415423470457194e+00
      - 8.0603761599001272e-03
      - -1.2646855081279580e+00
      - 7.9365834709913975e-03
      - -1.1667392544201460e+00
      - 7.8880159324550125e-03
      - -1.1128518797928058e+00
      - 7.8470965324367020e-03
      - -9.6872634658937518e-01
      - 7.8821882919469909e-03
      - -9.0506501941666984e-01
      - 7.8450946195234225e-03
      - -9.7790699787301461e-01
      - 7.8474588298735066e-03
      - -1.0337519830177655e+00
      - 7.8825981458780538e-03
      - -1.1054695073729801e+00
      - 8.0387080860631396e-03
      - -1.2496402657493240e+00
      - 8.2237696331385699e-03
      - -1.3638344155894562e+00
      - 8.2174825012648958e-03
      - -1.3603567481177241e+00
      - 8.1681428107197428e-03
      - -1.3322878978047683e+00
      - 7.9722039907041548e-03
      - -1.1986175246617665e+00
      - 7.9413004460447655e-03
      - -1.1712239010658061e+00
      - 8.0382303264660473e-03
      - -1.2493013421951140e+00
      - 8.1480746254935059e-03
      - -1.3204299474761982e+00
      - 8.2909705419243161e-03
      - -1.3998198475715833e+00
      - 8.6143056662329430e-03
      - -1.5525436862911011e+00
      - 8.8280544692090138e-03
      - -1.6422233023257440e+00
      - 8.4243887188874111e-03
      - -1.4661699529825576e+00
      - 7.9918175399277952e-03
      - -1.2145911671915053e+00
      - 7.8490670853287210e-03
      - -1.0396492195598126e+00
      - 7.9720134752731993e-03
      - -8.3440579259688086e-01
      - 9.7225021674609245e-03
      - -5.0705139773800090e-01
      - 4.2504237020487549e-02
      - -9.3062052843759541e-02
      - 9.0812317968826332e-03
      - -5.7421936020759712e-01
      - 7.8983290871380146e-03
      - -1.1258790218986221e+00
      - 8.1758630965446076e-03
      - -1.3367773679854531e+00
      - 8.1781350563943506e-03
      - -1.3380912526148083e+00
      - 8.0876421711489725e-03
      - -1.2828102157101477e+00
      - 8.0865596956051656e-03
      - -1.2821060290016271e+00
      - 8.0173970536998422e-03
      - -1.2341848522616230e+00
      - 7.9104192103265046e-03
      - -1.1398434043729448e+00
      - 7.8944947245985480e-03
      - -1.1211736944624580e+00
      - 7.8962743745542210e-03
      - -1.1233762945092887e+00
      - 7.9549512620881117e-03
      - -1.1837136950802893e+00
      - 8.2027175753115310e-03
      - -1.3521059926279253e+00
      - 8.3507001108552269e-03
      - -1.4302501231827718e+00
      - 8.2676986773468231e-03
      - -1.3875883114244976e+00
      - 8.2262317293853564e-03
      - -1.3651906860105303e+00
      - 8.0403853530514168e-03
      - -1.2508275406401326e+00
      - 7.9905861404306541e-03
      - -1.2136147625281710e+00
      - 8.0659926882800329e-03
      - -1.2684880037792436e+00
      - 8.2836394033769523e-03
      - -1.3959911056135774e+00
      - 8.8063623158111740e-03
      - -1.6334039686328177e+00
      - 9.7885519553956718e-03
      - -1.9947697603124577e+00
      - 1.0299533972752585e-02
      - -2.1643483244904855e+00
      - 9.5491449019043401e-03
      - -1.9120267015929591e+00
      - 8.3361479170735667e-03
      - -1.4229546176110157e+00
      - 7.8967542223298097e-03
      - -1.1239645536860685e+00
      - 7.9284308829657979e-03
      - -8.6299613780073026e-01
      - 1.0077229492258933e-02
      - -4.7810566340581101e-01
      - 6.2614862366774771e-02
      - -6.2877610336680545e-02
      - 9.6618788065923767e-03
      - -5.1247877639021067e-01
      - 7.8739038035844609e-03
      - -1.0925842134219124e+00
      - 8.1392268400181395e-03
      - -1.3151104206499935e+00
      - 8.1823787402292344e-03
      - -1.3405366992772201e+00
      - 8.3719596925364102e-03
      - -1.4407823750531172e+00
      - 8.3898127799673025e-03
      - -1.4495175408049061e+00
      - 8.1234466198702865e-03
      - -1.3054730087352682e+00
      - 7.9049935825915383e-03
      - -1.1337261164197585e+00
      - 7.8830101878432143e-03
      - -1.1060463806908887e+00
      - 7.9231629060250407e-03
      - -1.1534186599344580e+00
      - 7.9853140498523205e-03
      - -1.2093961756587182e+00
      - 8.1893010340690683e-03
      - -1.3445018914949360e+00
      - 8.2394058932403775e-03
      - -1.3723956585597525e+00
      - 8.1643227159901438e-03
      - -1.3300519746511821e+00
      - 8.0830604644362598e-03
      - -1.2798213856986265e+00
      - 7.9242024462224826e-03
      - -1.1544831420602057e+00
      - 7.8956776892558610e-03
      - -1.1226415036498536e+00
      - 7.9841121360176223e-03
      - -1.2084255248243534e+00
      - 8.2164407824168503e-03
      - -1.3597785146763932e+00
      - 8.6665589440110546e-03
      - -1.5750869424906340e+00
      - 9.2108569417596164e-03
      - -1.7901588863057185e+00
      - 9.7373768610193919e-03
      - -1.9772878381582906e+00
      - 9.6508541596901469e-03
      - -1.9474850499559628e+00
      - 8.5512697047988064e-03
      - -1.5247123663029276e+00
      - 7.8911424365476768e-03
      - -1.1169303344549011e+00
      - 8.0325476691968777e-03
      - -8.0305511999569545e-01
      - 1.0931496588404185e-02
      - -4.2289860107173716e-01
      - 7.3684626052938615e-02
      - -5.3372595501224744e-02
      - 9.9938598538164992e-03
      - -4.8451510030470274e-01
      - 7.8431437924895188e-03
      - -1.0012919902028945e+00
      - 8.0498761864984340e-03
      - -1.2574722504253923e+00
      - 8.3415216391405662e-03
      - -1.4256570563380973e+00
      - 8.6333344185261385e-03
      - -1.5608054253702250e+00
      - 8.3507001108552269e-03
      - -1.4302501231827718e+00
      - 7.9431217242055454e-03
      - -1.1729308893390287e+00
      - 7.8442085913775963e-03
      - -9.8360754643856696e-01
      - 7.8663064508347948e-03
      - -9.2603286924657868e-01
      - 7.8560570309908137e-03
      - -9.4422552987296982e-01
      - 7.8594667490077385e-03
      - -9.3751920569038527e-01
      - 7.8485277458022369e-03
      - -9.6360565407935672e-01
      - 7.8666209521059596e-03
      - -9.2555188417681278e-01
      - 7.9431217242055437e-03
      - -8.5256515033338531e-01
      - 8.0442490086995774e-03
      - -7.9773607406349867e-01
      - 8.2136714087242442e-03
      - -7.3624773461771431e-01
      - 8.2140169016332205e-03
      - -7.3614348245224459e-01
      - 7.9276675445723692e-03
      - -8.6356558530155059e-01
      - 7.8432696442364228e-03
      - -1.0058271778433467e+00
      - 7.9187870492932397e-03
      - -1.1488708145695570e+00
      - 8.2078276186277853e-03
      - -1.3549751011425342e+00
      - 8.6942048930774736e-03
      - -1.5868383254122167e+00
      - 8.8663877825847209e-03
      - -1.6576739407319396e+00
      - 8.3528010164210676e-03
      - -1.4312974805604493e+00
      - 7.8752764062330269e-03
      - -1.0947193456054924e+00
      - 8.2297656886864169e-03
      - -7.3145828037899174e-01
      - 1.1594305465349442e-02
      - -3.8956192711223003e-01
      - 8.3795987686052717e-02
      - -4.6901950499553070e-02
      - 1.0190638847063409e-02
      - -4.6972989908349089e-01
      - 7.8562326513793874e-03
      - -9.4385864440868472e-01
      - 8.0703880051645888e-03
      - -1.2714377900841447e+00
      - 8.5117796924462068e-03
      - -1.5068817364237870e+00
      - 8.5681408626662181e-03
      - -1.5322341587308907e+00
      - 8.2506529967897192e-03
      - -1.3784795805311045e+00
      - 7.8747237059195070e-03
      - -1.0938647030852127e+00
      - 7.8632794589328665e-03
      - -9.3085441318544171e-01
      - 7.9619489978491574e-03
      - -8.4043023424294661e-01
      - 8.1170428111319512e-03
      - -7.6834177029194473e-01
      - 8.2658250789624781e-03
      - -7.2119190408120015e-01
      - 8.3090329433462857e-03
      - -7.0964183615691001e-01
      - 8.4523018474670086e-03
      - -6.7596042644439347e-01
      - 8.6665589440110564e-03
      - -6.3488558823218499e-01
      - 8.9086589532487142e-03
      - -5.9718496518368858e-01
      - 9.4896349006591517e-03
      - -5.2880668853301893e-01
      - 9.3339823287050903e-03
      - -5.4487197166462253e-01
      - 8.4757451783566608e-03
      - -6.7099831720418857e-01
      - 8.0466849794506214e-03
      - -7.9665298153234931e-01
      - 7.8499244787557029e-03
      - -9.5925418324595957e-01
      - 7.9293516388219912e-03
      - -1.1596715164377092e+00
      - 8.3663784164592549e-03
      - -1.4380313781016154e+00
      - 8.5367305260505098e-03
      - -1.5181850527821519e+00
      - 8.2000098654327856e-03
      - -1.3505797397954828e+00
      - 7.8672564019782090e-03
      - -1.0815598350093354e+00
      - 8.2602348281856607e-03
      - -7.2274388434543124e-01
      - 1.1943509523099406e-02
      - -3.7435847279891693e-01
      - 9.9704925551750728e-02
      - -3.9392778849368267e-02
      - 1.0126317634253725e-02
      - -4.7443334388037156e-01
      - 7.8508850300974854e-03
      - -9.5652821352334594e-01
      - 8.1879760892916292e-03
      - -1.3437451953975341e+00
      - 8.5356999049622916e-03
      - -1.5177207321976707e+00
      - 8.5107744529688608e-03
      - -1.5064235612764301e+00
      - 8.2122913738819272e-03
      - -1.3574694970763621e+00
      - 7.8486032151969046e-03
      - -1.0380373110960259e+00
      - 7.9859170736678916e-03
      - -8.2652695053248926e-01
      - 8.3373847290542733e-03
      - -7.0245561239776899e-01
      - 8.5934216768978489e-03
      - -6.4791847491601018e-01
      - 8.7602722699430327e-03
      - -6.1939762407026200e-01
      - 8.9277922537141993e-03
      - -5.9449932310521969e-01
      - 9.1116400025527226e-03
      - -5.7044219283896325e-01
      - 9.4516608882488275e-03
      - -5.3260322667665028e-01
      - 9.9514306944422891e-03
      - -4.8786423208860746e-01
      - 1.0688931832796570e-02
      - -4.3691785176969922e-01
      - 1.0022614400844534e-02
      - -4.8227927584799779e-01
      - 9.3275167294777708e-03
      - -5.4556940410960630e-01
      - 8.5102722173229124e-03
      - -6.6392484891302694e-01
      - 8.0089878566376761e-03
      - -8.1441169061103846e-01
      - 7.8571894735879506e-03
      - -1.0616792676435458e+00
      - 8.1966424274257637e-03
      - -1.3486757566714480e+00
      - 8.3090329433462874e-03
      - -1.4091615643963933e+00
      - 8.0503695993789422e-03
      - -1.2578143806497684e+00
      - 7.8471937643967964e-03
      - -1.0326836070309837e+00
      - 8.1691019967184905e-03
      - -7.5027321563083127e-01
      - 1.2022693579542993e-02
      - -3.7110073387469289e-01
      - 9.4011823661674918e-02
      - -4.1786404513275130e-02
      - 1.0094831630430593e-02
      - -4.7678039681503359e-01
      - 7.8431584367449712e-03
      - -9.9767861435672944e-01
      - 8.2658250789624781e-03
      - -1.3865934910542319e+00
      - 8.3222673268265688e-03
      - -1.4159271381408594e+00
      - 8.2901953014423158e-03
      - -1.3994160082861411e+00
      - 8.2081698268038072e-03
      - -1.3551667188004468e+00
      - 7.8472264377657530e-03
      - -1.0328170896923166e+00
      - 8.0969537310645913e-03
      - -7.7590405135405949e-01
      - 8.5047644899537388e-03
      - -6.6503524780222512e-01
      - 8.7665738113751890e-03
      - -6.1840000253998606e-01
      - 8.8201244488476330e-03
      - -6.1012598761683201e-01
      - 8.8320375909257311e-03
      - -6.0833295974890134e-01
      - 8.9086589532487142e-03
      - -5.9718496518368858e-01
      - 9.3638503661864370e-03
      - -5.4168272418519570e-01
      - 9.4605835777788749e-03
      - -5.3170434120767940e-01
      - 9.4038410381940152e-03
      - -5.3749417053424486e-01
      - 9.3875450623166993e-03
      - -5.3918992280296041e-01
      - 9.1418307081934450e-03
      - -5.6676399509357067e-01
      - 8.3951107074421213e-03
      - -6.8866193331645853e-01
      - 7.9847124042666702e-03
      - -8.2719094679230409e-01
      - 7.8683891406736498e-03
      - -1.0835289971751094e+00
      - 8.2133261095605706e-03
      - -1.3580461651600211e+00
      - 8.1827064905042185e-03
      - -1.3407251009358983e+00
      - 7.9965893991704468e-03
      - -1.2183441508571486e+00
      - 7.8431437924895188e-03
      - -9.9870967688193280e-01
      - 8.0570950592181098e-03
      - -7.9211283291677803e-01
      - 1.1752547476836153e-02
      - -3.8249648303646183e-01
      - 9.2320763438505843e-02
      - -4.2554567524269317e-02
      - 9.9565293429797561e-03
      - -4.8745856409525873e-01
      - 7.8814763094888114e-03
      - -1.1038849652994418e+00
      - 8.3819277510212477e-03
      - -1.4456715007811265e+00
      - 8.4080513471717980e-03
      - -1.4583436664570386e+00
      - 8.3046730556894464e-03
      - -1.4069183057524546e+00
      - 8.1827064905042185e-03
      - -1.3407251009358983e+00
      - 7.8564094662944717e-03
      - -1.0598925288542422e+00
      - 8.1926266434648454e-03
      - -7.4272322182169337e-01
      - 8.5057635986274301e-03
      - -6.6483332597819067e-01
      - 8.5896182180890054e-03
      - -6.4862153553424384e-01
      - 8.5756084937856983e-03
      - -6.5123414495594079e-01
      - 8.5565125568724809e-03
      - -6.5485492921946686e-01
      - 8.6027149214890075e-03
      - -6.4621161960118501e-01
      - 8.8148644750054919e-03
      - -6.1092303144881510e-01
      - 8.6613394363278164e-03
      - -6.3578648801674387e-01
      - 8.7805497854783095e-03
      - -6.1620583296003739e-01
      - 9.0040071089767925e-03
      - -5.8415893894136695e-01
      - 8.6758968098152364e-03
      - -6.3328445745344042e-01
      - 8.2091976077681861e-03
      - -7.3760355962012158e-01
      - 7.9167888788391465e-03
      - -8.7202483983342449e-01
      - 7.8764906775819002e-03
      - -1.0965737781393856e+00
      - 8.0753577386644109e-03
      - -1.2747465697736295e+00
      - 8.0955719421378011e-03
      - -1.2879328501258247e+00
      - 7.9569020892641829e-03
      - -1.1854448545190068e+00
      - 7.8489493410110415e-03
      - -9.6223609195221771e-01
      - 8.0474189564313011e-03
      - -7.9632821262186448e-01
      - 1.1490126194472289e-02
      - -3.9438430241743411e-01
      - 7.2069652000875339e-02
      - -5.4575662877357503e-02
      - 9.6268172804452046e-03
      - -5.1569039217527557e-01
      - 7.9899725202499505e-03
      - -1.2131269671618883e+00
      - 8.4089510077701487e-03
      - -1.4587765693072865e+00
      - 8.3986610838925838e-03
      - -1.4538114868152539e+00
      - 8.2301201660883710e-03
      - -1.3673263423254862e+00
      - 8.0732578260563816e-03
      - -1.2733518543588624e+00
      - 7.8540963096454808e-03
      - -1.0542793307783447e+00
      - 8.0191965035902313e-03
      - -8.0937714071629985e-01
      - 8.3754132553343474e-03
      - -6.9325063597123182e-01
      - 8.4874441685122842e-03
      - -6.6857115482985641e-01
      - 8.5885339880089444e-03
      - -6.4882243577134457e-01
      - 8.4589398965646111e-03
      - -6.7454175203579980e-01
      - 8.4786564702512661e-03
      - -6.7039132936005752e-01
      - 8.4603685564133228e-03
      - -6.7423784805082032e-01
      - 8.3767120720384929e-03
      - -6.9294444359640561e-01
      - 8.5988786105993201e-03
      - -6.4691434401949122e-01
      - 8.7031669869736296e-03
      - -6.2868442016812609e-01
      - 8.3042779736808535e-03
      - -7.1087621646874188e-01
      - 8.0055151150202463e-03
      - -8.1616717574994835e-01
      - 7.8561154384099736e-03
      - -9.4410322069723474e-01
      - 7.8714230970182847e-03
      - -1.0886117163784961e+00
      - 8.0096434677857462e-03
      - -1.2283762962687195e+00
      - 8.0368009348893363e-03
      - -1.2482853640589817e+00
      - 7.8894540859058525e-03
      - -1.1147431908927781e+00
      - 7.8611497403980515e-03
      - -9.3448465979539408e-01
      - 8.0085515679679167e-03
      - -8.1463100292516510e-01
      - 1.0906782028977293e-02
      - -4.2427663739772131e-01
      - 6.6534511477074273e-02
      - -5.9146560557734845e-02
      - 9.0907697151237903e-03
      - -5.7302660400247218e-01
      - 8.0657356436455163e-03
      - -1.2683147999590705e+00
      - 8.3469324011890486e-03
      - -1.4283681335792022e+00
      - 8.3650958212805812e-03
      - -1.4373977983566373e+00
      - 8.2272898544568044e-03
      - -1.3657726066847848e+00
      - 8.0387080860631396e-03
      - -1.2496402657493240e+00
      - 7.8973571584297110e-03
      - -1.1247004117677040e+00
      - 7.8480859790611493e-03
      - -9.6510178032373339e-01
      - 7.8874689900424733e-03
      - -8.9917910282706603e-01
      - 7.9180702162728860e-03
      - -8.7099283552030560e-01
      - 7.9785758891965878e-03
      - -8.3062692384998071e-01
      - 7.9051231046499641e-03
      - -8.8193156336050782e-01
      - 7.9028131462452259e-03
      - -8.8401561709669196e-01
      - 7.9141216072521267e-03
      - -8.7420644132270831e-01
      - 7.9326151633545804e-03
      - -8.5992569831671573e-01
      - 7.9569020892641847e-03
      - -8.4356517824335986e-01
      - 7.9861183880344782e-03
      - -8.2641631683228578e-01
      - 7.8939084406437939e-03
      - -8.9250597859503567e-01
      - 7.8507502877753019e-03
      - -9.5689951958202235e-01
      - 7.8433805295490058e-03
      - -1.0079073108769001e+00
      - 7.8748154837015461e-03
      - -1.0940070888362894e+00
      - 7.9764335842985035e-03
      - -1.2021422603863436e+00
      - 8.0212330331537601e-03
      - -1.2370201626158186e+00
      - 7.8618462853075055e-03
      - -1.0714975775336031e+00
      - 7.8681441916601171e-03
      - -9.2327008447573244e-01
      - 7.9781850122198697e-03
      - -8.3084890824804636e-01
      - 1.0623596553172774e-02
      - -4.4089297367268454e-01
      - 6.3663160631446392e-02
      - -6.1834231872182760e-02
      - 8.8732279785558605e-03
      - -6.0225960837149017e-01
      - 8.0358512432642110e-03
      - -1.2476087045953723e+00
      - 8.2782854534396814e-03
      - -1.3931809301859932e+00
      - 8.2488259451984278e-03
      - -1.3774953550008830e+00
      - 8.3050683493335956e-03
      - -1.4071219935501644e+00
      - 8.1794374325027050e-03
      - -1.3388429522143621e+00
      - 8.0862895028586193e-03
      - -1.2819300721558919e+00
      - 7.9967987283148315e-03
      - -1.2185076889907638e+00
      - 8.0244265989670421e-03
      - -1.2393620684076656e+00
      - 8.0353773673064611e-03
      - -1.2472705723088973e+00
      - 7.9135665978897485e-03
      - -1.1432932484238547e+00
      - 7.9754658789207410e-03
      - -1.2013399459000529e+00
      - 7.9319886306021825e-03
      - -1.1622770080214628e+00
      - 7.8708194738598240e-03
      - -1.0876212368762257e+00
      - 7.8540426739637792e-03
      - -1.0541428360110268e+00
      - 7.8510209596737955e-03
      - -1.0458533059682693e+00
      - 7.8616359197645844e-03
      - -1.0710806463752605e+00
      - 7.8950844733723328e-03
      - -1.1219073040289376e+00
      - 7.8941425385934197e-03
      - -1.1207338114571699e+00
      - 7.8927462581003128e-03
      - -1.1189763942907536e+00
      - 7.9335593007005979e-03
      - -1.1638131999211407e+00
      - 8.0363257656839056e-03
      - -1.2479469684740190e+00
      - 7.9758525062993222e-03
      - -1.2016607840607556e+00
      - 7.8640905107875188e-03
      - -1.0758167202636728e+00
      - 7.8556518941241826e-03
      - -9.4508208720311038e-01
      - 7.9750798576096200e-03
      - -8.3262613922045536e-01
      - 1.0468917367273012e-02
      - -4.5067371358501135e-01
      - 5.8056915530161721e-02
      - -6.7858002303006967e-02
      - 8.8582252559750371e-03
      - -6.0444949257160852e-01
      - 7.9758525062993222e-03
      - -1.2016607840607556e+00
      - 8.2119468490402751e-03
      - -1.3572773610660369e+00
      - 8.2202689799558016e-03
      - -1.3619006254770931e+00
      - 8.2495561637251896e-03
      - -1.3778889085522739e+00
      - 8.2174825012648958e-03
      - -1.3603567481177241e+00
      - 8.0969537310645913e-03
      - -1.2888191500674113e+00
      - 8.0358512432642110e-03
      - -1.2476087045953723e+00
      - 8.0654787657733415e-03
      - -1.2681416308221305e+00
      - 8.0806547354564176e-03
      - -1.2782432469344855e+00
      - 7.9512767111884260e-03
      - -1.1804181027941765e+00
      - 8.1386222387187686e-03
      - -1.3147447712898359e+00
      - 8.0766756568796810e-03
      - -1.2756194121553539e+00
      - 7.9671129674768817e-03
      - -1.1943108666152580e+00
      - 7.9595912716751011e-03
      - -1.1878109873352081e+00
      - 7.9727764430178732e-03
      - -1.1990973417540269e+00
      - 7.9815268678092958e-03
      - -1.2063261158299594e+00
      - 7.9422916785661813e-03
      - -1.1721545803149247e+00
      - 7.8888981958045012e-03
      - -1.1140153017766823e+00
      - 7.9108255011931857e-03
      - -1.1402926379957470e+00
      - 7.9485207519054916e-03
      - -1.1779153564368350e+00
      - 8.0232824525922480e-03
      - -1.2385249507604368e+00
      - 7.9972178517551083e-03
      - -1.2188348568266587e+00
      - 7.8994331553966356e-03
      - -1.1272067837765913e+00
      - 7.8516237117534898e-03
      - -9.5455012804269712e-01
      - 7.9530183642831011e-03
      - -8.4603377603933738e-01
      - 1.0399724060650867e-02
      - -4.5522794710807085e-01
      - 5.7259805840847437e-02
      - -6.8811574288403815e-02
      - 8.8870130625833613e-03
      - -6.0026925254511176e-01
      - 7.9367440885542168e-03
      - -1.1668935229821702e+00
      - 8.1428695706358446e-03
      - -1.3173075993552488e+00
      - 8.2027175753115310e-03
      - -1.3521059926279253e+00
      - 8.2699537363003003e-03
      - -1.3887836350109644e+00
      - 8.2040760280233972e-03
      - -1.3528701446766394e+00
      - 8.0085515679679167e-03
      - -1.2275496469066536e+00
      - 8.0131639767113769e-03
      - -1.2310268424029047e+00
      - 8.0346677647790410e-03
      - -1.2467636203651289e+00
      - 8.0384691252334134e-03
      - -1.2494707874445281e+00
      - 8.0598695534377842e-03
      - -1.2643406538767403e+00
      - 8.2251753697066346e-03
      - -1.3646091627408254e+00
      - 8.1787858701442614e-03
      - -1.3384670197192734e+00
      - 8.0881844323235745e-03
      - -1.2831625248836076e+00
      - 8.0606297118572638e-03
      - -1.2648579867929617e+00
      - 8.0616455788846981e-03
      - -1.2655482454010551e+00
      - 7.9656255644780776e-03
      - -1.1930388414030662e+00
      - 7.9434547661689520e-03
      - -1.1732416024097676e+00
      - 7.9167888788391465e-03
      - -1.1467563242705578e+00
      - 7.8940254203586930e-03
      - -1.1205872308545524e+00
      - 7.8956776892558610e-03
      - -1.1226415036498536e+00
      - 8.0758844003053290e-03
      - -1.2750956008553096e+00
      - 8.1583285163365615e-03
      - -1.3265236760970520e+00
      - 7.9540704518088028e-03
      - -1.1829279198010578e+00
      - 7.8432755937416967e-03
      - -9.9407821775567584e-01
      - 7.9225720315310964e-03
      - -8.6744491790425415e-01
      - 1.0423091567320054e-02
      - -4.5367700429428842e-01
      - 5.8468241275963832e-02
      - -6.7376249630468329e-02
      - 8.8609405760835085e-03
      - -6.0405129154410986e-01
      - 7.9372268128416763e-03
      - -1.1673564885869285e+00
      - 8.1161761706488641e-03
      - -1.3009643563763742e+00
      - 8.2010238212792911e-03
      - -1.3511517645485864e+00
      - 8.2550584288590516e-03
      - -1.3808463794310775e+00
      - 8.1130120054650392e-03
      - -1.2989880222797938e+00
      - 7.9089403359374304e-03
      - -1.1381981204825744e+00
      - 7.9184998890523030e-03
      - -1.1485684404920695e+00
      - 7.9483497563033034e-03
      - -1.1777591684896023e+00
      - 7.9106899297892233e-03
      - -1.1401428686573716e+00
      - 7.9385204738681749e-03
      - -1.1685922382000613e+00
      - 8.0506165519531291e-03
      - -1.2579854964067443e+00
      - 8.0535927984258879e-03
      - -1.2600415247799295e+00
      - 8.0162775495718711e-03
      - -1.2333526884742525e+00
      - 8.0033650049470655e-03
      - -1.2235925729012631e+00
      - 7.9230149728265285e-03
      - -1.1532666939562104e+00
      - 7.8555945480477691e-03
      - -1.0579721009930660e+00
      - 7.8752764062330269e-03
      - -1.0947193456054924e+00
      - 7.9190747791227350e-03
      - -1.1491732902118503e+00
      - 7.8761146124647387e-03
      - -1.0960027881786270e+00
      - 7.8688826725094273e-03
      - -1.0843741960717874e+00
      - 8.0140504089917502e-03
      - -1.2316907377455442e+00
      - 8.1966424274257637e-03
      - -1.3486757566714480e+00
      - 7.9893602852280018e-03
      - -1.2126394426468403e+00
      - 7.8500517059819294e-03
      - -1.0428811428763662e+00
      - 7.9035780906446772e-03
      - -8.8332052115129833e-01
      - 1.0492962110762999e-02
      - -4.4911774560593087e-01
      - 4.9459608246366943e-02
      - -7.9793131702821804e-02
      - 8.8447310024038495e-03
      - -6.0644077981782241e-01
      - 7.9498940160290209e-03
      - -1.1791658487106182e+00
      - 8.1179110341189839e-03
      - -1.3020442761383100e+00
      - 8.1929602469973575e-03
      - -1.3465862719196586e+00
      - 8.1520903330906790e-03
      - -1.3228253308834783e+00
      - 7.9170726253430194e-03
      - -1.1470580906900709e+00
      - 7.8472921786065259e-03
      - -9.6797539541937816e-01
      - 7.8715967759081500e-03
      - -9.1836227369074042e-01
      - 7.9186433979855433e-03
      - -8.7053445164593946e-01
      - 7.9463092758864894e-03
      - -8.5042181624578483e-01
      - 7.9528435340509591e-03
      - -8.4614609935091634e-01
      - 7.8524951309574074e-03
      - -9.5232921662941394e-01
      - 7.8496735819841758e-03
      - -9.5999886283685687e-01
      - 7.8510209596737955e-03
      - -9.5615703874854863e-01
      - 7.8741758851157660e-03
      - -9.1490400363282798e-01
      - 7.9403144687531790e-03
      - -8.5448599735126407e-01
      - 8.0578497538529442e-03
      - -7.9178907818533228e-01
      - 8.0048684404679018e-03
      - -8.1649658092772603e-01
      - 7.9034502500078055e-03
      - -8.8343634185771558e-01
      - 7.8905762041051510e-03
      - -8.9589622597332952e-01
      - 7.8543121764736087e-03
      - -9.4802409966853762e-01
      - 7.9070827768827553e-03
      - -1.1361084384468261e+00
      - 8.1115807570953848e-03
      - -1.2980911890012705e+00
      - 8.0136068771538057e-03
      - -1.2313587269719286e+00
      - 7.8658387263500756e-03
      - -1.0790341315172480e+00
      - 7.8555373345999373e-03
      - -9.4532694438741216e-01
      - 1.0355180983316092e-02
      - -4.5822177231789424e-01
      - 5.3398203675059423e-02
      - -7.3840511473193857e-02
      - 8.9905239103245035e-03
      - -5.8594825442534226e-01
      - 7.9671129674768817e-03
      - -1.1943108666152580e+00
      - 8.2572720319683997e-03
      - -1.3820322537766812e+00
      - 8.2756236577759719e-03
      - -1.3917793207488076e+00
      - 8.1768356727748102e-03
      - -1.3373402139638169e+00
      - 7.9704947834680906e-03
      - -1.1971796367406409e+00
      - 7.8466281018292183e-03
      - -9.7060611407823827e-01
      - 8.0072464688029001e-03
      - -8.1528915102867749e-01
      - 8.2081698268038072e-03
      - -7.3791658703452390e-01
      - 8.1850060066791658e-03
      - -7.4513145386175761e-01
      - 8.0508636686732870e-03
      - -7.9481358956511261e-01
      - 7.8712499582744878e-03
      - -9.1884012464827114e-01
      - 7.8908022830050349e-03
      - -8.9566209451494683e-01
      - 7.9597717408373316e-03
      - -8.4177283951584569e-01
      - 8.0070295012242693e-03
      - -8.1539887321602311e-01
      - 8.1456186719675271e-03
      - -7.5817357215510783e-01
      - 8.5259610933564461e-03
      - -6.6079776184752403e-01
      - 8.6016174463987849e-03
      - -6.4641238404884871e-01
      - 8.5523161480372100e-03
      - -6.5566008759582761e-01
      - 8.3328593402642107e-03
      - -7.0358328384989410e-01
      - 7.8901257019835750e-03
      - -8.9636463232369956e-01
      - 7.9799487491630430e-03
      - -1.2050366570948039e+00
      - 8.2000098654327856e-03
      - -1.3505797397954828e+00
      - 8.1243264910280111e-03
      - -1.3060156415201147e+00
      - 7.8811732231517783e-03
      - -1.1034532896734022e+00
      - 7.8431660857860123e-03
      - -9.9729223924376020e-01
      - 1.0283240297789660e-02
      - -4.6316404718927634e-01
      - 4.8252036545498693e-02
      - -8.1816639113461792e-02
      - 9.0963609627519298e-03
      - -5.7233081716640788e-01
      - 7.9706840921571712e-03
      - -1.1973392864388779e+00
      - 8.3933410527030454e-03
      - -1.4512325096525320e+00
      - 8.4085010608170568e-03
      - -1.4585600902418643e+00
      - 8.3058595718483452e-03
      - -1.4075295158369756e+00
      - 8.0865596956051656e-03
      - -1.2821060290016271e+00
      - 7.8574954544485681e-03
      - -1.0623673720260460e+00
      - 8.1228609241221286e-03
      - -7.6621809162563248e-01
      - 8.3452635948985145e-03
      - -7.0050918418003993e-01
      - 8.1863241575426647e-03
      - -7.4471239251892152e-01
      - 8.0140504089917519e-03
      - -8.1189211654735227e-01
      - 7.8968745315869168e-03
      - -8.8959132776052707e-01
      - 7.9835132442142576e-03
      - -8.2785527636881406e-01
      - 8.1222759358996251e-03
      - -7.6643033211536771e-01
      - 8.1398321607149132e-03
      - -7.6018097489816683e-01
      - 8.3928992143982688e-03
      - -6.8917135098526361e-01
      - 8.7427963340050013e-03
      - -6.2219190966658633e-01
      - 9.0670355847115944e-03
      - -5.7600845913218346e-01
      - 9.3704527419110079e-03
      - -5.4098485024531218e-01
      - 8.7748135554186757e-03
      - -6.1710335020857898e-01
      - 7.8715967759081500e-03
      - -9.1836227369074042e-01
      - 8.0846719222852532e-03
      - -1.2808750844363257e+00
      - 8.2801929248548477e-03
      - -1.3941834974196852e+00
      - 8.2023784414433469e-03
      - -1.3519150615694868e+00
      - 7.9583321558857490e-03
      - -1.1867060058323657e+00
      - 7.8453756993650328e-03
      - -1.0241785971898645e+00
      - 1.0144311113422377e-02
      - -4.7310539141401076e-01
      - 4.6286282078553363e-02
      - -8.5341266375951200e-02
      - 9.1928958053156071e-03
      - -5.6069839473641403e-01
      - 7.9267562837488804e-03
      - -1.1570735785565098e+00
      - 8.4933477239341956e-03
      - -1.4984453148571795e+00
      - 8.6254594425020994e-03
      - -1.5573938016247626e+00
      - 8.4854843491939252e-03
      - -1.4948229725813214e+00
      - 8.4452424682669343e-03
      - -1.4760555531197845e+00
      - 7.9617667392598828e-03
      - -1.1897084542625436e+00
      - 7.8996800363789685e-03
      - -8.8691630414891309e-01
      - 7.9893602852280018e-03
      - -8.2464743008630026e-01
      - 7.9456338151215628e-03
      - -8.5087273929491736e-01
      - 7.9362626715112402e-03
      - -8.5731618404560828e-01
      - 7.9250990672682948e-03
      - -8.6550370168662083e-01
      - 7.9918175399277935e-03
      - -8.2332230549008223e-01
      - 8.1073132145407772e-03
      - -7.7195858014141272e-01
      - 8.0964004990987035e-03
      - -7.7611760665553242e-01
      - 8.2782854534396797e-03
      - -7.1778186044112535e-01
      - 8.4405664007610303e-03
      - -6.7849566574587528e-01
      - 8.5809750341353744e-03
      - -6.5022906139069769e-01
      - 8.8602612292159079e-03
      - -6.0415084008457931e-01
      - 8.4560891711304327e-03
      - -6.7514966316304470e-01
      - 7.8586245076940203e-03
      - -9.3910055531597658e-01
      - 8.1684623541375297e-03
      - -1.3324744889685565e+00
      - 8.3523803926356388e-03
      - -1.4310879055694441e+00
      - 8.4303634878272055e-03
      - -1.4690139681895416e+00
      - 8.1205252121687877e-03
      - -1.3036667060434379e+00
      - 7.8637198429875547e-03
      - -1.0751187405089069e+00
      - 9.9349433892472905e-03
      - -4.8918211734640765e-01
      - 4.4728432694187081e-02
      - -8.8359589441066796e-02
      - 9.2677283019586745e-03
      - -5.5214181567598797e-01
      - 7.8800724164215328e-03
      - -1.1018722047641412e+00
      - 8.4680253330992397e-03
      - -1.4867288570215214e+00
      - 8.7452777936946110e-03
      - -1.6082531988061612e+00
      - 8.6776560692207964e-03
      - -1.5798179864251622e+00
      - 8.5831292711735837e-03
      - -1.5388708539412288e+00
      - 8.0356142244978074e-03
      - -1.2474396220102422e+00
      - 7.8478370268482006e-03
      - -9.6597551644187996e-01
      - 7.9583321558857490e-03
      - -8.4266869391850030e-01
      - 7.9723946571177880e-03
      - -8.3418320286400049e-01
      - 8.0281147166175581e-03
      - -8.0512298822961337e-01
      - 8.0966770289830955e-03
      - -7.7601082530655863e-01
      - 8.0521017159544111e-03
      - -7.9427303666298921e-01
      - 8.1742458674821782e-03
      - -7.4859258160134634e-01
      - 8.2329630796235467e-03
      - -7.3052266654542175e-01
      - 8.4728428175959766e-03
      - -6.7160543786409166e-01
      - 8.5239227821653045e-03
      - -6.6120107541243023e-01
      - 8.6953959231982538e-03
      - -6.2998396073523921e-01
      - 8.8366998960419298e-03
      - -6.0763578720275158e-01
      - 8.3365599695594383e-03
      - -7.0266060014569420e-01
      - 7.8512963813285267e-03
      - -9.5541508243699291e-01
      - 8.2401257280415308e-03
      - -1.3727868595083264e+00
      - 8.6282655427361021e-03
      - -1.5586106674701763e+00
      - 8.5403459595179958e-03
      - -1.5198121791290724e+00
      - 8.1843480613974333e-03
      - -1.3416677333005738e+00
      - 7.8752764062330269e-03
      - -1.0947193456054924e+00
      - 9.7213625246042479e-03
      - -5.0715199801937183e-01
      - 4.3488192911946305e-02
      - -9.0920924948572068e-02
      - 9.3971127879859482e-03
      - -5.3819248704311129e-01
      - 7.8538294550950793e-03
      - -1.0535970521975662e+00
      - 8.3871762088805948e-03
      - -1.4482335874765579e+00
      - 8.8070143440521793e-03
      - -1.6336698899508644e+00
      - 8.7621593911074349e-03
      - -1.6152523253527029e+00
      - 8.4742928830502124e-03
      - -1.4896428242949382e+00
      - 8.0518537778653219e-03
      - -1.2588415822297403e+00
      - 7.8454735871472375e-03
      - -9.7588777264322490e-01
      - 7.9076106944269125e-03
      - -8.7973572844408998e-01
      - 8.0408660330852193e-03
      - -7.9925377808140607e-01
      - 8.2354609940978978e-03
      - -7.2979529150828859e-01
      - 8.2372511554595091e-03
      - -7.2927591104490741e-01
      - 8.2433748354247272e-03
      - -7.2751109009951909e-01
      - 8.3612601264539590e-03
      - -6.9662143721728786e-01
      - 8.4461805741812158e-03
      - -6.7727844558381911e-01
      - 8.8050592486714156e-03
      - -6.1241773454082427e-01
      - 8.8663877825847191e-03
      - -6.0325494382716427e-01
      - 8.8366998960419298e-03
      - -6.0763578720275158e-01
      - 8.5638973726450199e-03
      - -6.5344637844825471e-01
      - 8.1211080803440094e-03
      - -7.6685489780229665e-01
      - 7.8459130149453968e-03
      - -1.0269611276544137e+00
      - 8.2756236577759719e-03
      - -1.3917793207488076e+00
      - 8.7966213742288971e-03
      - -1.6294250383615241e+00
      - 8.9072521145390146e-03
      - -1.6739653638213192e+00
      - 8.4728428175959731e-03
      - -1.4889694806228817e+00
      - 7.8800724164215328e-03
      - -1.1018722047641412e+00
      - 9.9273765655790280e-03
      - -4.8979009874727492e-01
      - 4.2824679294028264e-02
      - -9.2353674100517369e-02
      - 9.3713979711477872e-03
      - -5.4088514707199842e-01
      - 7.8433073028718048e-03
      - -1.0066067173636599e+00
      - 8.1729554380792994e-03
      - -1.3350910514574257e+00
      - 8.5465738336681085e-03
      - -1.5226088196984409e+00
      - 8.3876150649892841e-03
      - -1.4484474446799926e+00
      - 8.1694220960004758e-03
      - -1.3330345069701073e+00
      - 7.9138438193350220e-03
      - -1.1435938584093814e+00
      - 7.8636461110568566e-03
      - -9.3025055153543679e-01
      - 7.9353037563919711e-03
      - -8.5799639401907868e-01
      - 8.0761479839022397e-03
      - -7.8414756657902707e-01
      - 8.1765112939909974e-03
      - -7.4785782253715716e-01
      - 8.1287497902290014e-03
      - -7.6409723254118378e-01
      - 8.1678234524712821e-03
      - -7.5069363301888503e-01
      - 8.2606060894260119e-03
      - -7.2264038047763113e-01
      - 8.2725939529719322e-03
      - -7.1933115049692864e-01
      - 8.5502243231828281e-03
      - -6.5606274179732504e-01
      - 8.7818280506404174e-03
      - -6.1600640268325357e-01
      - 8.6936098286155457e-03
      - -6.3028390637390774e-01
      - 8.2975938826222850e-03
      - -7.1262618191338389e-01
      - 8.0341955035631435e-03
      - -8.0229403684806821e-01
      - 7.8434952772619224e-03
      - -9.9049066038272648e-01
      - 8.0955719421378011e-03
      - -1.2879328501258247e+00
      - 8.6653970036046739e-03
      - -1.5745904643044570e+00
      - 9.1776574200473828e-03
      - -1.7778141504023808e+00
      - 8.6221014657168853e-03
      - -1.5559358584979384e+00
      - 7.8755545871581328e-03
      - -1.0951469623899168e+00
      - 1.0004272199646311e-02
      - -4.8370236280452616e-01
      - 4.0178273259524819e-02
      - -9.8552194480028762e-02
      - 9.0344200869878367e-03
      - -5.8018299248751359e-01
      - 7.8541500777291762e-03
      - -1.0544158450864922e+00
      - 8.1252079564992641e-03
      - -1.3065586175833845e+00
      - 8.3332696506342833e-03
      - -1.4215030168216576e+00
      - 8.2744859769344151e-03
      - -1.3911793380903779e+00
      - 8.1922932296829825e-03
      - -1.3462069147687128e+00
      - 7.9486918946462190e-03
      - -1.1780715718213348e+00
      - 7.8432696442364228e-03
      - -9.9420658143694107e-01
      - 7.9076106944269125e-03
      - -8.7973572844408998e-01
      - 8.0014432562883868e-03
      - -8.1825475820246496e-01
      - 7.9731588332233403e-03
      - -8.3373813761793658e-01
      - 7.8851032539418407e-03
      - -9.0176514769587879e-01
      - 7.8719457545514612e-03
      - -9.1788462903611623e-01
      - 7.8799731615685539e-03
      - -9.0766455222280629e-01
      - 7.8957967486883301e-03
      - -8.9063975643080506e-01
      - 7.9957536322862732e-03
      - -8.2122687298371111e-01
      - 8.1468451987980004e-03
      - -7.5775127309026602e-01
      - 8.1771602383464304e-03
      - -7.4764794904860554e-01
      - 8.0356142244978074e-03
      - -8.0164200523669860e-01
      - 7.9242024462224808e-03
      - -8.6618848172652707e-01
      - 7.8486032151969046e-03
      - -1.0380373110960259e+00
      - 8.1022438535902665e-03
      - -1.2921954361306351e+00
      - 8.5649566323825026e-03
      - -1.5308187353281530e+00
      - 8.8373672907258883e-03
      - -1.6459924628440632e+00
      - 8.3090329433462874e-03
      - -1.4091615643963933e+00
      - 7.8568266811669014e-03
      - -1.0608542008991213e+00
      - 1.0161048543570564e-02
      - -4.7187870077857991e-01
      - 3.5720738387739301e-02
      - -1.1114015407340837e-01
      - 8.5939661287556257e-03
      - -6.4781804909043661e-01
      - 7.8819841851782771e-03
      - -1.1046048740444017e+00
      - 8.0724731333038750e-03
      - -1.2728294161426761e+00
      - 8.1047715017635788e-03
      - -1.2937993647135806e+00
      - 8.0688311983856693e-03
      - -1.2703955392670716e+00
      - 8.1555122854937226e-03
      - -1.3248574425099597e+00
      - 8.0065960362674677e-03
      - -1.2260636451895932e+00
      - 7.8435050196073840e-03
      - -1.0097310109489404e+00
      - 7.9202313979669110e-03
      - -8.6927479639848770e-01
      - 7.9290441441796731e-03
      - -8.6254077112385519e-01
      - 7.8737230930012499e-03
      - -9.1549948886354393e-01
      - 7.8528961704773820e-03
      - -1.0511448795576923e+00
      - 7.8764906775819002e-03
      - -1.0965737781393856e+00
      - 7.8741758851157660e-03
      - -1.0930108470716924e+00
      - 7.8620578530395040e-03
      - -1.0719146933771890e+00
      - 7.8516710013002596e-03
      - -9.5442662115999266e-01
      - 7.9710631617687742e-03
      - -8.3496243376858303e-01
      - 8.0452214380424391e-03
      - -7.9730273915680749e-01
      - 8.0059470137895626e-03
      - -8.1594761655291481e-01
      - 7.8901257019835750e-03
      - -8.9636463232369956e-01
      - 7.8579919359671631e-03
      - -1.0634693792720751e+00
      - 8.1392268400181395e-03
      - -1.3151104206499935e+00
      - 8.3999962871622782e-03
      - -1.4544574591242785e+00
      - 8.3324492472780527e-03
      - -1.4210887295971051e+00
      - 8.0241974504988867e-03
      - -1.2391945805163438e+00
      - 7.8599962400606061e-03
      - -1.0677518197617775e+00
      - 9.7247834038215117e-03
      - -5.0685018627548228e-01
      - 2.4201241961385213e-02
      - -1.6653391740891219e-01
      - 8.4085010608170585e-03
      - -6.8560768026648533e-01
      - 7.8675773521295744e-03
      - -1.0821220295768792e+00
      - 8.0122800688225242e-03
      - -1.2303634514463531e+00
      - 7.9645163092508554e-03
      - -1.1920860221010807e+00
      - 7.8845748498025392e-03
      - -1.1082128803900317e+00
      - 7.9190747791227350e-03
      - -1.1491732902118503e+00
      - 7.8610120334019640e-03
      - -1.0698309588401664e+00
      - 7.9172147117736718e-03
      - -8.7168073970608728e-01
      - 8.0327825906282447e-03
      - -8.0294636875565839e-01
      - 8.0167248760646698e-03
      - -8.1057938464436707e-01
      - 7.9167888788391465e-03
      - -8.7202483983342449e-01
      - 7.8477323050171032e-03
      - -1.0348215377412966e+00
      - 7.8763023734553378e-03
      - -1.0962882391690798e+00
      - 7.8690482601735858e-03
      - -1.0846560991620740e+00
      - 7.8540963096454808e-03
      - -1.0542793307783447e+00
      - 7.8626279132328839e-03
      - -9.3194221101972730e-01
      - 7.9957536322862732e-03
      - -8.2122687298371111e-01
      - 8.0563418519590015e-03
      - -7.9243665940548957e-01
      - 8.0652220546188428e-03
      - -7.8866312757463930e-01
      - 7.9458024602339031e-03
      - -8.5075999330840113e-01
      - 7.8433140370252341e-03
      - -1.0067367000906950e+00
      - 7.9381961859294192e-03
      - -1.1682831404172560e+00
      - 7.9078754969508971e-03
      - -1.1370034261164708e+00
      - 7.9263025930551949e-03
      - -1.1566158991048752e+00
      - 7.8927462581003128e-03
      - -1.1189763942907536e+00
      - 7.8431388892973176e-03
      - -9.9935463045875506e-01
      - 9.3808783277075022e-03
      - -5.3988801882405968e-01
      - 1.9660130515049650e-02
      - -2.0810673336992358e-01
      - 8.6316422322251368e-03
      - -6.4099555958293974e-01
      - 7.8457535952247467e-03
      - -9.7450185754503116e-01
      - 7.9059031829531064e-03
      - -1.1347676121564154e+00
      - 7.8668582382016329e-03
      - -1.0808575667067695e+00
      - 7.8436668524677500e-03
      - -9.8844633877910648e-01
      - 7.8659940976490948e-03
      - -9.2651406591434560e-01
      - 8.1564493815327564e-03
      - -7.5448209903694663e-01
      - 8.4757451783566608e-03
      - -6.7099831720418857e-01
      - 8.3345018868924668e-03
      - -7.0317315386911505e-01
      - 8.1266806124303849e-03
      - -7.6483921437201097e-01
      - 7.9970082124981075e-03
      - -8.2056583654407222e-01
      - 7.8500517059819294e-03
      - -9.5888204214902573e-01
      - 7.8527951174256309e-03
      - -1.0508728040630086e+00
      - 7.8536709307692621e-03
      - -1.0531879191427911e+00
      - 7.8467194244837592e-03
      - -1.0306835663930767e+00
      - 7.8946123970946858e-03
      - -8.9180579203100396e-01
      - 8.0481544057753266e-03
      - -7.9600351683822024e-01
      - 8.1608442993334578e-03
      - -7.5300779444350086e-01
      - 8.3308110474865724e-03
      - -7.0409605545758525e-01
      - 8.5825903028178604e-03
      - -6.4992759362203678e-01
      - 8.3775790823214895e-03
      - -6.9274033771967169e-01
      - 8.0068126903912219e-03
      - -8.1550860422465310e-01
      - 7.9170726253430194e-03
      - -8.7179542877239913e-01
      - 7.8453036599621228e-03
      - -9.7677069418817641e-01
      - 7.8431922365227134e-03
      - -9.9626263271383864e-01
      - 7.8952028391067047e-03
      - -8.9122262726129386e-01
      - 9.8086739604591848e-03
      - -4.9959648125135464e-01
      - 2.8691276916916378e-02
      - -1.3933513919141605e-01
      - 1.1520530234207989e-02
      - -3.9296238570343012e-01
      - 8.8725423946732617e-03
      - -6.0235913706173627e-01
      - 8.4161819682069868e-03
      - -6.8387862619385220e-01
      - 8.7140114292225384e-03
      - -6.2688564468393382e-01
      - 9.3751839837144524e-03
      - -5.4048631693330174e-01
      - 1.0480108921983639e-02
      - -4.4994781391065197e-01
      - 1.1724760912019461e-02
      - -3.8371531935049352e-01
      - 1.1816641933272490e-02
      - -3.7971928267951677e-01
      - 1.1264062211405039e-02
      - -4.0535353121391288e-01
      - 1.0559905665076322e-02
      - -4.4485562570801990e-01
      - 9.8936554681767503e-03
      - -4.9252392541126250e-01
      - 9.1810313063846339e-03
      - -5.6209071234689056e-01
      - 8.6389935930364647e-03
      - -6.3969265728062585e-01
      - 8.5087670453767184e-03
      - -6.6422764357262631e-01
      - 8.7397015483405872e-03
      - -6.2269104046550061e-01
      - 9.3942370399993196e-03
      - -5.3849173726183319e-01
      - 1.0202012915001155e-02
      - -4.6891059489762571e-01
      - 1.1274847903551065e-02
      - -4.0481362400254634e-01
      - 1.2896170354556579e-02
      - -3.3904273301083593e-01
      - 1.5464529746658790e-02
      - -2.7240135192871862e-01
      - 1.5204435651271759e-02
      - -2.7783185998014659e-01
      - 1.1591897125046683e-02
      - -3.8967183679684048e-01
      - 9.7651301824566213e-03
      - -5.0332658252577656e-01
      - 8.8480917437593013e-03
      - -6.0594291296190228e-01
      - 8.6492524018052415e-03
      - -6.3788934433972289e-01
      - 9.5796233671063373e-03
      - -5.2010119144627232e-01
      - 1.6002725472507733e-02
      - -2.6185996291262331e-01
   output_scale:
      - 5.2631578947368418e-01
      - 4.9999999999999994e-01
      - 5.2631578947368418e-01
      - 4.9999999999999994e-01
      - 5.2631578947368418e-01
      - 4.9999999999999994e-01
      - 5.2631578947368418e-01
      - 4.9999999999999994e-01
      - 5.2631578947368418e-01
      - 4.9999999999999994e-01
      - 5.2631578947368418e-01
      - 4.9999999999999994e-01
      - 5.2631578947368418e-01
      - 4.9999999999999994e-01
      - 5.2631578947368418e-01
      - 4.9999999999999994e-01
      - 5.2631578947368418e-01
      - 4.9999999999999994e-01
      - 5.2631578947368418e-01
      - 4.9999999999999994e-01
      - 5.2631578947368418e-01
      - 4.9999999999999994e-01
      - 5.2631578947368418e-01
      - 4.9999999999999994e-01
      - 5.2631578947368418e-01
      - 4.9999999999999994e-01
      - 5.2631578947368418e-01
      - 4.9999999999999994e-01
      - 5.2631578947368418e-01
      - 4.9999999999999994e-01
      - 5.2631578947368418e-01
      - 4.9999999999999994e-01
      - 5.2631578947368418e-01
      - 4.9999999999999994e-01
      - 5.2631578947368418e-01
      - 4.9999999999999994e-01
      - 5.2631578947368418e-01
      - 4.9999999999999994e-01
      - 5.2631578947368418e-01
      - 4.9999999999999994e-01
      - 5.2631578947368418e-01
      - 4.9999999999999994e-01
      - 5.2631578947368418e-01
      - 4.9999999999999994e-01
      - 5.2631578947368418e-01
      - 4.9999999999999994e-01
      - 5.2631578947368418e-01
      - 4.9999999999999994e-01
      - 5.2631578947368418e-01
      - 4.9999999999999994e-01
      - 5.2631578947368418e-01
      - 4.9999999999999994e-01
      - 5.2631578947368418e-01
      - 4.9999999999999994e-01
      - 5.2631578947368418e-01
      - 4.9999999999999994e-01
      - 5.2631578947368418e-01
      - 4.9999999999999994e-01
      - 5.2631578947368418e-01
      - 4.9999999999999994e-01
      - 5.2631578947368418e-01
      - 4.9999999999999994e-01
      - 5.2631578947368418e-01
      - 4.9999999999999994e-01
   inv_output_scale:
      - 1.8999999999999999e+00
      - -9.4999999999999996e-01
      - 1.8999999999999999e+00
      - -9.4999999999999996e-01
      - 1.8999999999999999e+00
      - -9.4999999999999996e-01
      - 1.8999999999999999e+00
      - -9.4999999999999996e-01
      - 1.8999999999999999e+00
      - -9.4999999999999996e-01
      - 1.8999999999999999e+00
      - -9.4999999999999996e-01
      - 1.8999999999999999e+00
      - -9.4999999999999996e-01
      - 1.8999999999999999e+00
      - -9.4999999999999996e-01
      - 1.8999999999999999e+00
      - -9.4999999999999996e-01
      - 1.8999999999999999e+00
      - -9.4999999999999996e-01
      - 1.8999999999999999e+00
      - -9.4999999999999996e-01
      - 1.8999999999999999e+00
      - -9.4999999999999996e-01
      - 1.8999999999999999e+00
      - -9.4999999999999996e-01
      - 1.8999999999999999e+00
      - -9.4999999999999996e-01
      - 1.8999999999999999e+00
      - -9.4999999999999996e-01
      - 1.8999999999999999e+00
      - -9.4999999999999996e-01
      - 1.8999999999999999e+00
      - -9.4999999999999996e-01
      - 1.8999999999999999e+00
      - -9.4999999999999996e-01
      - 1.8999999999999999e+00
      - -9.4999999999999996e-01
      - 1.8999999999999999e+00
      - -9.4999999999999996e-01
      - 1.8999999999999999e+00
      - -9.4999999999999996e-01
      - 1.8999999999999999e+00
      - -9.4999999999999996e-01
      - 1.8999999999999999e+00
      - -9.4999999999999996e-01
      - 1.8999999999999999e+00
      - -9.4999999999999996e-01
      - 1.8999999999999999e+00
      - -9.4999999999999996e-01
      - 1.8999999999999999e+00
      - -9.4999999999999996e-01
      - 1.8999999999999999e+00
      - -9.4999999999999996e-01
      - 1.8999999999999999e+00
      - -9.4999999999999996e-01
      - 1.8999999999999999e+00
      - -9.4999999999999996e-01
      - 1.8999999999999999e+00
      - -9.4999999999999996e-01
      - 1.8999999999999999e+00
      - -9.4999999999999996e-01
      - 1.8999999999999999e+00
      - -9.4999999999999996e-01
   weights:
      -
         - 7.0194933345307125e-04
         - 1.8427510932162629e-03
         - -3.0144602718095719e-03
         - 1.6247438756594296e-03
         - 7.9707482902797461e-03
         - 1.7020279837445425e-03
         - -9.3950642806572508e-03
         - -1.0242379069968877e-02
         - -3.7460037552517565e-03
         - 9.1962024162475318e-03
         - -1.5511505043426722e-02
         - 1.1527065895962784e-02
         - 1.0407689703688612e-02
         - -9.2156085489534731e-03
         - -2.8766701930560282e-03
         - 6.3437743954853389e-03
         - 2.0934262042275856e-03
         - 2.6437640692705572e-04
         - 1.3980033826383419e-03
         - 8.8673391599791516e-03
         - 1.0491793678918039e-02
         - 1.9539455290842080e-02
         - 2.0643386840718870e-03
         - -6.6680054643975745e-03
         - -3.6941405345272136e-03
         - 3.4862183812412037e-03
         - -1.4349542267627287e-02
         - 3.2412257194087469e-03
         - 5.0922781620544363e-03
         - -1.3807927900636247e-02
         - 9.8331009392113155e-03
         - 2.4662111571995258e-03
         - -9.6831713724742936e-03
         - -1.0165387508438819e-02
         - 9.5855721360508361e-03
         - 6.5673184357144363e-04
         - -3.1142904299323541e-03
         - 1.1682645451830637e-02
         - -1.0381204602789591e-02
         - 7.4828113986879366e-03
         - 8.3517423501796757e-03
         - -1.0352913460926969e-02
         - -4.4369671279789148e-03
         - 1.5246471779885157e-03
         - 5.4951201220232286e-04
         - 5.7728248987887060e-03
         - -3.5930555917199926e-04
         - -1.0182385286231761e-03
         - -1.0109075993552387e-02
         - 5.8715597886543807e-03
         - 3.0845687455061882e-03
         - 2.2446877388688845e-03
         - 9.6922838851963896e-03
         - -1.8004745033197923e-02
         - -1.6378604011684774e-03
         - 1.1784404146402014e-02
         - -7.6214104337697704e-03
         - -3.8817800449418294e-02
         - 2.8205599457584111e-02
         - 8.2846174984908139e-03
         - -3.1626471403086769e-02
         - -2.0369714968328897e-02
         - -4.9764590373920911e-03
         - -1.1763544495190476e-02
         - 5.3636322986684668e-03
         - 9.3059857213672343e-03
         - -1.6720603658722420e-03
         - 2.3704543606293847e-02
         - 2.3875073725174025e-02
         - -1.4815782680546678e-02
         - 9.0094778585458994e-03
         - -4.3592249297398850e-03
         - -1.3870971928681560e-02
         - 1.7392373596971381e-02
         - 9.1449592793626539e-03
         - -1.2166412955966977e-02
         - -2.7778441468777341e-02
         - 1.0140834766268801e-02
         - 6.8319407930128523e-03
         - 1.2214514430918949e-02
         - 2.0235499247237939e-02
         - -4.4836126957459747e-02
         - -1.8958482400868289e-07
         - 2.4143879958787164e-02
         - -5.5776520159697600e-03
         - -2.6737199848180494e-02
         - 1.4115324432111139e-02
         - 9.3149794970783101e-03
         - -2.7814251544939467e-02
         - -1.8025052686821627e-02
         - -6.2185635363964757e-03
         - -3.8199118784412274e-03
         - 1.3972762634013853e-02
         - -2.9790733766187735e-03
         - 1.8077021564034092e-02
         - 2.3312115986991660e-02
         - 2.0064650860825536e-02
         - 1.4726005418613118e-02
         - 1.7186975244909471e-02
         - -8.2019609415885913e-03
         - -1.3475736434604296e-02
         - 4.0775532486276517e-03
         - 1.6805361938369345e-02
         - -1.2563783856483228e-03
         - -7.6945132071633317e-03
         - 7.8534167988735300e-03
         - -4.1050027708397245e-03
         - 1.3218719255960160e-02
         - 1.2358388871566948e-02
         - -4.3809902170496628e-02
         - -5.0138840365411101e-03
         - 8.4837788056896686e-03
         - -1.4404112706117257e-02
         - 3.2248206591233870e-04
         - 6.4619331314066377e-03
         - 2.2130769959382398e-02
         - -1.0427389744515190e-02
         - -1.3867100517477226e-02
         - -1.7245428271489491e-02
         - 1.6862223388266484e-03
         - 9.1019657494034612e-03
         - -1.0869139711924417e-02
         - 2.1514793852494878e-02
         - 2.5440301449776527e-02
         - 4.6561317640566331e-03
         - 2.7238053781143145e-02
         - 3.0010373506647016e-02
         - -7.3637887723365918e-04
         - -2.5336186473515800e-02
         - -5.3903953318368203e-03
         - 1.8772618133019999e-02
         - -2.2233193054486842e-03
         - -4.3012127246723807e-03
         - 7.4041729308768857e-03
         - -1.4902990994207712e-02
         - 8.8198046895313672e-04
         - -7.4528930486118788e-03
         - -3.5014402881878619e-02
         - -9.9426417296882424e-03
         - -6.1613101416932263e-03
         - -2.5124806750594742e-02
         - 2.2198481265306762e-02
         - -6.5578777506490205e-03
         - 2.7120618998050395e-02
         - 9.2485271083793136e-03
         - -8.9036660366256203e-03
         - -2.7230424559948879e-02
         - 8.4479362252231939e-03
         - -4.1091991327969141e-03
         - -2.0623044878790738e-02
         - 2.2038615687202723e-02
         - 2.3700331483011487e-02
         - -1.2432845823400042e-02
         - 3.7864174518599497e-02
         - 4.4866573605882996e-02
         - 1.2375170762690647e-03
         - -3.1487355547262744e-02
         - -7.0302415588708441e-03
         - 5.9938058830723683e-03
         - 4.4282101209400827e-03
         - 9.8381307709298361e-03
         - 4.1568735269846774e-03
         - -1.1382472459606873e-02
         - -1.2228788007507143e-02
         - -1.9869253352114279e-02
         - -1.8713712253205873e-02
         - -4.5321672226406986e-03
         - -2.0001356532743316e-02
         - -2.0448525615739233e-02
         - 3.3257224834868253e-02
         - -2.1937932043317163e-02
         - 2.4241276290644969e-02
         - 1.4480714425297848e-02
         - -3.1209236634404825e-03
         - -2.2178166795689219e-02
         - 1.4352091689106929e-02
         - -7.1286629269435133e-03
         - -2.3442762141015396e-02
         - 1.4207155679078584e-02
         - 1.9729736294987355e-02
         - -3.4216472305296584e-02
         - 2.9923716787647481e-02
         - 4.1778155788846999e-02
         - 3.4109508723709487e-03
         - -2.7237154820116911e-02
         - -8.3651490723946065e-03
         - 1.8058998889368487e-03
         - -2.6645629698300724e-04
         - 9.0690326596268162e-03
         - -4.6425158189156018e-03
         - -1.4159168307182285e-02
         - -2.2745242427611577e-02
         - -1.8592380700294654e-02
         - 9.0262894169974470e-04
         - 8.4103542658956060e-03
         - -1.3418345719268001e-02
         - -4.2746743353630984e-03
         - 1.3579988044152209e-02
         - -1.9364562246009822e-02
         - 1.7386017570966694e-02
         - 1.6265797518941465e-02
         - -5.8986093173436817e-03
         - -4.1722898431494643e-03
         - 1.7421528565357228e-02
         - -1.4671921560074805e-02
         - -1.3096528102291288e-02
         - -2.7229345638363753e-02
         - -5.9843476383329222e-03
         - -5.1191801669923001e-02
         - 1.6813573989092757e-02
         - 6.7619032837715979e-03
         - 6.9906286189634096e-03
         - -3.3389475790397756e-02
         - -7.9789165284318841e-03
         - -9.8050876582748102e-03
         - 4.9137474542599860e-03
         - -1.4849198681409241e-02
         - -2.9954108917462125e-03
         - -2.6524385855603568e-02
         - -2.3303611347571081e-02
         - -1.4947233929712523e-02
         - 1.9941169561566399e-02
         - 5.5643873361752080e-03
         - -1.3333026293526305e-02
         - 1.0483546277896019e-02
         - -8.9203444428143184e-04
         - -1.2114544465379318e-02
         - -1.6590596914584537e-03
         - 3.9987092597878367e-03
         - -3.8050712815796356e-03
         - -5.4438423704107064e-03
         - 8.2414760495783685e-03
         - -1.5127913299773954e-02
         - 1.6052201819545794e-02
         - -3.1611776194533231e-02
         - -1.0985972911675947e-02
         - -3.9424649327217676e-02
         - 1.5512273656114003e-02
         - -5.6867097375688826e-03
         - -6.5733401065511305e-04
         - -3.3672037545862142e-02
         - -5.4878779825893219e-03
         - -1.7890058361038394e-02
         - 3.0162569027345275e-03
         - -2.0196614453408361e-02
         - 7.8460729019165822e-03
         - -1.7809761586783969e-02
         - -1.0452806424685664e-02
         - 8.5616165823437047e-04
         - 1.8636007473348221e-02
         - 4.4685876254779277e-03
         - -1.0481869404148683e-02
         - 1.0703251342809719e-02
         - -8.8290338224952889e-03
         - -1.1115067813972056e-02
         - -2.1473358886454682e-03
         - 5.7862972781552906e-03
         - -7.3887544938063031e-03
         - -4.6255098902441396e-03
         - 2.5997649878096636e-03
         - -1.2941217766181944e-02
         - 2.0335371600583529e-02
         - -3.5484105596617369e-02
         - -1.3101750708846513e-02
         - -3.6410094441913350e-02
         - 8.9532985841561698e-03
         - -1.0984655803651102e-02
         - -5.6097430908260918e-03
         - -1.3900399720155391e-02
         - -6.5383708460822493e-03
         - -1.7290982782569405e-02
         - 4.7552228865301296e-03
         - -1.1250890984259184e-02
         - 1.7465750238292593e-03
         - -8.4500895650742834e-03
         - -1.1314298226083637e-02
         - 6.1273720362652415e-03
         - 2.9178903170868065e-02
         - 5.8855933295503459e-03
         - -6.0139982352398480e-03
         - -2.0431508407557202e-04
         - -1.4271101605975564e-02
         - 8.7246430368325952e-04
         - 1.2770176285461655e-03
         - -1.2417604514341318e-03
         - -4.0198349847681272e-03
         - -6.8204419445838053e-04
         - -4.9511158388634612e-03
         - -9.3105136815623945e-03
         - 1.0590173172289618e-02
         - -1.9330613504228527e-02
         - -2.4074817480546685e-03
         - -1.9470060622198693e-02
         - 3.5598271698677165e-03
         - -1.1055590513004419e-02
         - 1.6462147771228190e-03
         - -9.8257979557139839e-04
         - -4.8532594257674538e-03
         - -8.0138188049641221e-03
         - 6.5787487997116421e-03
         - -5.7186857331108882e-03
         - -1.0564339848377379e-02
         - -8.8767015397284881e-04
         - -6.7553042867169004e-03
         - 7.0755064866052724e-04
         - 1.5233449739330282e-02
         - -1.4828063916680577e-03
         - -5.6501233314845446e-03
         - -1.1190615481000712e-02
         - -7.7087072506160838e-03
         - 2.0899993348074157e-03
         - -3.9784937091672037e-03
         - -6.8600891113822999e-03
         - 1.6285902523808799e-03
         - 3.6622555783893439e-03
         - -1.6087373877579563e-02
         - -1.0553894735808758e-03
         - 8.1348291216991435e-03
         - 4.2359555196313835e-03
         - 8.4537266819572892e-03
         - -1.8471532517114768e-03
         - 9.6739084405579913e-03
         - 1.3947962436199259e-02
         - -7.0631972765347649e-03
         - 1.0559782048998554e-02
         - -9.1787106898728497e-04
         - -8.7690972010450417e-03
         - 1.0208533852757740e-02
         - 1.6693049519332652e-03
         - -3.7399635821570481e-03
         - 8.2092878774347351e-03
         - 1.2260163575354142e-02
         - 7.7382048125367042e-04
         - 3.4021877242768794e-03
         - -3.6801841116104479e-03
         - -5.6163123713476384e-03
         - -5.8592779485587120e-03
         - 4.1294558994681369e-03
         - -5.2046735816219328e-03
         - -6.8156473041487663e-03
         - -7.5980819211172879e-03
         - -1.8583012922807458e-02
         - 2.8191153059698035e-02
         - 5.7217241575667002e-03
         - -8.8352412855593511e-03
         - 9.7606255866705184e-04
         - 2.3964069754501716e-02
         - 6.4722425531244434e-03
         - 1.3721453407263436e-02
         - 4.7524236786898296e-03
         - 1.2103212575702812e-02
         - -1.2784192745142984e-02
         - 2.4740264560303288e-02
         - 8.8358957800092428e-03
         - -1.4138074206163647e-02
         - 8.2568849666714971e-03
         - 1.7238284838167847e-02
         - -2.1087755509908209e-02
         - -1.1763415209310391e-02
         - 1.7589467238443676e-02
         - 4.6847490059866949e-03
         - 1.5433977442729369e-02
         - -4.3870508753299405e-03
         - 1.0969092961625806e-02
         - 1.3463427363611733e-02
         - 2.5772382882689432e-02
         - 1.6717544495375582e-02
         - -2.0620609978484052e-02
         - -3.0081464684520434e-03
         - -6.2551573930435585e-03
         - 3.6032004667973870e-02
         - 2.7597102743065023e-03
         - -1.6916175588732943e-02
         - 1.2312252036781837e-02
         - 3.4596188663303939e-02
         - 6.0791132765554709e-03
         - 2.1205642128462789e-02
         - -7.0298421714634950e-03
         - 1.4380829542559221e-04
         - 2.8199800998126847e-03
         - 3.4548678840207840e-02
         - 7.1510057409635841e-03
         - -2.1425248308625883e-02
         - -6.4675165541730481e-03
         - 2.5336350516316771e-02
         - -2.7893568146760316e-02
         - -1.1210919964237290e-03
         - 2.2962021786232977e-02
         - 1.7894593453575934e-02
         - 1.5820630081477653e-02
         - -1.1890687119371714e-02
         - 2.5712547064033892e-02
         - 2.4368629307526989e-02
         - 2.3673016978368957e-02
         - 2.2303048612706874e-02
         - -3.2924198178183373e-02
         - -2.1108950085117493e-03
         - 5.8691356015544861e-04
         - 2.3973882721516834e-02
         - -1.4495490673240340e-02
         - -6.7937153423874913e-03
         - 1.6542418657218116e-02
         - 1.2185137903636456e-02
         - -1.4483421980069106e-02
         - 2.6942152580091843e-02
         - -1.9353107110476532e-02
         - 2.6384102142175351e-03
         - 3.1730425873000906e-03
         - 2.9854651422735270e-02
         - -2.0242674955073134e-04
         - -2.5434266728980529e-02
         - -6.0951043082522281e-03
         - 2.5144950080587140e-02
         - 2.2059337816784878e-04
         - -9.1624895761286823e-03
         - 1.7962822017419184e-02
         - 2.0940341700814734e-02
         - 2.2369389708402146e-02
         - -2.2185605313538439e-02
         - 2.2620905261137862e-02
         - 2.8143702268118582e-02
         - 2.9613541469179164e-02
         - 1.4739271255259787e-02
         - -3.1306653400904452e-02
         - -1.3436279014304349e-03
         - 6.9452819814337739e-03
         - 9.6640946393398795e-03
         - -3.3111107764138385e-02
         - 1.4886104699939023e-03
         - 2.5206657284019579e-02
         - -5.3726946848047083e-04
         - -5.4659131661148660e-03
         - 2.5444439967188665e-02
         - -1.4185283673840308e-02
         - 9.9650964439150919e-03
         - 9.8921204082890561e-03
         - 1.6177862660259910e-02
         - -4.3460662421501072e-03
         - -1.7123397233694913e-02
         - -4.1908371056768737e-03
         - 1.4326620086924622e-02
         - 1.8455167275114433e-02
         - 2.0942443144663699e-03
         - 1.5271857258663535e-02
         - 9.9335486510862218e-03
         - 1.2516501465121262e-02
         - -1.8553434040156122e-02
         - 8.4707361490017011e-03
         - -5.7166339403153443e-03
         - 9.9726650582131100e-03
         - 1.6777668097165171e-02
         - -2.2187022667650526e-02
         - -1.1017374210786789e-02
         - -6.0726559796019566e-03
         - 7.6498456815136874e-04
         - -2.3644152364718691e-02
         - -7.7147649350465053e-03
         - 1.4179276736967087e-02
         - 1.4901627584115232e-03
         - 2.0338942487750752e-02
         - 1.1014254137364569e-02
         - 4.3646508528770930e-03
         - 2.5929664925538304e-02
         - -7.8406961320909956e-03
         - 2.5188807799502354e-02
         - -8.8170497178752059e-03
         - -2.0891466376907489e-02
         - -8.3962231743913360e-03
         - 3.9440511473025101e-03
         - -3.7824183010895670e-03
         - 2.5885957930707342e-02
         - 1.2322178070505297e-02
         - 3.7584199268390988e-03
         - 2.0212663365268700e-03
         - -9.5200826742359301e-03
         - 8.2442245447505377e-03
         - -1.0819609650199779e-02
         - 3.4402267147540250e-04
         - 1.4162004719856640e-02
         - -1.2549770605042700e-02
         - -1.3488761907305611e-02
         - -5.2506415962972697e-03
         - -5.9465140807472092e-03
         - -1.6557251379877000e-02
         - 4.4803934129612852e-04
         - 1.9535220097909263e-02
         - -4.9749660996695139e-03
         - 1.4842776182614162e-02
         - 2.0375984118155936e-03
         - -2.7578881612843184e-03
         - 1.7861174251855523e-02
         - -5.6211759371182597e-03
         - 2.4868724213409802e-02
         - -3.8876125843102045e-04
         - -2.1049288963877213e-02
         - -9.3699366002562724e-03
         - 1.3091145006011123e-03
         - -3.9392847550392615e-04
         - 1.6910660662294089e-02
         - 4.3561925045721411e-03
         - 4.5508298894046464e-03
         - -3.0858840409571883e-03
         - -3.5314616972967781e-03
         - 8.5204919660968725e-03
         - -6.2494638503363849e-03
         - -2.5140910739221587e-03
         - 1.8268986615115064e-02
         - -4.2116669339494449e-03
         - -9.6348171452530842e-03
         - -1.2759301978814970e-03
         - 3.2735283207687635e-03
         - -4.4515318164408280e-03
         - 1.6314744786954637e-04
         - 1.3449310958504070e-02
         - 1.5568772462616562e-03
         - 1.0658673870038637e-02
         - 1.8121682980188928e-03
         - -6.7626663750721561e-03
         - 7.2109429059817815e-03
         - -3.1493847068341950e-04
         - 2.0832669890368586e-02
         - 6.2579536656662130e-04
         - -5.9855479466713966e-03
         - -7.5847094000190979e-03
         - 4.5640249456427471e-03
         - -1.6156702730852023e-03
         - 2.0456742603402328e-03
         - 8.8054387903005460e-03
         - 2.4272497352274447e-03
         - -9.4846540501786420e-04
         - -4.1835810757625278e-03
         - 1.1945823133989331e-02
         - 3.7191878626842661e-03
         - -1.0612922460635200e-02
         - 1.3731240016981235e-02
         - -6.3597381520221754e-03
         - -1.0343327648435995e-02
         - -3.0839569538190343e-03
         - -7.7497489707960441e-03
         - -6.0112149836296707e-03
         - -8.6943878759824060e-03
         - 1.7763899338897177e-02
         - -1.7589843988751082e-02
         - 2.6284427085777225e-03
         - -8.2093961186701508e-03
         - 4.4421367766410728e-03
         - -6.0741832059064173e-03
         - -2.1885873012182323e-03
         - -1.7527002764496164e-02
         - 2.7196377593681244e-03
         - -1.1696406364047344e-02
         - -5.4900516144640293e-03
         - -1.6554726364572770e-02
         - 1.5169367257168857e-02
         - -1.4845998119877517e-02
         - 6.3138287045677735e-03
         - -1.2076828989296082e-02
         - 7.3232328287527130e-03
         - -4.6864196272174759e-04
         - -1.6578897463813843e-03
         - 1.1282998124099082e-02
         - -2.1253665604979478e-02
         - 2.5854028210144625e-02
         - -1.7665073677429106e-03
         - -1.0784591445784562e-02
         - -1.2179340293529023e-02
         - -4.3942148080447644e-03
         - -5.2767387430051891e-03
         - -2.1854297000777907e-02
         - 1.4022048688937257e-02
         - -2.7672251007008198e-02
         - 1.1081068947729478e-03
         - -1.5870810211409014e-02
         - 1.3968965813810586e-03
         - -1.4362546603991668e-02
         - -4.0283652536019692e-03
         - -3.7447994662617300e-02
         - 6.9615717586269472e-04
         - -2.5593822709366453e-03
         - -1.0804629432312743e-02
         - -4.9406333849438287e-02
         - 2.1577498238690422e-02
         - -2.7526551561816919e-02
         - 7.9712634190830557e-03
         - -1.0243291012056826e-02
         - -1.2865164764277145e-03
         - -8.4655930044934911e-03
         - 5.1598858430318304e-03
         - 1.2130109011339350e-02
         - -3.4292128152177768e-02
         - 3.9526202860174019e-02
         - 6.0982670511529058e-03
         - -1.9816363082534323e-02
         - -1.6574675634918230e-03
         - 1.4952825384415468e-02
         - -2.5612703053380088e-03
         - -1.1297089462656371e-02
         - -2.3425163934149601e-03
         - -3.1640076979611007e-02
         - 4.5634844079221575e-03
         - -2.6448191164691354e-02
         - 2.2819491434417100e-03
         - -3.4417040082396828e-02
         - -4.2372720179667108e-03
         - -3.1933553496051093e-02
         - -5.0832690909108809e-03
         - 2.1827381954445137e-02
         - -1.5099226081410025e-03
         - -6.2581538152531285e-02
         - 2.0825519472216690e-02
         - -3.0617647104621094e-02
         - 8.3660130723218189e-03
         - -1.1579663265272605e-02
         - -2.6944151978359473e-02
         - -1.3024226933999610e-02
         - 7.1977330927446266e-03
         - 1.2730444104231194e-02
         - -3.1926910208087855e-02
         - 2.9857304243589969e-02
         - 1.0303775738382924e-02
         - -1.4776947733459252e-02
         - 4.8753108340053924e-03
         - 2.8969273198798273e-02
         - 4.1029069038011649e-03
         - -7.6744796943448166e-03
         - -8.1319807266010281e-03
         - -2.9922018755553302e-02
         - 1.2921101224950225e-04
         - -2.9108425483495369e-02
         - 4.0562392922737934e-03
         - -3.8100813090068873e-02
         - 3.2100544022824299e-04
         - -1.1378654344872823e-02
         - -9.5995337474089910e-03
         - 2.6339378818539268e-02
         - 5.5834391478694094e-03
         - -4.6715239033859879e-02
         - 4.4155506430680050e-03
         - -1.6346056811709742e-02
         - 4.0415624044933887e-03
         - -8.1404046471210273e-03
         - -2.5109685428232137e-02
         - -7.9664540226661203e-03
         - 4.4440511243211420e-03
         - 2.0849121228741505e-03
         - -3.2206815709408115e-03
         - 7.7646475745143991e-03
         - 1.5945417477622997e-02
         - 3.7284209932398221e-03
         - -9.4143659226942223e-04
         - 4.0994915421352217e-02
         - 1.9681360099797811e-02
         - -4.2550024850369489e-03
         - -2.3822191232295422e-02
         - 2.6830630955666595e-04
         - 1.9815323615669719e-02
         - -1.8614553251240104e-02
         - 1.8396253427888712e-02
         - -2.4342782234062766e-02
         - 8.6637817264393745e-03
         - 4.2872661895749535e-03
         - -1.2784509223571836e-02
         - 2.7664782194366359e-02
         - 1.0372459448991225e-02
         - -1.5640882160828352e-02
         - -1.8870724854229321e-02
         - 1.4927514163093508e-03
         - 5.2488934753428182e-03
         - -1.0051524434312471e-02
         - -2.3569684522856901e-02
         - 2.7714662980151835e-03
         - -1.8677128932502384e-03
         - 1.0286907909874344e-02
         - 7.9319069341533214e-03
         - -7.0766975986173543e-03
         - 7.6743133017725543e-03
         - 6.2026001470993760e-03
         - -1.8805820274576897e-02
         - 3.0196294967831178e-02
         - 1.6289561133764507e-02
         - 3.7780231072697501e-03
         - -1.8307736278437108e-02
         - 2.1036738311216632e-02
         - 2.2558420078993936e-02
         - -8.2732837178089436e-03
         - 1.6330345671061813e-02
         - -2.0117364350900276e-02
         - 1.8260581872195376e-03
         - 7.0888371028896939e-03
         - -1.0973641390278479e-02
         - 1.4448084183140702e-02
         - 1.1416776398594662e-02
         - -1.2633292749817161e-03
         - -1.5871285010235967e-02
         - -1.5809320426080967e-02
         - -2.9832210734187345e-03
         - -9.3823181942515356e-03
         - -8.2952677831949415e-03
         - 1.3053490379570955e-02
         - 5.6124883715504750e-03
         - 7.4071371656912284e-03
         - -4.6839977738818888e-03
         - -2.3060663318389539e-02
         - 1.2579394483314575e-03
         - 2.9107262114356531e-04
         - -8.9320285456677990e-03
         - 1.6155741514253846e-02
         - 3.3483920378609457e-03
         - 1.2988018676379838e-02
         - -1.2411692735500581e-02
         - 7.7553339858136804e-03
         - 1.7147204164302729e-03
         - -1.3369027438358226e-03
         - 1.7049854116260792e-02
         - -9.8393850211757252e-03
         - -3.6721740979671663e-03
         - -4.1932348845179560e-03
         - -9.7704828705858764e-03
         - 6.0888926716362295e-03
         - 1.7558064418115665e-02
         - 8.9274825274978532e-03
         - -2.5713614400171641e-03
         - -6.3452645118590532e-03
         - -1.3739134420709108e-02
         - 4.2852586070211991e-03
         - -4.3076118772381357e-03
         - 9.7777010038000954e-03
         - 7.9337164918258842e-03
         - 5.7009401572237772e-03
         - -1.9333308264989729e-02
         - -2.1647457555972045e-02
         - 2.2141831495789952e-03
         - -1.0039228853482276e-03
         - -7.6268497445467617e-03
         - -7.0024133373640385e-03
         - -1.7053732478202188e-02
         - 1.7466963370235886e-02
         - 6.1161169376260857e-03
         - -6.7955520656413334e-03
         - -1.3855176388376829e-02
         - 1.0684053199019921e-02
         - 4.4260884649425670e-03
         - 7.4546236386417606e-03
         - -2.3711269966429811e-03
         - -1.3980053304627923e-02
         - -9.2300372907697294e-03
         - 7.6212006904605037e-04
         - 1.5564142753421021e-02
         - 5.6670850785798489e-03
         - 1.0213231222324421e-02
         - -1.2110666192689926e-02
         - -2.5369504613969331e-02
         - 2.8238049621318413e-03
         - 3.3382054448535497e-03
         - 5.5537239932963211e-03
         - -2.2192083360004968e-03
         - 9.7541604410111577e-03
         - -5.8477009754100192e-03
         - -1.4321016514361001e-02
         - 2.6778797145440630e-04
         - -3.7296401535780637e-03
         - -1.0141511661680060e-02
         - -4.5206479833776788e-03
         - -1.7453491267849387e-02
         - 1.3116987317726427e-02
         - 1.4827804094955531e-02
         - -1.2410419741930486e-02
         - -5.0712939272593528e-03
         - 4.8263549879630488e-03
         - 4.0648282041418366e-03
         - 9.8925970940376712e-03
         - 6.9618449843409126e-03
         - -1.0380547912355109e-02
         - -5.5620276637964204e-03
         - -2.3905213285882959e-03
         - 1.0223796214196813e-02
         - 6.5020860444732660e-03
         - 6.0722420088366756e-03
         - -5.7295833463574079e-03
         - -2.3135101727236589e-02
         - 4.5392974394998595e-03
         - 5.9887348659983814e-03
         - 4.3115225819962827e-03
         - 2.2236262803080396e-03
         - 1.8690216494979126e-02
         - 1.0164010163515071e-02
         - -1.0368618486373115e-02
         - -1.4551005122139180e-02
         - 4.0683479244208063e-03
         - 1.0147956146050498e-02
         - 1.8490811019475251e-02
         - -1.1282789627061005e-02
         - 4.8411753990504963e-03
         - 4.7162914904461659e-02
         - -3.7977042382226822e-02
         - 2.1781445386853986e-02
         - -1.1661038779386675e-02
         - -1.5841008912928521e-02
         - -1.1623518853206085e-02
         - 9.0106480297829899e-03
         - 9.2934187054915570e-03
         - -1.8583473532911544e-02
         - -3.6076555262496215e-02
         - -1.7619556321661425e-02
         - -8.2034663861298256e-03
         - 7.4307228589347235e-03
         - 4.0361606273648834e-02
         - -1.1730581746129953e-02
         - 1.9577811573956674e-02
         - -2.4116246832664268e-02
         - 2.9140140185181677e-02
         - -5.6478925796950201e-03
         - 3.2807018393395966e-04
         - -4.5997236001021298e-02
         - -3.1196917092401707e-04
         - -7.4320030111871757e-03
         - -5.4155476431297464e-02
         - -6.6446332101291576e-03
         - 2.6925615540621815e-02
         - 3.9987896666104060e-04
         - 7.7816141014926572e-03
         - 3.8103985418196290e-02
         - -2.9831318922552048e-02
         - 2.1236937420059540e-02
         - 2.9525083794076704e-02
         - -4.4540814369986817e-02
         - -2.1639462927099191e-02
         - -9.3108276324530819e-03
         - 1.8818046512857012e-02
         - 2.9192569790055418e-02
         - -3.5197796014220191e-02
         - -1.2132472248073982e-02
         - 2.5583752523856999e-03
         - -1.5534518260537559e-02
         - 6.1152452774898385e-02
         - 3.5652390508368547e-03
         - 4.6024486044795997e-02
         - -2.8741583310670681e-02
         - 3.8984531008519063e-02
         - 5.7648141520406836e-02
         - -6.4268607077825890e-02
         - -7.8379327070085339e-02
         - -5.0530658231965619e-03
         - 1.3741016383911311e-02
         - -7.4144933564293525e-02
         - 2.8884635464662439e-02
         - -3.1098301524297215e-02
         - -2.8887790999107984e-02
         - 1.8025242177015389e-02
         - 3.9920563936056232e-02
         - 4.2269078090517434e-03
         - 5.0711827685741298e-02
         - 4.4607772309422075e-02
         - -2.0196956739915048e-02
         - 9.0949975801864324e-03
         - -1.3441225114456556e-02
         - 2.9329834726817588e-02
         - 2.6988508709753108e-02
         - -1.3531082529246129e-02
         - -8.4473754779197763e-05
         - 3.8244617639198467e-02
         - -1.6134668050665272e-02
         - 9.7061644109416645e-02
         - 9.3676959114828203e-03
         - 4.5814381131844634e-02
         - -5.9467454864222211e-02
         - 5.0683257015368820e-02
         - 5.2604465466817178e-02
         - -8.6480149098326770e-02
         - -5.2136181964018431e-02
         - -3.5911158635250899e-02
         - 4.0052055340575043e-02
         - -5.1216071911305019e-02
         - 2.1946107656378850e-02
         - -7.4728410019587799e-02
         - -1.9448086240433669e-02
         - 1.6372202206849980e-02
         - 1.8449961595140275e-02
         - 2.6214925519545174e-02
         - 7.7335017284062085e-02
         - 8.8378908260786579e-03
         - 4.9686660001709440e-03
         - 3.6138247812379835e-02
         - -1.7140187214564537e-02
         - 9.7273400966184950e-04
         - 2.1680399086817362e-02
         - -1.1619080244451562e-02
         - 4.9490016738266852e-03
         - 2.0826191025306289e-02
         - 2.3344873935926653e-05
         - 6.9849009075367813e-02
         - -1.2577787410435028e-02
         - 2.9760996025282850e-02
         - -4.9907809885200910e-02
         - 5.3531971671128074e-02
         - 4.3328481030243900e-02
         - -6.0528130454829972e-02
         - -2.1514938534022924e-02
         - -4.9707349942696176e-02
         - 5.1881503063580706e-02
         - -1.3451982836420781e-02
         - 2.5477292338347363e-02
         - -7.2304523191281431e-02
         - 3.8468962315948829e-03
         - 2.6696511021246920e-02
         - -6.5041127430102812e-03
         - 7.4321151861049079e-03
         - 6.6241623343298653e-02
         - -2.9526360517776511e-02
         - 3.1297867250793268e-02
         - 1.6158325830654473e-02
         - 3.1356177661560933e-03
         - -3.7405965559111326e-02
         - -1.9707490139654636e-02
         - 2.7226366078945640e-02
         - 1.1952907850145725e-02
         - -1.9712759124438310e-02
         - 3.2511621730620027e-02
         - 1.2706441006738914e-02
         - -2.8052274745660615e-02
         - 1.1667955752462791e-02
         - -4.3420333079590652e-02
         - 3.0878560204969523e-02
         - 6.3269537663196082e-03
         - -4.4134393435869425e-02
         - 1.0718505741902489e-02
         - -6.5015332579628188e-02
         - 4.8311095520373458e-02
         - 1.8243641142837708e-02
         - 2.5848285226306278e-02
         - -5.6775969795082863e-02
         - 1.8915634226009292e-02
         - 2.1693660131005040e-02
         - -2.6920285203069553e-02
         - 1.0260377245148876e-02
         - 8.1625525653076986e-02
         - -6.9649061553521227e-02
         - 4.8697505970235373e-02
         - -1.3596695078048244e-02
         - 2.1652282751208916e-02
         - -2.5490320083140016e-02
         - -4.1520587741237409e-02
         - 5.0901031247485455e-02
         - 8.8925020027310203e-03
         - -4.8147628249518237e-02
         - 4.5321971894901267e-02
         - -4.3377503870425270e-03
         - -2.5324432925164765e-02
         - -4.0710166759854952e-03
         - -3.9979568791178477e-02
         - 1.7080457368910427e-02
         - -3.3622498732133643e-03
         - -5.4695095163196178e-02
         - 2.7195804482603645e-02
         - -7.9665863098399764e-02
         - 3.2612882855150863e-02
         - 3.6654001525360504e-02
         - 2.7113656841157206e-02
         - -6.8984760761193378e-02
         - 2.5656705479523246e-02
         - -8.2617512403602364e-03
         - -8.1791424222548929e-03
         - -1.3829824528547814e-02
         - 4.9827117150367820e-02
         - -1.1019460999355288e-01
         - 3.4228204320920719e-02
         - -2.0402483640631269e-02
         - 9.3925657569800085e-03
         - -2.8026288265261490e-02
         - -3.1460232825565558e-02
         - 1.8119980208831311e-02
         - 7.8442992802468161e-03
         - -5.0363513284335915e-02
         - 4.4540084519249151e-02
         - -1.8496592589613146e-02
         - -4.0013371860531777e-02
         - -3.6879153493524254e-02
         - 1.9059449300987370e-02
         - 2.4745147263943654e-02
         - -2.7213176917432413e-02
         - -6.7055731341628969e-02
         - -2.2428465982552832e-02
         - -6.0579700999147681e-02
         - 3.8874445489552927e-02
         - 3.0438995585986447e-02
         - 4.2511183112542407e-02
         - -4.7353178931437083e-02
         - 1.5131080999422701e-02
         - -3.0149068703415299e-02
         - 1.0088351358294220e-02
         - -3.9381591866447060e-02
         - 1.1402309851163034e-02
         - -1.2030989703131513e-01
         - -2.2923124549605232e-03
         - -4.2953443737393418e-02
         - 1.8266254370970878e-02
         - -2.4618895029747533e-02
         - -3.1422185083715484e-02
         - 2.2840426173525896e-02
         - 5.1807142168773036e-04
         - -8.5929014783595478e-02
         - 2.4702347394526678e-02
         - -2.4233810539034905e-02
         - -4.1671366799082808e-02
         - -4.4484123723639801e-02
         - 3.1116124384711945e-02
         - 3.5800479760824171e-02
         - -4.6903377320821997e-02
         - -5.2472396920116730e-02
         - -6.4064264587657696e-02
         - -4.8938429036933524e-02
         - 2.7184508371521351e-02
         - 3.1204864901867798e-02
         - 6.1621076815652279e-02
         - -1.4817758626258785e-02
         - 8.3216791468564751e-03
         - -2.1713241792726372e-02
         - 1.0273797625147592e-03
         - -4.1253548851722034e-02
         - -9.4554766640860613e-03
         - -9.7869389509971372e-02
         - -2.5409035097765195e-02
         - -9.0186710157416056e-02
         - 2.5526496376264692e-02
         - -8.4405586510845863e-03
         - -3.3151402435256411e-02
         - 2.9738941107711529e-02
         - 1.5582659596720184e-02
         - -9.0959296927725128e-02
         - 2.8216851763183344e-02
         - -4.8845356860004630e-02
         - -1.0025545105414771e-02
         - -4.9433242543057115e-02
         - 4.0693327911387286e-02
         - 3.8289629717751475e-02
         - -5.9114824258611337e-02
         - -1.8050684421618595e-02
         - -7.8629987757371816e-02
         - -3.3165097519590743e-02
         - 2.4327489831584025e-02
         - 1.2527072099365235e-02
         - 8.5264919756156979e-02
         - 2.8157011541912378e-03
         - -2.0942492872890232e-02
         - -1.3207211465135287e-04
         - 2.2574700776448360e-02
         - -2.7499524500294262e-02
         - -2.1004497999228024e-02
         - -6.0360069472888640e-02
         - 4.2521069842175949e-03
         - -5.8880867590426142e-02
         - 2.3526065121385532e-02
         - -1.1026040752330296e-02
         - -3.0222330232984814e-02
         - 4.0044084188367648e-03
         - 1.8329183306539060e-02
         - -3.8834665603012956e-02
         - 1.3841377539266086e-03
         - -3.6817912401101514e-02
         - 4.5402641720901351e-03
         - -3.6257946976843244e-02
         - 4.4920495069266431e-02
         - 4.7874992387552363e-02
         - -7.8876227751422195e-02
         - -3.7855809464944767e-02
         - -8.7002789243595460e-02
         - -5.0612135894645156e-03
         - 1.9327156053872127e-02
         - 4.0791766530092867e-03
         - 7.9017968804166200e-02
         - 1.5103094559291024e-02
         - -3.1000950239351757e-02
         - -1.4978745942766699e-04
         - 3.5774652047158295e-02
         - -3.0558379927514536e-03
         - -3.1791683541490548e-02
         - -4.0017156578332692e-02
         - 1.8243511237499288e-02
         - -9.8049952608278302e-03
         - 7.3812617148868711e-03
         - -8.3243947240618406e-03
         - -3.1232587171967672e-02
         - -9.6147150079567145e-03
         - 9.2566179143216895e-03
         - -2.1072496234462234e-02
         - -4.3346869682152699e-02
         - -2.6400832002257936e-02
         - 1.3859815423370763e-02
         - -2.4942945644201540e-02
         - 3.0039199488658415e-02
         - 4.4525336177973447e-02
         - -8.6186236210956557e-02
         - -5.3617082061776324e-02
         - -6.5828778543447528e-02
         - 1.5598890395402886e-02
         - -2.9282283856061153e-03
         - -1.2215768827844637e-02
         - 4.8780890554833187e-02
         - 3.9044237078406353e-02
         - -1.0828014011126064e-02
         - -1.2372251521025697e-02
         - 2.3597067688666269e-02
         - 4.2148798445520032e-02
         - -6.2351883660665859e-03
         - -7.7552659478717697e-03
         - 1.4933043312686205e-02
         - 1.3428641004303231e-02
         - -6.3316463058866153e-03
         - 4.3253035899901038e-02
         - 1.9171918279228845e-03
         - -5.4723463580666244e-03
         - 7.5151091064060756e-03
         - 2.4025094013124695e-03
         - -6.9160571189026201e-02
         - -6.0137782457058281e-03
         - 4.2475628419817307e-02
         - -5.8134646461968070e-03
         - 2.3837358668699619e-02
         - 3.1960928836165657e-02
         - -6.3053716632473306e-02
         - -4.6296079440802669e-02
         - -2.0604435718284561e-02
         - 4.4895927972601814e-02
         - -5.0141166767181833e-02
         - -2.3053810934987928e-02
         - 3.1984170513592557e-02
         - 5.5991419708759246e-02
         - -2.2661697357274830e-03
         - -1.8251925300896952e-02
         - 3.0892048330535264e-02
         - 9.1321193897893380e-02
         - 6.0883272798881467e-03
         - 3.1209025399129214e-02
         - 5.0901762958707013e-03
         - 4.8212937941762110e-02
         - -1.7049264671766165e-02
         - 8.6998490406382883e-02
         - 3.4932530207615831e-02
         - -1.5367254222380305e-02
         - -5.3515162540966549e-03
         - 2.2576653611930439e-02
         - -6.9553955678327617e-02
         - 1.3303718127307443e-02
         - 6.8807857341836268e-02
         - 1.3834744352987430e-02
         - 2.8129240619001853e-02
         - 4.9155316719335651e-03
         - -4.4387362148270694e-02
         - -3.3368156756582903e-02
         - -2.8579270423845098e-02
         - 5.1742751094284521e-02
         - -7.3738674447266075e-02
         - -5.4307154135314631e-02
         - 4.3223210834102556e-02
         - 4.0339494806700030e-02
         - -3.2737135656073890e-02
         - -4.9540198868544003e-03
         - 5.0048714630085304e-02
         - 9.2681178002402831e-02
         - -2.2044613608550083e-02
         - 7.3237591991199308e-02
         - -2.0423039280672659e-02
         - 7.6052284271162451e-02
         - -3.5046450043911964e-02
         - 8.2179445973444662e-02
         - 5.4977312025976111e-02
         - -3.4325679140177597e-02
         - -2.9955436445866235e-03
         - 5.2844351717636809e-02
         - -4.4743437382960695e-02
         - 2.3667364467930919e-02
         - 6.6315362821255108e-02
         - 2.4874765877673524e-02
         - 3.2910808088736060e-02
         - 4.7241592565960781e-03
         - -3.4464863742730611e-02
         - -2.4036279630273393e-02
         - -3.3976202041090302e-02
         - 5.5159116753747801e-02
         - -8.5749573714287736e-02
         - -6.5152926082987936e-02
         - 5.5090768627128264e-02
         - 2.3177180254753876e-02
         - -5.8011867720361106e-02
         - 8.1964654318917255e-03
         - 6.5228643976014258e-02
         - 7.9861341952795650e-02
         - -2.2887455736373997e-02
         - 8.4596480898717866e-02
         - -2.7846895822164142e-02
         - 7.4357511847369953e-02
         - -3.3948893143462687e-02
         - 7.4965470488843375e-02
         - 4.7822609565108025e-02
         - -3.1177306974631429e-02
         - 2.8290652494671448e-03
         - 5.5424512152037350e-02
         - -9.4404292979217742e-03
         - 3.0322620756605839e-02
         - 7.0717583137326165e-02
         - 1.6620784177890143e-02
         - 1.8726959746043301e-02
         - -4.2124159574572103e-04
         - -2.9396586294583051e-02
         - -2.5444625834432896e-02
         - -2.1331935895294727e-02
         - 4.8696107605345033e-02
         - -9.2060326064257236e-02
         - -5.1421178887700807e-02
         - 5.6373843897792070e-02
         - 9.3325491573029318e-03
         - -7.8959444871157511e-02
         - 1.3836842939356499e-02
         - 6.7352548589158706e-02
         - 4.9812054479028527e-02
         - -5.6021217033425360e-03
         - 6.9150241590888173e-02
         - -2.6186306184815870e-02
         - 5.7682831165960187e-02
         - -3.2990747214646531e-02
         - 8.3811448584707765e-02
         - 3.1457245146671593e-02
         - -3.4153089737171544e-02
         - -2.0766984147063106e-05
         - 4.8775621246478947e-02
         - 1.3016653805828022e-02
         - 4.0416758409893352e-02
         - 7.2370330120858029e-02
         - 5.1864062291346472e-03
         - 4.5844899286202013e-03
         - -8.8250246923344544e-03
         - -1.2292371391586454e-02
         - -3.1455519160917163e-02
         - 6.6949739241923528e-03
         - 4.7802514673234681e-02
         - -7.2827359309320369e-02
         - -4.1411474286907668e-02
         - 3.2545083391415736e-02
         - 1.2378086405012862e-02
         - -4.9557747867352418e-02
         - 4.3946437111417550e-03
         - 6.3466999074550987e-02
         - 5.8303976425611644e-02
         - 2.8697040869684484e-02
         - 4.8160724033819317e-02
         - -6.0882401420019319e-03
         - 4.5670047679393477e-02
         - -2.7063116394409621e-02
         - 8.9569351141561962e-02
         - 1.7897301116174210e-02
         - -1.9247114389523739e-02
         - -1.5211480288456106e-02
         - 2.7462009506852240e-02
         - -5.1410364887183521e-03
         - 5.9651165130953046e-02
         - 8.0038516252990174e-02
         - -1.1045890261217913e-02
         - -1.6219299051143509e-02
         - -3.2793129465295763e-04
         - -1.3521942718620195e-02
         - -2.8261503518193960e-02
         - -5.4123182021247017e-03
         - 3.0440785660499230e-02
         - -3.7977110049203233e-02
         - -4.0158192177805516e-02
         - 3.1778603628403138e-02
         - 1.2569233568792628e-02
         - -3.4277246316678382e-02
         - 4.8636040094089507e-03
         - 5.4639793260224626e-02
         - 3.7462360619936588e-02
         - 1.4192899968866924e-02
         - 4.2687964070119280e-02
         - -1.2190921644793783e-02
         - 3.2297699100359935e-02
         - -2.2281841164336205e-02
         - 7.0152161636689386e-02
         - 1.9900194680721264e-02
         - -1.0833655882347836e-02
         - -8.2694126647517418e-03
         - 2.9432431398035808e-02
         - -1.3062986060808666e-02
         - 4.1144001871500933e-02
         - 6.2297994768783914e-02
         - -2.1360078100456582e-02
         - -1.9038973662126662e-04
         - 2.0983968889938271e-02
         - -1.6910836951140845e-02
         - 4.0473240949750267e-03
         - -1.8027743701273642e-02
         - 3.8226725748186453e-02
         - -1.5601247712713630e-02
         - -2.6605626847189957e-02
         - 2.7867470258692888e-02
         - 2.0685864248649839e-02
         - -1.5941191647067438e-02
         - -7.4225679923201060e-03
         - 5.1796583727364801e-02
         - 7.3413053290939051e-03
         - -1.3557084541656538e-02
         - 2.0471693310084079e-02
         - -2.7469481340761406e-02
         - -1.7495655681173720e-02
         - -8.6926845464878142e-03
         - 1.0816384492653527e-02
         - -2.9066283399743881e-03
         - 1.6075975407895565e-03
         - -2.1127890808492564e-02
         - -1.7225678325679467e-02
         - 1.0187142786753997e-02
         - -2.3229519645522972e-02
         - 4.4568033237508985e-02
         - -3.2997681042975999e-02
         - 5.4625867097656726e-03
         - 3.0876844540635495e-02
         - -1.7518356008400973e-02
         - 3.4915992914812795e-02
         - -3.0392070610612113e-02
         - 6.3852460529231353e-02
         - 8.3645971570623281e-03
         - -3.0534031403962977e-02
         - 3.0766824636965191e-02
         - 3.5162447440604649e-02
         - -1.2841435092239907e-02
         - -1.7240738280539999e-02
         - 4.6784719525176356e-02
         - -2.5354104174791149e-02
         - -3.2286943352961638e-02
         - 1.1594242754047700e-02
         - -4.0762126222212834e-02
         - -4.7737338738419434e-02
         - 6.6671057838508293e-03
         - -1.1498524528204431e-02
