%YAML:1.0
---
opencv_ml_ann_mlp:
   format: 3
   layer_sizes: [ 784, 28, 28, 33 ]
   activation_function: SIGMOID_SYM
   f_param1: 6.6666666666666663e-01
   f_param2: 1.
   min_val: -9.4999999999999996e-01
   max_val: 9.4999999999999996e-01
   min_val1: -9.7999999999999998e-01
   max_val1: 9.7999999999999998e-01
   training_params:
      train_method: BACKPROP
      dw_scale: 1.0000000000000000e-03
      moment_scale: 0.
      term_criteria:
         epsilon: 1.0000000000000001e-01
         iterations: 10000
   input_scale:
      - 3.0253927602865525e-02
      - -1.3187609467915740e-01
      - 2.6696635703375691e-02
      - -1.5020802121521074e-01
      - 2.0667929092790353e-02
      - -1.9711393731067287e-01
      - 1.8488318872295045e-02
      - -2.2262302857410737e-01
      - 1.7839015183779481e-02
      - -2.3162496528857154e-01
      - 1.8813071320526124e-02
      - -2.1839105432729317e-01
      - 2.0700204705329902e-02
      - -1.9678181505203138e-01
      - 2.1941129077250734e-02
      - -1.8483775313759596e-01
      - 2.2852842856984308e-02
      - -1.7697550701303449e-01
      - 2.3869504915629065e-02
      - -1.6898341996098190e-01
      - 2.5311055712548748e-02
      - -1.5884425034370928e-01
      - 2.5684036982671687e-02
      - -1.5642087625926074e-01
      - 2.3869504915629065e-02
      - -1.6898341996098190e-01
      - 2.0508909098803745e-02
      - -1.9876746870717324e-01
      - 1.9362615530254285e-02
      - -2.1160145122579216e-01
      - 2.0667929092790353e-02
      - -1.9711393731067287e-01
      - 2.3403151744841953e-02
      - -1.7255515320869558e-01
      - 2.4781831133667713e-02
      - -1.6241811130339778e-01
      - 2.4753428911316683e-02
      - -1.6261458800169395e-01
      - 2.2613797203529167e-02
      - -1.7896934975406245e-01
      - 2.0964288926486004e-02
      - -1.9410743238625838e-01
      - 1.9995916645037252e-02
      - -2.0430452385914127e-01
      - 1.9966995012967906e-02
      - -2.0462629640949379e-01
      - 1.9375710044378304e-02
      - -2.1144505542155700e-01
      - 1.8398793083325905e-02
      - -2.2382019700110684e-01
      - 1.8421043595949638e-02
      - -2.2352139187847603e-01
      - 2.0864012221565760e-02
      - -1.9511398954246575e-01
      - 2.5909649694639440e-02
      - -1.5499143966269582e-01
      - 2.4205843046546417e-02
      - -1.6650045703502786e-01
      - 1.0967190257190859e-02
      - -4.2092750313355459e-01
      - 8.2261117486614761e-03
      - -7.3253383008606932e-01
      - 7.8812767347537453e-03
      - -9.0612467539795605e-01
      - 7.8754554698969061e-03
      - -9.1324635197111470e-01
      - 7.9336628515443031e-03
      - -8.5916995175907407e-01
      - 8.1489550826705590e-03
      - -7.5702740570690219e-01
      - 8.5953370745790684e-03
      - -6.4756541127975309e-01
      - 8.8623482586731635e-03
      - -6.0384518013450827e-01
      - 8.6832116148476569e-03
      - -6.3203958847372210e-01
      - 8.4522206906512774e-03
      - -6.7597783916012466e-01
      - 8.1780949795056523e-03
      - -7.4734611549394081e-01
      - 7.9308691573097417e-03
      - -8.6119662585171486e-01
      - 7.8469618186332944e-03
      - -9.6925461190750783e-01
      - 7.8432140444248122e-03
      - -9.9558470036177615e-01
      - 7.8445493235751763e-03
      - -9.8120347622139992e-01
      - 7.8786694503706865e-03
      - -9.0923484631746532e-01
      - 7.9223478532605193e-03
      - -8.6761882813780977e-01
      - 7.9047065396335749e-03
      - -8.8230411046171919e-01
      - 7.8939618610012353e-03
      - -8.9245265491286752e-01
      - 7.9150667649081768e-03
      - -8.7342812128528002e-01
      - 7.9127208967304085e-03
      - -8.7537082995480275e-01
      - 7.8771323868028643e-03
      - -9.1112737593887905e-01
      - 7.8735677105158282e-03
      - -9.1570494518699630e-01
      - 7.9151982776894496e-03
      - -8.7332028569240217e-01
      - 8.0949884585551999e-03
      - -7.7666401814719599e-01
      - 8.8282975792421999e-03
      - -6.0889405762487525e-01
      - 1.1711188643171760e-02
      - -3.8431397465058376e-01
      - 2.2444787838837098e-02
      - -1.8040727813722490e-01
      - 8.9651062742776306e-03
      - -5.8936729290466172e-01
      - 7.8438411255866008e-03
      - -1.0134873208485478e+00
      - 7.9597077057550671e-03
      - -1.1879129153337951e+00
      - 7.9804415385452323e-03
      - -1.2054399619469796e+00
      - 7.8933050576071116e-03
      - -1.1196823319987526e+00
      - 7.8614381740713373e-03
      - -1.0706867064735619e+00
      - 7.8579071566643333e-03
      - -9.4048388519629278e-01
      - 7.9076523590452651e-03
      - -8.7969936213568756e-01
      - 7.8547051924372328e-03
      - -9.4714260638793291e-01
      - 7.8431569816254636e-03
      - -9.9775967748610528e-01
      - 7.8580245951041326e-03
      - -1.0635412593475544e+00
      - 7.9634679424434966e-03
      - -1.1911821674335672e+00
      - 8.0996704222852239e-03
      - -1.2905563248950478e+00
      - 8.0913808911843420e-03
      - -1.2852332338995953e+00
      - 8.0552677588138309e-03
      - -1.2611935999212855e+00
      - 7.9124627406459234e-03
      - -1.1420911167726657e+00
      - 7.8911474218486127e-03
      - -1.1169367412363627e+00
      - 7.9583561187709477e-03
      - -1.1867270823079801e+00
      - 8.0333874589655092e-03
      - -1.2458470616372215e+00
      - 8.1358102833001475e-03
      - -1.3130404781368670e+00
      - 8.3696930985288822e-03
      - -1.4396663589809964e+00
      - 8.5303125583337074e-03
      - -1.5152900369579072e+00
      - 8.2344369192580667e-03
      - -1.3696882948702609e+00
      - 7.9272631994524809e-03
      - -1.1575836902790224e+00
      - 7.8431908733197359e-03
      - -1.0037045036221490e+00
      - 8.0078758192396998e-03
      - -8.1497138088367083e-01
      - 9.7192408887547353e-03
      - -5.0733942551602162e-01
      - 2.5311055712548748e-02
      - -1.5884425034370928e-01
      - 9.0824987400385110e-03
      - -5.7406049728704944e-01
      - 7.8677928227662546e-03
      - -1.0824975509751968e+00
      - 8.0659836327136181e-03
      - -1.2684819032068393e+00
      - 8.0674348435354013e-03
      - -1.2694583324442958e+00
      - 8.0020113722345104e-03
      - -1.2225513428385346e+00
      - 7.9994200504698351e-03
      - -1.2205479909157952e+00
      - 7.9452998108664481e-03
      - -1.1749550972354141e+00
      - 7.8724793748671772e-03
      - -1.0903219297870235e+00
      - 7.8622969961539280e-03
      - -1.0723835677387328e+00
      - 7.8642846164366422e-03
      - -1.0761799409513830e+00
      - 7.8994906019130649e-03
      - -1.1272755528520133e+00
      - 8.0750174132264707e-03
      - -1.2745208653480118e+00
      - 8.1870195626893866e-03
      - -1.3431982504569444e+00
      - 8.1241006421756135e-03
      - -1.3058764173720054e+00
      - 8.0898438566733722e-03
      - -1.2842388060889289e+00
      - 7.9561776830019866e-03
      - -1.1848034811481172e+00
      - 7.9197442343830089e-03
      - -1.1498751401077589e+00
      - 7.9692280408951502e-03
      - -1.1961088131574491e+00
      - 8.1221759023971767e-03
      - -1.3046882011466585e+00
      - 8.5027955452642648e-03
      - -1.5027790439146911e+00
      - 9.1951822886894123e-03
      - -1.7843402561261292e+00
      - 9.5357690282417244e-03
      - -1.9073272147959761e+00
      - 9.0413625633708767e-03
      - -1.7262606623994092e+00
      - 8.1756574813012777e-03
      - -1.3366582979226236e+00
      - 7.8654959334217775e-03
      - -1.0784125584657844e+00
      - 7.9624361052511219e-03
      - -8.4013185172354132e-01
      - 1.0032548580414946e-02
      - -4.8151307221058637e-01
      - 2.8218975802746252e-02
      - -1.4176199428093567e-01
      - 9.6263498768864603e-03
      - -5.1573357651018736e-01
      - 7.8530588706194823e-03
      - -1.0515801354200780e+00
      - 8.0385091797332622e-03
      - -1.2494992010308790e+00
      - 8.0693780406839860e-03
      - -1.2707619559322636e+00
      - 8.2117214056254620e-03
      - -1.3571515999018973e+00
      - 8.2178946532133219e-03
      - -1.3605853643568413e+00
      - 8.0174169455968208e-03
      - -1.2341996191492803e+00
      - 7.8686352210668858e-03
      - -1.0839513643685375e+00
      - 7.8560370824802463e-03
      - -1.0590220855949026e+00
      - 7.8771323868028625e-03
      - -1.0975413826958511e+00
      - 7.9170525946449730e-03
      - -1.1470368044038233e+00
      - 8.0621395986243526e-03
      - -1.2658834685652347e+00
      - 8.0991477718881169e-03
      - -1.2902226658759246e+00
      - 8.0453033444013479e-03
      - -1.2542860538622875e+00
      - 7.9843563901541830e-03
      - -1.2086230552730119e+00
      - 7.8767757596681608e-03
      - -1.0970046764033208e+00
      - 7.8589203378608159e-03
      - -1.0654846652276893e+00
      - 7.9146729766489208e-03
      - -1.1444899225689771e+00
      - 8.0777422367022417e-03
      - -1.2763244039286192e+00
      - 8.3992555723750983e-03
      - -1.4540991643755399e+00
      - 8.7872471870650334e-03
      - -1.6255848005923836e+00
      - 9.1642882138293583e-03
      - -1.7728206391464494e+00
      - 9.1110572181888703e-03
      - -1.7528056995261299e+00
      - 8.3230749739018322e-03
      - -1.4163379256143385e+00
      - 7.8611131559917988e-03
      - -1.0700348805949120e+00
      - 8.0752643814272114e-03
      - -7.8450774943952573e-01
      - 1.0818730474713647e-02
      - -4.2927675867069365e-01
      - 2.8565767968303138e-02
      - -1.3997174357263648e-01
      - 9.9271803792125406e-03
      - -4.8980588843206879e-01
      - 7.8470816532613639e-03
      - -9.6878423331348851e-01
      - 7.9699360352015487e-03
      - -1.1967078532288720e+00
      - 8.1830016601938498e-03
      - -1.3408947173987589e+00
      - 8.3925957897328114e-03
      - -1.4508705694765593e+00
      - 8.1854708944878226e-03
      - -1.3423115404924189e+00
      - 7.8921123252120116e-03
      - -1.1181712372605801e+00
      - 7.8540918243710390e-03
      - -9.4852548663828495e-01
      - 7.8906156257076820e-03
      - -8.9585535561373864e-01
      - 7.8776709225087237e-03
      - -9.1045905918272529e-01
      - 7.8830996994453187e-03
      - -9.0401907928090741e-01
      - 7.8654959334217792e-03
      - -9.2728890455676893e-01
      - 7.8937424382311428e-03
      - -8.9267188082168003e-01
      - 7.9881401146244344e-03
      - -8.2531040638711151e-01
      - 8.1007175508281248e-03
      - -7.7445894424606576e-01
      - 8.2827373819506830e-03
      - -7.1657954096674448e-01
      - 8.2870703680288441e-03
      - -7.1541725413029522e-01
      - 7.9726099492410923e-03
      - -8.3405765622829886e-01
      - 7.8482779915163246e-03
      - -9.6444332656249432e-01
      - 7.8739066395417980e-03
      - -1.0925886691706075e+00
      - 8.0693780406839860e-03
      - -1.2707619559322636e+00
      - 8.4169867460438547e-03
      - -1.4626332105686719e+00
      - 8.5521933197495389e-03
      - -1.5251255897519160e+00
      - 8.1811566951832150e-03
      - -1.3398336408009863e+00
      - 7.8521229094182122e-03
      - -1.0490273424292849e+00
      - 8.2784307052240439e-03
      - -7.1774250139591589e-01
      - 1.1417922765374367e-02
      - -3.9781047874487629e-01
      - 2.9740540054921404e-02
      - -1.3423535263923428e-01
      - 1.0118586952163567e-02
      - -4.7500684283801858e-01
      - 7.8737369362962637e-03
      - -9.1548121203123145e-01
      - 7.9834188971474873e-03
      - -1.2078641305780626e+00
      - 8.3005972068412506e-03
      - -1.4048145661947469e+00
      - 8.3403811234834726e-03
      - -1.4250843243887681e+00
      - 8.1078496010298495e-03
      - -1.2957446530512906e+00
      - 7.8517615721760466e-03
      - -1.0480081287393914e+00
      - 7.8870799798532887e-03
      - -8.9959899428326606e-01
      - 8.0062464530378727e-03
      - -8.1579560148503016e-01
      - 8.1771796824032846e-03
      - -7.4764166481547756e-01
      - 8.3276520895525126e-03
      - -7.0488978752557052e-01
      - 8.3822936385196962e-03
      - -6.9163449583661418e-01
      - 8.5312750933135475e-03
      - -6.5975038912657813e-01
      - 8.7504060938505563e-03
      - -6.2097012584720346e-01
      - 8.9928875009481143e-03
      - -5.8563338398381970e-01
      - 9.5631829427702871e-03
      - -5.2166215155993623e-01
      - 9.4235837047136981e-03
      - -5.3545971347060228e-01
      - 8.5448474943843056e-03
      - -6.5710172471135897e-01
      - 8.1020298919229784e-03
      - -7.7395822917387536e-01
      - 7.8697281349481979e-03
      - -9.2097572200834488e-01
      - 7.8802412037441028e-03
      - -1.1021160038144235e+00
      - 8.1873297952099622e-03
      - -1.3433757030320184e+00
      - 8.3020747496520345e-03
      - -1.4055779418621190e+00
      - 8.0669505178488175e-03
      - -1.2691327334981901e+00
      - 7.8476438410020610e-03
      - -1.0344790084498225e+00
      - 8.3121262688397746e-03
      - -7.0884343574123809e-01
      - 1.1730052770606842e-02
      - -3.8348249442368521e-01
      - 3.0149070865811600e-02
      - -1.3235107668679616e-01
      - 1.0056254408902879e-02
      - -4.7969741662107918e-01
      - 7.8646373412341632e-03
      - -9.2864648030977648e-01
      - 8.0691346248887384e-03
      - -1.2705988954388132e+00
      - 8.3143784974484148e-03
      - -1.4119021248776695e+00
      - 8.2983864671592310e-03
      - -1.4036707882088553e+00
      - 8.0765014505486208e-03
      - -1.2755041466124200e+00
      - 7.8431808440991308e-03
      - -9.9667159958970930e-01
      - 8.0367191592545587e-03
      - -8.0113623530328704e-01
      - 8.4059675648900205e-03
      - -6.8618162399811911e-01
      - 8.6743863394198803e-03
      - -6.3354253747399691e-01
      - 8.8382955787309689e-03
      - -6.0739775998512835e-01
      - 9.0162134025181719e-03
      - -5.8255330458532584e-01
      - 9.2120651859923259e-03
      - -5.5846993472527029e-01
      - 9.5357690282417279e-03
      - -5.2429388740566374e-01
      - 1.0033789906218249e-02
      - -4.8141755389282104e-01
      - 1.0737493831200491e-02
      - -4.3402008389345137e-01
      - 1.0072622134814383e-02
      - -4.7845413070088949e-01
      - 9.3963641018723291e-03
      - -5.3827035019654523e-01
      - 8.5856528830395001e-03
      - -6.4935733084570713e-01
      - 8.0655010726717637e-03
      - -7.8854610187218710e-01
      - 7.8441646978724845e-03
      - -1.0163178800314983e+00
      - 8.0630970858958980e-03
      - -1.2665323458600291e+00
      - 8.1423406101888123e-03
      - -1.3169891675443421e+00
      - 7.9603866501047078e-03
      - -1.1885064276296993e+00
      - 7.8434237465008702e-03
      - -9.9148920692946896e-01
      - 8.2198569464626992e-03
      - -7.3439092885926971e-01
      - 1.1718249137086153e-02
      - -3.8400227214092103e-01
      - 2.9891737418799438e-02
      - -1.3353164751642266e-01
      - 1.0022643191588141e-02
      - -4.8227705068379340e-01
      - 7.8479057515912203e-03
      - -9.6573197008828970e-01
      - 8.1232748177136604e-03
      - -1.3053669804365982e+00
      - 8.1612526737136794e-03
      - -1.3282479540153052e+00
      - 8.1341204894283294e-03
      - -1.3120133699055632e+00
      - 8.0705973341692206e-03
      - -1.2715777201874674e+00
      - 7.8436629818873903e-03
      - -9.8848839148260970e-01
      - 8.1580043774956371e-03
      - -7.5395893702654038e-01
      - 8.5800860866309808e-03
      - -6.5039517809624625e-01
      - 8.8502675091691740e-03
      - -6.0562127884393790e-01
      - 8.9164251097195949e-03
      - -5.9609034023652774e-01
      - 8.9230863627856125e-03
      - -5.9515639220052607e-01
      - 9.0020322038748858e-03
      - -5.8441998486694569e-01
      - 9.4586650920085065e-03
      - -5.3189725521036380e-01
      - 9.5425851395031566e-03
      - -5.2363612763140166e-01
      - 9.4925362979668693e-03
      - -5.2851970146363270e-01
      - 9.4661379896673111e-03
      - -5.3114691338640641e-01
      - 9.2193545115585845e-03
      - -5.5762927938114992e-01
      - 8.4733062410990313e-03
      - -6.7150836394612701e-01
      - 8.0353826347856726e-03
      - -8.0174823916003435e-01
      - 7.8472648792461703e-03
      - -1.0329734779943867e+00
      - 8.0732927903538719e-03
      - -1.2733751170732002e+00
      - 8.0489797999939040e-03
      - -1.2568498790436018e+00
      - 7.9216582843809839e-03
      - -1.1518673133114408e+00
      - 7.8499073231171751e-03
      - -9.5930464088160994e-01
      - 8.0996704222852239e-03
      - -7.7485963278768433e-01
      - 1.1478232326776160e-02
      - -3.9494386953069960e-01
      - 2.9445067838128915e-02
      - -1.3563258198578021e-01
      - 9.8990013978617550e-03
      - -4.9208783817412061e-01
      - 7.8556567877274067e-03
      - -1.0581208267142777e+00
      - 8.2052897332072008e-03
      - -1.3535519954149693e+00
      - 8.2221541089847593e-03
      - -1.3629427816883011e+00
      - 8.1452060955753934e-03
      - -1.3187116811838182e+00
      - 8.0492108049780488e-03
      - -1.2570103700361748e+00
      - 7.8437194792220239e-03
      - -1.0122591715261136e+00
      - 8.2600698208024400e-03
      - -7.2278990665990583e-01
      - 8.5841317777505879e-03
      - -6.4964034926871872e-01
      - 8.6727390360926710e-03
      - -6.3382439785868749e-01
      - 8.6607301034062698e-03
      - -6.3589194021645412e-01
      - 8.6445547791608110e-03
      - -6.3871296722550230e-01
      - 8.6921040497457639e-03
      - -6.3053714601997346e-01
      - 8.9157607359508107e-03
      - -5.9618373890097709e-01
      - 8.7545115210909477e-03
      - -6.2031421514418561e-01
      - 8.8617096995223920e-03
      - -6.0393864985297496e-01
      - 9.0907113818653549e-03
      - -5.7303387639497871e-01
      - 8.7562751658182454e-03
      - -6.2003313428662254e-01
      - 8.2734393558878804e-03
      - -7.1910014681640144e-01
      - 7.9603866501047095e-03
      - -8.4139216814700135e-01
      - 7.8505141623650652e-03
      - -1.0443225340810456e+00
      - 7.9745898581657735e-03
      - -1.2006115554783494e+00
      - 7.9883307209545722e-03
      - -1.2118177130593009e+00
      - 7.8969719264073823e-03
      - -1.1242306733202434e+00
      - 7.8650645097545248e-03
      - -9.2796748122409245e-01
      - 8.0878029178464064e-03
      - -7.7947505935363681e-01
      - 1.1286613717691131e-02
      - -4.0422661186228037e-01
      - 2.8744164545342326e-02
      - -1.3906864843222996e-01
      - 9.6070792982162825e-03
      - -5.1752265232117078e-01
      - 7.9242954171345401e-03
      - -1.1545780562215613e+00
      - 8.2228119905231340e-03
      - -1.3633060410765314e+00
      - 8.2136641855364047e-03
      - -1.3582344524156791e+00
      - 8.0845069173142731e-03
      - -1.2807673156250390e+00
      - 7.9736878997880810e-03
      - -1.1998595007959887e+00
      - 7.8433482333701201e-03
      - -1.0073617639645660e+00
      - 8.0799850340042903e-03
      - -7.8259334951100656e-01
      - 8.4531082492308451e-03
      - -6.7578749745896793e-01
      - 8.5670433906940534e-03
      - -6.5284952407171182e-01
      - 8.6710940728555556e-03
      - -6.3410627659352037e-01
      - 8.5472902693387136e-03
      - -6.5662898241173662e-01
      - 8.5730430546469491e-03
      - -6.5171652812039715e-01
      - 8.5512108394416014e-03
      - -6.5587273972563820e-01
      - 8.4580051609861994e-03
      - -6.7474086089238605e-01
      - 8.6826580728201087e-03
      - -6.3213350781115307e-01
      - 8.7884537491888619e-03
      - -6.1497600662286378e-01
      - 8.3786156427192379e-03
      - -6.9249662057422812e-01
      - 8.0604696337511304e-03
      - -7.9067065378099610e-01
      - 7.8801477862955917e-03
      - -9.0745655313178453e-01
      - 7.8483125271635937e-03
      - -1.0369934380772003e+00
      - 7.9304322499716973e-03
      - -1.1607432902115786e+00
      - 7.9489682511646557e-03
      - -1.1783235988246716e+00
      - 7.8579071566643333e-03
      - -1.0632824397531122e+00
      - 7.8848668886881603e-03
      - -9.0202791174220609e-01
      - 8.0489797999939022e-03
      - -7.9563996995484365e-01
      - 1.0772724333926098e-02
      - -4.3194726102698039e-01
      - 2.8521699273954457e-02
      - -1.4019667782778486e-01
      - 9.1034904832541560e-03
      - -5.7144723812731146e-01
      - 7.9776814927600293e-03
      - -1.2031733510843909e+00
      - 8.1826937520792092e-03
      - -1.3407177797096503e+00
      - 8.1860898630934376e-03
      - -1.3426661139605709e+00
      - 8.0840020912759224e-03
      - -1.2804374252574782e+00
      - 7.9510720699628844e-03
      - -1.1802331937566020e+00
      - 7.8609839725015014e-03
      - -1.0697742764105789e+00
      - 7.8668157562664914e-03
      - -9.2525569969116161e-01
      - 7.9266936045028387e-03
      - -8.6429645723292547e-01
      - 7.9651982222653777e-03
      - -8.3845335351124095e-01
      - 8.0344944672546947e-03
      - -8.0215638842331982e-01
      - 7.9509094578760521e-03
      - -8.4739575568734438e-01
      - 7.9491293040143303e-03
      - -8.4855762734123519e-01
      - 7.9600469151968854e-03
      - -8.4160234160674108e-01
      - 7.9798871148011822e-03
      - -8.2988504150072750e-01
      - 8.0068564289520402e-03
      - -8.1548646042571826e-01
      - 8.0412113623538981e-03
      - -7.9909812095448673e-01
      - 7.9308691573097417e-03
      - -8.6119662585171486e-01
      - 7.8709249595106529e-03
      - -9.1929082824064601e-01
      - 7.8484168298960742e-03
      - -9.6397512476452218e-01
      - 7.8495557675054718e-03
      - -1.0412830415934200e+00
      - 7.9065393194679857e-03
      - -1.1354920584579105e+00
      - 7.9377121280112799e-03
      - -1.1678209206992118e+00
      - 7.8455488075715209e-03
      - -1.0251074824484772e+00
      - 7.8930870995137271e-03
      - -8.9332980871510426e-01
      - 8.0161557475257449e-03
      - -8.1085769649094752e-01
      - 1.0514267458674271e-02
      - -4.4775024225041776e-01
      - 2.8390739748551566e-02
      - -1.4086949155105100e-01
      - 8.9064927939685058e-03
      - -5.9749139692580133e-01
      - 7.9586932282863388e-03
      - -1.1870233918125959e+00
      - 8.1301997044058456e-03
      - -1.3096215575863124e+00
      - 8.1033460493961321e-03
      - -1.2928955670774112e+00
      - 8.1431985835359599e-03
      - -1.3175055580612887e+00
      - 8.0501362703140154e-03
      - -1.2576526312321186e+00
      - 7.9817398958483502e-03
      - -1.2064997140439329e+00
      - 7.9211088963766392e-03
      - -1.1512976706625768e+00
      - 7.9371063483513835e-03
      - -1.1672410497996510e+00
      - 7.9410806166754916e-03
      - -1.1710169616406902e+00
      - 7.8679449186074141e-03
      - -1.0827617124714954e+00
      - 7.9047065396335749e-03
      - -1.1333960571448425e+00
      - 7.8794972299988074e-03
      - -1.1010375834753745e+00
      - 7.8478395785830900e-03
      - -1.0352326517382047e+00
      - 7.8432226904121532e-03
      - -1.0046784591767355e+00
      - 7.8431690857515540e-03
      - -9.9715504402183219e-01
      - 7.8449334290844573e-03
      - -1.0216317424810160e+00
      - 7.8592247862042074e-03
      - -1.0661333554313313e+00
      - 7.8590417650155134e-03
      - -1.0657440879034175e+00
      - 7.8576156121254997e-03
      - -1.0626356999802347e+00
      - 7.8815616797136348e-03
      - -1.1040062766017495e+00
      - 7.9488073281022281e-03
      - -1.1781768766829683e+00
      - 7.9086501591280559e-03
      - -1.1378734011454692e+00
      - 7.8466134289047612e-03
      - -1.0302193907137569e+00
      - 7.8753684078089123e-03
      - -9.1335798852921857e-01
      - 8.0138565936339265e-03
      - -8.1198773368939492e-01
      - 1.0367710696296335e-02
      - -4.5737460225759741e-01
      - 2.7925946240871462e-02
      - -1.4331154808463223e-01
      - 8.8861902845169746e-03
      - -6.0038747178723662e-01
      - 7.9159899809523784e-03
      - -1.1459039688284445e+00
      - 8.0819887776782447e-03
      - -1.2791191240307402e+00
      - 8.0832459759359529e-03
      - -1.2799428261659342e+00
      - 8.1012420296305062e-03
      - -1.2915580787337277e+00
      - 8.0755114981182711e-03
      - -1.2748485013773343e+00
      - 7.9902442386666061e-03
      - -1.2133430712959017e+00
      - 7.9446688093584503e-03
      - -1.1743705701093041e+00
      - 7.9638129427630835e-03
      - -1.1914799718503966e+00
      - 7.9724307570675935e-03
      - -1.1988077003826245e+00
      - 7.8882085098030096e-03
      - -1.1131066950917063e+00
      - 8.0151085868931261e-03
      - -1.2324814546108545e+00
      - 7.9720727721314544e-03
      - -1.1985074161572640e+00
      - 7.9007722309261067e-03
      - -1.1288018198014640e+00
      - 7.8971984438312888e-03
      - -1.1245070604634979e+00
      - 7.9059252995381125e-03
      - -1.1347928529147895e+00
      - 7.9096559039972779e-03
      - -1.1389962036987240e+00
      - 7.8852649131539946e-03
      - -1.1091566485405737e+00
      - 7.8563122311489583e-03
      - -1.0596663656965799e+00
      - 7.8677169526984708e-03
      - -1.0823654982208388e+00
      - 7.8901923787402881e-03
      - -1.1157039079579694e+00
      - 7.9407718205099023e-03
      - -1.1707259389056179e+00
      - 7.9252784796407082e-03
      - -1.1555788163972209e+00
      - 7.8643549251707669e-03
      - -1.0763111244106687e+00
      - 7.8675655682174626e-03
      - -9.2412777123025680e-01
      - 7.9890945010651186e-03
      - -8.2479155931481785e-01
      - 1.0301141471087630e-02
      - -4.6192161659358849e-01
      - 2.7925946240871462e-02
      - -1.4331154808463223e-01
      - 8.9025397717168893e-03
      - -5.9805186707945746e-01
      - 7.8887263300501300e-03
      - -1.1137894590630335e+00
      - 8.0296501819319931e-03
      - -1.2431574793398112e+00
      - 8.0698653150638958e-03
      - -1.2710881692385148e+00
      - 8.1156346745754997e-03
      - -1.3006267550481718e+00
      - 8.0662251333104180e-03
      - -1.2686445648612199e+00
      - 7.9304322499716973e-03
      - -1.1607432902115786e+00
      - 7.9279780446407169e-03
      - -1.1583008038962075e+00
      - 7.9407718205099023e-03
      - -1.1707259389056179e+00
      - 7.9454578843546932e-03
      - -1.1751012889958148e+00
      - 7.9586932282863388e-03
      - -1.1870233918125959e+00
      - 8.0720653632247747e-03
      - -1.2725576549118032e+00
      - 8.0430242773851801e-03
      - -1.2526875018383909e+00
      - 7.9789657593473430e-03
      - -1.2042303768526521e+00
      - 7.9634679424434966e-03
      - -1.1911821674335672e+00
      - 7.9615798631373774e-03
      - -1.1895460322517368e+00
      - 7.8981094171724255e-03
      - -1.1256134479429041e+00
      - 7.8856648724874110e-03
      - -1.1097004737089757e+00
      - 7.8706834540020754e-03
      - -1.0873966794888157e+00
      - 7.8584990397164416e-03
      - -1.0645772457985754e+00
      - 7.8599674406198174e-03
      - -1.0676920310591365e+00
      - 7.9791497621508767e-03
      - -1.2043814841478964e+00
      - 8.0407595672255770e-03
      - -1.2510918882185627e+00
      - 7.8996064989487903e-03
      - -1.1274141986556656e+00
      - 7.8492888386792869e-03
      - -9.6117032647780898e-01
      - 7.9522139982834226e-03
      - -8.4655142999183930e-01
      - 1.0323593963637696e-02
      - -4.6037521908220658e-01
      - 2.8050376492614416e-02
      - -1.4264935053936389e-01
      - 8.8777653643564332e-03
      - -6.0160219774027657e-01
      - 7.8891427713789312e-03
      - -1.1143360365181227e+00
      - 8.0099249774911539e-03
      - -1.2285890656282599e+00
      - 8.0664667810071700e-03
      - -1.2688072571194693e+00
      - 8.1036097393104509e-03
      - -1.2930628994011004e+00
      - 7.9980343226119920e-03
      - -1.2194711579288595e+00
      - 7.8654959334217775e-03
      - -1.0784125584657844e+00
      - 7.8707638368694967e-03
      - -1.0875294462104013e+00
      - 7.8880022311145787e-03
      - -1.1128337317489607e+00
      - 7.8662979353097528e-03
      - -1.0798600321688130e+00
      - 7.8830026690095457e-03
      - -1.1060358782071231e+00
      - 7.9545170095106782e-03
      - -1.1833266220149328e+00
      - 7.9551797106622718e-03
      - -1.1839170706695381e+00
      - 7.9348529190946780e-03
      - -1.1650698799183177e+00
      - 7.9237364464188661e-03
      - -1.1540066935521873e+00
      - 7.8733989621090784e-03
      - -1.0917880119243217e+00
      - 7.8433212566888146e-03
      - -1.0068733511780419e+00
      - 7.8493645235241591e-03
      - -1.0406510200132151e+00
      - 7.8725623775000517e-03
      - -1.0904551144764734e+00
      - 7.8503907025210054e-03
      - -1.0439420718625201e+00
      - 7.8480058804248892e-03
      - -1.0358611362248755e+00
      - 7.9354510192046045e-03
      - -1.1656483429746527e+00
      - 8.0703531800793860e-03
      - -1.2714145057221991e+00
      - 7.9248564088369774e-03
      - -1.1551497825974322e+00
      - 7.8432463229234362e-03
      - -1.0052876656342782e+00
      - 7.9313072097368150e-03
      - -8.6087640194137349e-01
      - 1.0390803832944223e-02
      - -4.5582353311895524e-01
      - 2.7289925792522075e-02
      - -1.4679687305742917e-01
      - 8.8700347573171245e-03
      - -6.0272362018896475e-01
      - 7.8981094171724255e-03
      - -1.1256134479429041e+00
      - 8.0126096116998891e-03
      - -1.2306109426545295e+00
      - 8.0599938174466985e-03
      - -1.2644252712361623e+00
      - 8.0274709041967072e-03
      - -1.2415792469045903e+00
      - 7.8710056993061047e-03
      - -1.0879278599511895e+00
      - 7.8660046418499857e-03
      - -9.2649776441648224e-01
      - 7.9049493023365582e-03
      - -8.8208682781473857e-01
      - 7.9646777523506712e-03
      - -8.3876790503273968e-01
      - 7.9966553013977090e-03
      - -8.2075145519346548e-01
      - 8.0042221705375668e-03
      - -8.1682657854893004e-01
      - 7.8750213552067159e-03
      - -9.1380464659949623e-01
      - 7.8697281349481979e-03
      - -9.2097572200834488e-01
      - 7.8733147668923458e-03
      - -9.1604062943878672e-01
      - 7.9089008501751872e-03
      - -8.7861574556606126e-01
      - 7.9913988625609153e-03
      - -8.2354715010346569e-01
      - 8.1205322036730174e-03
      - -7.6706467452534888e-01
      - 8.0628574942385907e-03
      - -7.8965858012313783e-01
      - 7.9459328806446919e-03
      - -8.5067287618918652e-01
      - 7.9272631994524809e-03
      - -8.6386842558136012e-01
      - 7.8746762152417781e-03
      - -9.1425148381121746e-01
      - 7.8686352210668858e-03
      - -1.0839513643685375e+00
      - 8.0082845433741990e-03
      - -1.2273471551267849e+00
      - 7.9400020806753829e-03
      - -1.1699987972325270e+00
      - 7.8484869449228205e-03
      - -1.0376230680839453e+00
      - 7.8719838618057716e-03
      - -9.1783266283252951e-01
      - 1.0274754627566345e-02
      - -4.6375597355191250e-01
      - 2.7251644200226587e-02
      - -1.4701218861606141e-01
      - 8.9999167992309993e-03
      - -5.8469999565544117e-01
      - 7.9119479243140202e-03
      - -1.1415276165978361e+00
      - 8.1094496756115558e-03
      - -1.2967524706323208e+00
      - 8.1227250482060320e-03
      - -1.3050275237024092e+00
      - 8.0453033444013479e-03
      - -1.2542860538622875e+00
      - 7.9024249318894717e-03
      - -1.1307480533792638e+00
      - 7.8635880227054134e-03
      - -9.3034583227712586e-01
      - 8.0633368241739053e-03
      - -7.8945624891198196e-01
      - 8.2787885927442604e-03
      - -7.1764556217300124e-01
      - 8.2514150450256150e-03
      - -7.2522120483930352e-01
      - 8.1097168928412240e-03
      - -7.7105725253112234e-01
      - 7.9017136754057256e-03
      - -8.8502354424788876e-01
      - 7.9302868685611760e-03
      - -8.6162372139023513e-01
      - 8.0130247159419105e-03
      - -8.1239888607171384e-01
      - 8.0659836327136181e-03
      - -7.8834392313513324e-01
      - 8.2149627876774937e-03
      - -7.3585839155123500e-01
      - 8.6066600916755269e-03
      - -6.4549168121637035e-01
      - 8.6798942934578037e-03
      - -6.3260313428997117e-01
      - 8.6233424819155344e-03
      - -6.4247743495922793e-01
      - 8.3975857446545420e-03
      - -6.8809350295602234e-01
      - 7.9220716477243561e-03
      - -8.6783348794888404e-01
      - 7.9153299155152370e-03
      - -1.1451966686277364e+00
      - 8.0698653150638958e-03
      - -1.2710881692385148e+00
      - 8.0163655981612160e-03
      - -1.2334182158480131e+00
      - 7.8564231097529250e-03
      - -1.0599242001570284e+00
      - 7.8482779915163246e-03
      - -9.6444332656249432e-01
      - 1.0198679033090432e-02
      - -4.6915036337707872e-01
      - 2.6175176165137672e-02
      - -1.5334302603380798e-01
      - 9.0914601681252680e-03
      - -5.7294054627440827e-01
      - 7.9157255794425861e-03
      - -1.1456209821835386e+00
      - 8.2117214056254620e-03
      - -1.3571515999018973e+00
      - 8.2165898889833867e-03
      - -1.3598613156963695e+00
      - 8.1335584872341965e-03
      - -1.3116712737355376e+00
      - 7.9802565963621279e-03
      - -1.2052886728968213e+00
      - 7.8437079490545798e-03
      - -1.0121364405328512e+00
      - 8.1867094965306746e-03
      - -7.4459008685121875e-01
      - 8.4182671809802708e-03
      - -6.8341204490511231e-01
      - 8.2527923405311867e-03
      - -7.2483199067218540e-01
      - 8.0688913566400802e-03
      - -7.8713143024172050e-01
      - 7.9378638933592007e-03
      - -8.5618934552975867e-01
      - 8.0385091797332622e-03
      - -8.0032063980110302e-01
      - 8.1901293826721847e-03
      - -7.4350855400561333e-01
      - 8.2081755744426669e-03
      - -7.3791483487570042e-01
      - 8.4696834193030042e-03
      - -6.7226860709952330e-01
      - 8.8270531714649512e-03
      - -6.0908111572661594e-01
      - 9.1301364701658026e-03
      - -5.6818039670038900e-01
      - 9.4153741521366217e-03
      - -5.3630306761283753e-01
      - 8.8382955787309689e-03
      - -6.0739775998512835e-01
      - 7.9001878278056447e-03
      - -8.8644015140452803e-01
      - 7.9862414950373703e-03
      - -1.2101428726945560e+00
      - 8.1315964432846412e-03
      - -1.3104750107298202e+00
      - 8.0720653632247747e-03
      - -1.2725576549118032e+00
      - 7.9023060810418030e-03
      - -1.1306088984034277e+00
      - 7.8436304676482785e-03
      - -9.8884801927656762e-01
      - 1.0073886213340429e-02
      - -4.7835845936123900e-01
      - 2.5877042578169158e-02
      - -1.5519637465503161e-01
      - 9.1824360057086163e-03
      - -5.6192534141862793e-01
      - 7.8854646509079144e-03
      - -1.1094285209070607e+00
      - 8.2834577163033735e-03
      - -1.3958959378008451e+00
      - 8.3713082130563842e-03
      - -1.4404617671136957e+00
      - 8.2632128390119439e-03
      - -1.3852038871289662e+00
      - 8.2337669076875432e-03
      - -1.3693223028885022e+00
      - 7.8996064989487903e-03
      - -1.1274141986556656e+00
      - 7.9375604908578992e-03
      - -8.5640200749699791e-01
      - 8.0412113623538981e-03
      - -7.9909812095448673e-01
      - 7.9923647861018833e-03
      - -8.2302898843897321e-01
      - 7.9854858328605484e-03
      - -8.2676425699627132e-01
      - 7.9717153195710596e-03
      - -8.3458017240473847e-01
      - 8.0496732484959827e-03
      - -7.9533523720182531e-01
      - 8.1735333067897847e-03
      - -7.4882437030262949e-01
      - 8.1612526737136794e-03
      - -7.5287147778168306e-01
      - 8.3513462596585975e-03
      - -6.9902089464709238e-01
      - 8.5107819441445094e-03
      - -6.6382241928769259e-01
      - 8.6429498626566289e-03
      - -6.3899517756180502e-01
      - 8.9184201394228065e-03
      - -5.9581014850332004e-01
      - 8.5174079400400313e-03
      - -6.6249604002799101e-01
      - 7.8817522451277537e-03
      - -9.0557019044061471e-01
      - 8.0425701879026350e-03
      - -1.2523681444261043e+00
      - 8.1762658679326479e-03
      - -1.3370105314480916e+00
      - 8.2354432442710204e-03
      - -1.3702375780893485e+00
      - 8.0159460364347401e-03
      - -1.2331058503620433e+00
      - 7.8476438410020610e-03
      - -1.0344790084498225e+00
      - 9.8781109855394979e-03
      - -4.9379776846971318e-01
      - 2.5715894644997617e-02
      - -1.5621739600220866e-01
      - 9.2488389258541717e-03
      - -5.5426597996374127e-01
      - 7.8554955584974225e-03
      - -1.0577348343073356e+00
      - 8.2653162498265154e-03
      - -1.3863230520610546e+00
      - 8.4638260062833721e-03
      - -1.4847711791873701e+00
      - 8.4093432412994350e-03
      - -1.4589652347571038e+00
      - 8.3376635457778191e-03
      - -1.4237178361825138e+00
      - 7.9484858712477076e-03
      - -1.1778835050100747e+00
      - 7.8648503937305027e-03
      - -9.2830692790593206e-01
      - 8.0082845433741990e-03
      - -8.1476540343363579e-01
      - 8.0276881958961030e-03
      - -8.0532354851174492e-01
      - 8.0906116950155409e-03
      - -7.7837010567940024e-01
      - 8.1648186455057451e-03
      - -7.5168595880591715e-01
      - 8.1167186711559019e-03
      - -7.6846093074568855e-01
      - 8.2445710313906601e-03
      - -7.2716846625473441e-01
      - 8.2987544597198544e-03
      - -7.1232107633389152e-01
      - 8.5390085427882526e-03
      - -6.5823659324335815e-01
      - 8.5861604003375069e-03
      - -6.4926299648451391e-01
      - 8.7556870054391507e-03
      - -6.2012682633358529e-01
      - 8.8966314516195927e-03
      - -5.9889262549614164e-01
      - 8.3984202509430304e-03
      - -6.8790224719558191e-01
      - 7.8698861660361462e-03
      - -9.2075092075138121e-01
      - 8.0952472772718703e-03
      - -1.2877243366220057e+00
      - 8.3745479850353705e-03
      - -1.4420548257919608e+00
      - 8.3132515366029017e-03
      - -1.4113252479093148e+00
      - 8.0592811889959124e-03
      - -1.2639397509005208e+00
      - 7.8529155045479453e-03
      - -1.0511967817599095e+00
      - 9.6905947966215260e-03
      - -5.0988847034996765e-01
      - 2.5526565411434114e-02
      - -1.5743470920690816e-01
      - 9.3811227780058737e-03
      - -5.3986237656189284e-01
      - 7.8437079490545798e-03
      - -1.0121364405328512e+00
      - 8.2049699319268338e-03
      - -1.3533724135670586e+00
      - 8.5112537592645244e-03
      - -1.5066420502533684e+00
      - 8.4723992279850061e-03
      - -1.4887633980755324e+00
      - 8.2677784043959507e-03
      - -1.3876306097052473e+00
      - 7.9631234695499552e-03
      - -1.1908844632244306e+00
      - 7.8594088641367656e-03
      - -9.3762647702121149e-01
      - 7.9502603099290189e-03
      - -8.4781813050500565e-01
      - 8.1054598523222932e-03
      - -7.7265712443864054e-01
      - 8.3110026923448755e-03
      - -7.0913301750285795e-01
      - 8.3083875808501635e-03
      - -7.0980886407446853e-01
      - 8.3125011700859522e-03
      - -7.0874691736797590e-01
      - 8.4346484549627267e-03
      - -6.7978757024094028e-01
      - 8.5131432788792365e-03
      - -6.6334864481734301e-01
      - 8.8655456236672609e-03
      - -6.0337784640581760e-01
      - 8.9204180352758077e-03
      - -5.9552996308788475e-01
      - 8.8874910720973029e-03
      - -6.0020060410791332e-01
      - 8.6233424819155344e-03
      - -6.4247743495922793e-01
      - 8.1796237730994061e-03
      - -7.4685364581821179e-01
      - 7.8440165138621079e-03
      - -9.8513800779887584e-01
      - 8.1224503973611004e-03
      - -1.3048578456593531e+00
      - 8.4990596797067681e-03
      - -1.5010677853296983e+00
      - 8.5846385718529681e-03
      - -1.5395368285877871e+00
      - 8.2684834969733011e-03
      - -1.3880045673860801e+00
      - 7.8546534361265581e-03
      - -1.0556788485734199e+00
      - 9.8769564686183760e-03
      - -4.9389272685185270e-01
      - 2.5715894644997617e-02
      - -1.5621739600220866e-01
      - 9.3677831027299888e-03
      - -5.4126672581021995e-01
      - 7.8465569844403307e-03
      - -9.7090262522964388e-01
      - 8.0517614048521025e-03
      - -1.2587777345221502e+00
      - 8.3230749739018322e-03
      - -1.4163379256143385e+00
      - 8.2088187399025573e-03
      - -1.3555298965015852e+00
      - 8.0478269414207479e-03
      - -1.2560478693107200e+00
      - 7.8719016933141827e-03
      - -1.0893901705983924e+00
      - 7.8913609923231317e-03
      - -8.9508612324817372e-01
      - 7.9804415385452323e-03
      - -8.2957263038205453e-01
      - 8.1363748115576562e-03
      - -7.6139245577004078e-01
      - 8.2415142305287386e-03
      - -7.2804538558557885e-01
      - 8.1882614914570492e-03
      - -7.4409839810937617e-01
      - 8.2324289747405608e-03
      - -7.3067859787263600e-01
      - 8.3253601063586341e-03
      - -7.0546791212219173e-01
      - 8.3376635457778209e-03
      - -7.0238636799083021e-01
      - 8.6066600916755269e-03
      - -6.4549168121637035e-01
      - 8.8314137827395136e-03
      - -6.0842643290088216e-01
      - 8.7468979852872563e-03
      - -6.2153239739244759e-01
      - 8.3568860671761978e-03
      - -6.9767613023269404e-01
      - 8.0870400490113872e-03
      - -7.7977654940667529e-01
      - 7.8524917006502926e-03
      - -9.5233774142220151e-01
      - 7.9945017944058078e-03
      - -1.2167082190864091e+00
      - 8.4084980886756488e-03
      - -1.4585586600918425e+00
      - 8.7794323919947147e-03
      - -1.6223749247018058e+00
      - 8.3888724850297736e-03
      - -1.4490598748349985e+00
      - 7.8528679490139520e-03
      - -1.0510690313681585e+00
      - 9.9713656934359036e-03
      - -4.8628314145065893e-01
      - 2.5747875226302428e-02
      - -1.5601367567564955e-01
      - 9.0595888892043893e-03
      - -5.7695363320592419e-01
      - 7.8438158734113056e-03
      - -1.0132415687576568e+00
      - 8.0180494305895286e-03
      - -1.2346687972977441e+00
      - 8.1720209643961761e-03
      - -1.3345479408168532e+00
      - 8.1282508676154049e-03
      - -1.3084281479368032e+00
      - 8.0657422791797356e-03
      - -1.2683192721436831e+00
      - 7.8922201458174971e-03
      - -1.1183085063684786e+00
      - 7.8513639737967135e-03
      - -9.5523500567541075e-01
      - 7.9456160871321999e-03
      - -8.5088459745233858e-01
      - 8.0519941462148196e-03
      - -7.9431992444028965e-01
      - 8.0214439581294487e-03
      - -8.0829285667555906e-01
      - 7.9170525946449730e-03
      - -8.7181160723064499e-01
      - 7.9003044624245261e-03
      - -8.8633112056802377e-01
      - 7.9096559039972779e-03
      - -8.7796605182058163e-01
      - 7.9274059149567564e-03
      - -8.6376144117749865e-01
      - 8.0394076181871423e-03
      - -7.9991301714002627e-01
      - 8.1989258237004821e-03
      - -7.4075856016730168e-01
      - 8.2297614568608689e-03
      - -7.3145952210233667e-01
      - 8.0845069173142731e-03
      - -7.8078194829010084e-01
      - 7.9607269106729897e-03
      - -8.4118202922634067e-01
      - 7.8431777315902135e-03
      - -9.9679243885732904e-01
      - 8.0004139677089386e-03
      - -1.2213179686002811e+00
      - 8.3415486935636985e-03
      - -1.4256706368253089e+00
      - 8.5438720137830330e-03
      - -1.5213965222579280e+00
      - 8.1559474646770488e-03
      - -1.3251152797060810e+00
      - 7.8446785059179923e-03
      - -1.0200221904530793e+00
      - 1.0134120579836581e-02
      - -4.7385629279695968e-01
      - 2.4896462479448760e-02
      - -1.6163006192331708e-01
      - 8.6370846612989303e-03
      - -6.4003011977317714e-01
      - 7.8556567877274067e-03
      - -1.0581208267142777e+00
      - 7.9862414950373703e-03
      - -1.2101428726945560e+00
      - 8.0086938210245807e-03
      - -1.2276574673510758e+00
      - 7.9776814927600293e-03
      - -1.2031733510843909e+00
      - 8.0380608179649662e-03
      - -1.2491810137160722e+00
      - 7.9330708814258442e-03
      - -1.1633367327563908e+00
      - 7.8467277067033638e-03
      - -9.7019601176636072e-01
      - 7.9607269106729897e-03
      - -8.4118202922634067e-01
      - 7.9688748399482125e-03
      - -8.3625363875517644e-01
      - 7.9014775755280146e-03
      - -8.8524137201878517e-01
      - 7.8434486490191520e-03
      - -1.0089507675680447e+00
      - 7.8527731876427247e-03
      - -1.0508135817895909e+00
      - 7.8519865346046488e-03
      - -1.0486450101861529e+00
      - 7.8463087125167190e-03
      - -1.0288452679948614e+00
      - 7.8694919794818578e-03
      - -9.2131300990555098e-01
      - 8.0099249774911521e-03
      - -8.1394180363198410e-01
      - 8.0911243415252403e-03
      - -7.7816929087151376e-01
      - 8.0494419544670515e-03
      - -7.9543680764996694e-01
      - 7.9211088963766392e-03
      - -8.6858509791346605e-01
      - 7.8448529122047347e-03
      - -1.0211362141775715e+00
      - 8.0305258547819138e-03
      - -1.2437895745622396e+00
      - 8.2228119905231340e-03
      - -1.3633060410765314e+00
      - 8.1729278777686286e-03
      - -1.3350750416515735e+00
      - 7.9499365158727190e-03
      - -1.1792044405413242e+00
      - 7.8454785404997365e-03
      - -1.0247344902189373e+00
      - 9.7149709117210475e-03
      - -5.0771720594016245e-01
      - 2.0572050542747057e-02
      - -1.9810746253703773e-01
      - 8.4571128796723585e-03
      - -6.7493112798847299e-01
      - 7.8498283865649724e-03
      - -1.0421685690193774e+00
      - 7.9429442080732760e-03
      - -1.1727650957299243e+00
      - 7.9070327645304212e-03
      - -1.1360518114996132e+00
      - 7.8569278578936117e-03
      - -1.0610853226087291e+00
      - 7.8760682539320212e-03
      - -1.0959321960103954e+00
      - 7.8456201150030481e-03
      - -1.0254806171775943e+00
      - 7.9523776517095527e-03
      - -8.4644592895474058e-01
      - 8.0797352379400784e-03
      - -7.8269404665839071e-01
      - 8.0614230212780764e-03
      - -7.9026574069473954e-01
      - 7.9513976844184445e-03
      - -8.4707906737334293e-01
      - 7.8432226904121514e-03
      - -9.9534332687836324e-01
      - 7.8530588706194823e-03
      - -1.0515801354200780e+00
      - 7.8497890925365455e-03
      - -1.0420420152336474e+00
      - 7.8439604713589541e-03
      - -1.0145939632784500e+00
      - 7.8836844158518583e-03
      - -9.0335496796696402e-01
      - 8.0371658079950933e-03
      - -8.0093229258997478e-01
      - 8.0996704222852239e-03
      - -7.7485963278768433e-01
      - 8.1094496756115558e-03
      - -7.7115719664862603e-01
      - 7.9795181701353985e-03
      - -8.3009335683323426e-01
      - 7.8460438458627726e-03
      - -9.7314343419389804e-01
      - 7.8924361526774116e-03
      - -1.1185831064068794e+00
      - 7.8727287404001377e-03
      - -1.0907215411015725e+00
      - 7.8831968505158161e-03
      - -1.1063068298773984e+00
      - 7.8624308895473751e-03
      - -1.0726448950076988e+00
      - 7.8490645701856532e-03
      - -9.6187081879554615e-01
      - 9.4044864241320022e-03
      - -5.3742732066764154e-01
      - 1.7709910839607570e-02
      - -2.3350738051022854e-01
      - 8.6689044230081943e-03
      - -6.3448214359887678e-01
      - 7.8564787246136903e-03
      - -9.4334893113073781e-01
      - 7.8689451073518050e-03
      - -1.0844805853896415e+00
      - 7.8482435718265180e-03
      - -1.0367417008566104e+00
      - 7.8517615721760484e-03
      - -9.5419107216550059e-01
      - 7.8885188378477033e-03
      - -8.9805601117723377e-01
      - 8.2008279068979100e-03
      - -7.4016983135334358e-01
      - 8.5193092444744815e-03
      - -6.6211718219740023e-01
      - 8.3753599196501900e-03
      - -6.9326322084502190e-01
      - 8.1684080475567626e-03
      - -7.5050126967586439e-01
      - 8.0340512373221987e-03
      - -8.0236050714107876e-01
      - 7.8639348439848138e-03
      - -9.2977908671383636e-01
      - 7.8437788603896094e-03
      - -1.0128730552780612e+00
      - 7.8439196510325347e-03
      - -1.0142249445127129e+00
      - 7.8431840718900699e-03
      - -9.9655077487353916e-01
      - 7.9194728107123951e-03
      - -8.6987466310209016e-01
      - 8.0865322214229030e-03
      - -7.7997757596703177e-01
      - 8.1995591775021227e-03
      - -7.4056229556325093e-01
      - 8.3721169622841575e-03
      - -6.9403007416658380e-01
      - 8.6139274731480801e-03
      - -6.4417264862387436e-01
      - 8.4216908125214016e-03
      - -6.8264856569799781e-01
      - 8.0432515374618159e-03
      - -7.9818191743824574e-01
      - 7.9467271285597798e-03
      - -8.5014372955533546e-01
      - 7.8552822230080789e-03
      - -9.4587654554733580e-01
      - 7.8485575238903746e-03
      - -9.6350713359750406e-01
      - 7.9240156792315542e-03
      - -8.6633166874566403e-01
      - 9.7844034722324395e-03
      - -5.0166641879952267e-01
      - 2.2964150958881980e-02
      - -1.7606266674421972e-01
      - 1.1369293564355513e-02
      - -4.0015819656540963e-01
      - 8.9144329415980217e-03
      - -5.9637053838062926e-01
      - 8.4719460485676145e-03
      - -6.7179343052880680e-01
      - 8.7615811800339834e-03
      - -6.1918997602924286e-01
      - 9.3784467363905201e-03
      - -5.4014327439211518e-01
      - 1.0396612008970650e-02
      - -4.5543550951826511e-01
      - 1.1500073243392578e-02
      - -3.9391776616210694e-01
      - 1.1559856619949417e-02
      - -3.9114106601034521e-01
      - 1.1063359070480380e-02
      - -4.1572598682100625e-01
      - 1.0431757923510641e-02
      - -4.5310517912902648e-01
      - 9.8346816455539294e-03
      - -4.9740346595043805e-01
      - 9.1895934213804022e-03
      - -5.6108492293661938e-01
      - 8.6694514464266056e-03
      - -6.3438817376388468e-01
      - 8.5453355836367772e-03
      - -6.5700717065026237e-01
      - 8.7698801328102757e-03
      - -6.1787864336328147e-01
      - 9.3855918932252338e-03
      - -5.3939418185415000e-01
      - 1.0138020779317603e-02
      - -4.7356853929501952e-01
      - 1.1103170666135352e-02
      - -4.1361784159989579e-01
      - 1.2520307714283205e-02
      - -3.5203261997524965e-01
      - 1.4529546602681189e-02
      - -2.9308782631431368e-01
      - 1.4369759171732771e-02
      - -2.9697240972387179e-01
      - 1.1403036727644174e-02
      - -3.9852566166617487e-01
      - 9.7515591943251288e-03
      - -5.0450442498445669e-01
      - 8.8803520829472803e-03
      - -6.0122841980019504e-01
      - 8.6865383804735595e-03
      - -6.3147611389092695e-01
      - 9.5810185269170570e-03
      - -5.1996931516284639e-01
      - 1.5047914207585599e-02
      - -2.8121456692899327e-01
   output_scale:
      - 5.2631578947368418e-01
      - 4.9999999999999994e-01
      - 5.2631578947368418e-01
      - 4.9999999999999994e-01
      - 5.2631578947368418e-01
      - 4.9999999999999994e-01
      - 5.2631578947368418e-01
      - 4.9999999999999994e-01
      - 5.2631578947368418e-01
      - 4.9999999999999994e-01
      - 5.2631578947368418e-01
      - 4.9999999999999994e-01
      - 5.2631578947368418e-01
      - 4.9999999999999994e-01
      - 5.2631578947368418e-01
      - 4.9999999999999994e-01
      - 5.2631578947368418e-01
      - 4.9999999999999994e-01
      - 5.2631578947368418e-01
      - 4.9999999999999994e-01
      - 5.2631578947368418e-01
      - 4.9999999999999994e-01
      - 5.2631578947368418e-01
      - 4.9999999999999994e-01
      - 5.2631578947368418e-01
      - 4.9999999999999994e-01
      - 5.2631578947368418e-01
      - 4.9999999999999994e-01
      - 5.2631578947368418e-01
      - 4.9999999999999994e-01
      - 5.2631578947368418e-01
      - 4.9999999999999994e-01
      - 5.2631578947368418e-01
      - 4.9999999999999994e-01
      - 5.2631578947368418e-01
      - 4.9999999999999994e-01
      - 5.2631578947368418e-01
      - 4.9999999999999994e-01
      - 5.2631578947368418e-01
      - 4.9999999999999994e-01
      - 5.2631578947368418e-01
      - 4.9999999999999994e-01
      - 5.2631578947368418e-01
      - 4.9999999999999994e-01
      - 5.2631578947368418e-01
      - 4.9999999999999994e-01
      - 5.2631578947368418e-01
      - 4.9999999999999994e-01
      - 5.2631578947368418e-01
      - 4.9999999999999994e-01
      - 5.2631578947368418e-01
      - 4.9999999999999994e-01
      - 5.2631578947368418e-01
      - 4.9999999999999994e-01
      - 5.2631578947368418e-01
      - 4.9999999999999994e-01
      - 5.2631578947368418e-01
      - 4.9999999999999994e-01
      - 5.2631578947368418e-01
      - 4.9999999999999994e-01
      - 5.2631578947368418e-01
      - 4.9999999999999994e-01
      - 5.2631578947368418e-01
      - 4.9999999999999994e-01
      - 5.2631578947368418e-01
      - 4.9999999999999994e-01
   inv_output_scale:
      - 1.8999999999999999e+00
      - -9.4999999999999996e-01
      - 1.8999999999999999e+00
      - -9.4999999999999996e-01
      - 1.8999999999999999e+00
      - -9.4999999999999996e-01
      - 1.8999999999999999e+00
      - -9.4999999999999996e-01
      - 1.8999999999999999e+00
      - -9.4999999999999996e-01
      - 1.8999999999999999e+00
      - -9.4999999999999996e-01
      - 1.8999999999999999e+00
      - -9.4999999999999996e-01
      - 1.8999999999999999e+00
      - -9.4999999999999996e-01
      - 1.8999999999999999e+00
      - -9.4999999999999996e-01
      - 1.8999999999999999e+00
      - -9.4999999999999996e-01
      - 1.8999999999999999e+00
      - -9.4999999999999996e-01
      - 1.8999999999999999e+00
      - -9.4999999999999996e-01
      - 1.8999999999999999e+00
      - -9.4999999999999996e-01
      - 1.8999999999999999e+00
      - -9.4999999999999996e-01
      - 1.8999999999999999e+00
      - -9.4999999999999996e-01
      - 1.8999999999999999e+00
      - -9.4999999999999996e-01
      - 1.8999999999999999e+00
      - -9.4999999999999996e-01
      - 1.8999999999999999e+00
      - -9.4999999999999996e-01
      - 1.8999999999999999e+00
      - -9.4999999999999996e-01
      - 1.8999999999999999e+00
      - -9.4999999999999996e-01
      - 1.8999999999999999e+00
      - -9.4999999999999996e-01
      - 1.8999999999999999e+00
      - -9.4999999999999996e-01
      - 1.8999999999999999e+00
      - -9.4999999999999996e-01
      - 1.8999999999999999e+00
      - -9.4999999999999996e-01
      - 1.8999999999999999e+00
      - -9.4999999999999996e-01
      - 1.8999999999999999e+00
      - -9.4999999999999996e-01
      - 1.8999999999999999e+00
      - -9.4999999999999996e-01
      - 1.8999999999999999e+00
      - -9.4999999999999996e-01
      - 1.8999999999999999e+00
      - -9.4999999999999996e-01
      - 1.8999999999999999e+00
      - -9.4999999999999996e-01
      - 1.8999999999999999e+00
      - -9.4999999999999996e-01
      - 1.8999999999999999e+00
      - -9.4999999999999996e-01
      - 1.8999999999999999e+00
      - -9.4999999999999996e-01
   weights:
      -
         - -2.9886215385326455e-02
         - -4.1952281574429963e-02
         - 3.3076174208276091e-02
         - 1.2803321128266697e-02
         - 1.3272152622714242e-02
         - -5.1365348877765948e-02
         - 1.3182874966295430e-02
         - 3.6325179515996037e-02
         - -2.5524945118383227e-02
         - 3.2966848819261464e-02
         - -2.7348733794484069e-02
         - 1.0553760731864377e-02
         - 4.4537975702008001e-02
         - -2.6873138605549983e-02
         - 2.0454703765611894e-02
         - 2.1100155736010252e-02
         - -1.1992479407608687e-02
         - -9.7313497659150747e-03
         - 2.2366629217188825e-02
         - -4.4323202842752957e-02
         - 5.5302472617544063e-02
         - -4.2645868563880904e-02
         - 4.6299592602253373e-02
         - 5.2648586762739029e-02
         - 4.5463748408997071e-02
         - -4.7375821136120939e-02
         - -5.5332400923978529e-02
         - -2.5517567136706942e-02
         - -1.1091407160919919e-02
         - -3.7118947014729245e-02
         - 2.6486691928641080e-02
         - 9.4005269389964181e-03
         - 2.5184067599545359e-03
         - -3.0887538538132871e-02
         - 2.1706905887778544e-02
         - 2.5287478970623108e-02
         - -2.1141703380961722e-02
         - 2.1517041464773415e-02
         - -2.4538501411202323e-02
         - 1.1612157182951256e-02
         - 2.1021772684659563e-02
         - -2.6988308723425621e-02
         - 2.2730669071256265e-04
         - 1.4702489869457824e-02
         - -4.6532844022506769e-03
         - 4.1849586701629210e-04
         - 9.4381972841849852e-03
         - -2.8596872781121014e-02
         - 1.8727920507611788e-02
         - -1.9290408897636863e-02
         - 2.2287461878881969e-02
         - 3.4475537958796702e-02
         - 3.1613982647885161e-02
         - -3.2795535088166163e-02
         - -3.0996413518341395e-02
         - -6.4395266735836672e-03
         - -8.5472655160907466e-03
         - -4.1115145101260221e-02
         - 3.4897403676069527e-02
         - 1.3218733993881940e-02
         - -2.0446684613920827e-02
         - -1.9436697139743980e-02
         - 5.6343400427893570e-03
         - 9.2414480539577645e-04
         - -2.9673419852732745e-03
         - 1.4146727317213859e-02
         - -1.1897237376484352e-02
         - 2.2997961248681659e-02
         - 1.9594899176477779e-02
         - -3.2933680887531007e-02
         - -4.5486722194840387e-03
         - 7.3443095712306715e-03
         - -3.9899188544196577e-03
         - 1.9532577255743734e-02
         - 1.7683535107934596e-02
         - -1.9071311221562609e-02
         - -2.1516738664161379e-02
         - 3.8143957506688864e-03
         - 6.0442782465845212e-03
         - 1.9101589656083107e-02
         - 2.7397170381521573e-02
         - -2.8696497069909357e-02
         - 2.9521269993839955e-03
         - 1.0920073119804740e-02
         - -4.8396579300841687e-05
         - -2.6017702400816779e-02
         - 2.0287600876117511e-02
         - 1.2942036371223580e-02
         - -1.9103600736670962e-02
         - -1.5915214513636009e-02
         - 1.2423057171873913e-04
         - 2.0395200720187134e-03
         - 6.8900101341615007e-03
         - 1.3128702980885225e-03
         - 3.8471051259844902e-03
         - 2.5105567233532505e-02
         - 1.3648693036628771e-02
         - -1.2187947658391755e-02
         - 9.0959831522405433e-03
         - -2.3503313242548908e-04
         - -8.4758242580665871e-03
         - 2.3530621803195145e-03
         - 2.5688001977225972e-02
         - -8.3757508137451368e-03
         - -2.1493742832200218e-02
         - 5.3123278556910479e-03
         - -6.1491719657618456e-03
         - 1.4400875819123388e-02
         - 2.1002416420198334e-02
         - -3.0853816148228765e-02
         - 7.2164446770615984e-03
         - 8.4287708563480796e-03
         - -6.1551047483516716e-04
         - -1.7703631817929742e-03
         - 1.4142499663051266e-02
         - 2.7466298406542609e-02
         - -5.0690573006647085e-03
         - -2.3225642244977650e-02
         - -1.2462606547812793e-02
         - 9.7657410349764068e-03
         - 3.4903746837378954e-03
         - -9.8443286549024633e-03
         - 2.8144836346199443e-03
         - 2.8437602435481293e-02
         - 9.5237113850522390e-03
         - 5.9148016361822348e-04
         - 2.7140251972203478e-02
         - 4.0474174336268993e-03
         - -2.7578475248551310e-02
         - -9.8168051225068047e-03
         - 3.4870599721624568e-02
         - -1.3106727340264916e-02
         - -2.1311206418920883e-02
         - 3.0283834419136527e-03
         - -1.5239590654159042e-02
         - 9.2635255455061315e-03
         - 7.6773617140915382e-03
         - -2.9404752720710726e-02
         - 1.0346807820877191e-03
         - 8.6222978435214698e-04
         - -1.6482204178410519e-02
         - 1.3400364298521943e-02
         - 6.2957659530479271e-03
         - 3.4496473253138600e-02
         - 1.5832494139981026e-02
         - -2.5327873663551524e-02
         - -2.2528968438889619e-02
         - 1.6373416505705063e-02
         - -7.4075720171813001e-03
         - -1.4184808441338783e-02
         - -3.3003191556128060e-03
         - 2.7704536865429893e-02
         - 6.2232749636239636e-03
         - 7.4152820806262310e-03
         - 3.5699002894649445e-02
         - 6.2217743862469132e-03
         - -3.3532623114902300e-02
         - -1.3493034968883046e-02
         - 3.3360527214100634e-02
         - -1.0030472221164070e-02
         - -4.9444783829882015e-03
         - 5.8517430157586589e-05
         - -6.0007415596588067e-03
         - 5.4502090054946535e-03
         - -4.1222558284457157e-03
         - -2.3508802731033954e-02
         - -9.0485533076088991e-04
         - -1.1996724165637200e-02
         - -1.6439723281746154e-02
         - 1.6235887678931006e-02
         - -7.3555748449084940e-03
         - 3.0382684542791787e-02
         - 1.6454423299263495e-02
         - -1.7088883901515604e-02
         - -1.7577256000289733e-02
         - 1.8420191481422168e-02
         - -1.3612348362501489e-02
         - -1.5026724256426810e-02
         - -1.3558315223313801e-02
         - 2.6357889794326978e-02
         - -4.4547215904042810e-03
         - 4.8798826924329247e-03
         - 2.5169860008153848e-02
         - 3.9998995112436962e-03
         - -2.4886576894629045e-02
         - -1.4343940881744536e-02
         - 2.8411048597860519e-02
         - -9.7008776523970150e-03
         - 4.6138076806295321e-03
         - -3.5427021545917543e-03
         - -7.0411014226360157e-03
         - 6.4500236809539322e-03
         - -7.7648624713177452e-03
         - -7.5765026301812836e-03
         - 6.9818383002174913e-03
         - -3.8088852779936534e-03
         - -1.6298957998214379e-02
         - -9.8837533683124208e-03
         - -3.4570527399226236e-03
         - 2.1007931028900934e-02
         - 2.5291581248433063e-02
         - -2.4812511914717165e-02
         - -3.4736644392229558e-03
         - 2.7311377091056258e-02
         - -3.1484543388223353e-02
         - -8.3131126800297973e-03
         - -4.2193872157434704e-02
         - 8.2167920432546521e-03
         - 1.0236685493965293e-03
         - -1.5282579909195465e-02
         - 3.8532212663250861e-03
         - 1.1679527880622823e-02
         - -3.0236275031990518e-02
         - -1.6756765768132655e-02
         - 7.6553478114767953e-03
         - -1.1513746661020292e-02
         - -7.1168270585119549e-03
         - 2.0944692400504477e-03
         - -6.5647055707960637e-03
         - 1.6435641181487309e-02
         - 9.7974079145948128e-04
         - 3.8560016581244898e-03
         - -1.5504268951652573e-02
         - -3.7850539562040110e-03
         - -1.1742980076464104e-02
         - -2.6773932288775695e-02
         - 1.9306632064554098e-03
         - 5.7503300889321495e-03
         - 1.6530694582023681e-02
         - -2.6269315117329016e-02
         - -3.5774243311048853e-03
         - 2.3822882847947272e-02
         - -4.1022168278268163e-02
         - 2.2473532383464397e-02
         - -4.1103484270264716e-02
         - -5.3463081125706142e-05
         - 1.9157796009365874e-02
         - -2.2298005485351557e-02
         - 1.9855352457608154e-04
         - 9.3747664167486023e-03
         - -3.3835484981448380e-02
         - -1.3939222412390885e-02
         - -7.1334771828762480e-03
         - -1.7435578326702766e-02
         - 1.0555890175784432e-02
         - 1.5404086774641645e-03
         - 7.9584595986277370e-03
         - 2.9398223085934993e-02
         - 2.1770598451849452e-02
         - 9.0852722843045826e-04
         - -2.8579495163146913e-02
         - -1.4611677400970876e-02
         - -1.4438083072954131e-02
         - -3.0745737008639855e-02
         - 1.8675539029615507e-03
         - 4.8235726520614074e-03
         - 1.6339873975304748e-02
         - -2.4948587466777205e-02
         - -2.3737473661424985e-03
         - 1.9780465060554239e-02
         - -4.1305220632795840e-02
         - 2.1614525963144334e-02
         - -4.1611165048139255e-02
         - -3.6460354106319175e-03
         - 2.2209350624090612e-02
         - -2.2666211228976964e-02
         - -7.8850043552047763e-03
         - 4.2324774289296194e-03
         - -1.7857485391714008e-02
         - -1.4455556570761906e-02
         - -8.8907596296619734e-03
         - -1.6597886556427348e-02
         - 2.6134920788343872e-02
         - -5.7849756356217492e-03
         - 1.7153942549965190e-02
         - 3.0527924896908250e-02
         - 2.6468819782974700e-02
         - 9.9808968116267081e-03
         - -2.8990226705491225e-02
         - -1.3315202815261435e-02
         - -2.0863279848428225e-02
         - -3.3103006324567245e-02
         - 1.2054781620529104e-02
         - 8.0775926826192890e-03
         - 6.9908246697641232e-03
         - -2.3411126583477264e-02
         - 1.9735935412238501e-03
         - 1.1295302069031298e-02
         - -3.1796313737333423e-02
         - 1.7825973079656866e-02
         - -2.8943010768700990e-02
         - 2.8653874621027077e-03
         - 2.7474861132463318e-02
         - -2.0680580373095211e-02
         - -3.0661380400778589e-03
         - 9.6597119359269797e-03
         - -9.8481086044286178e-03
         - -1.2825791037361832e-02
         - -8.7553086198954923e-05
         - -1.8440894947967471e-02
         - 3.2333034500961193e-02
         - -2.0940656277781917e-02
         - 2.2403736953870941e-02
         - 3.2424748944055039e-02
         - 2.5023073523113226e-02
         - -2.0793662050897724e-03
         - -2.8625019832324891e-02
         - -1.0485269463899802e-02
         - -2.7824805294285805e-02
         - -2.6004428874828206e-02
         - 1.2707205489506764e-02
         - 1.1441217643789213e-02
         - 3.2530062027080896e-03
         - -1.8233261816248850e-02
         - 4.2615050890374385e-03
         - 6.7743700033851629e-03
         - -1.9598843137935418e-02
         - 1.2149148287844939e-02
         - -1.3232993448122125e-02
         - 1.2095242055117502e-02
         - 2.8866582217456194e-02
         - -8.8191500702890363e-03
         - 2.0174089820340902e-02
         - 6.2602282650660278e-03
         - -1.9280635204538989e-04
         - -9.4025120606709475e-03
         - 3.3392877576429660e-03
         - -1.7224899846849068e-02
         - 3.9116751320762887e-02
         - -2.6199922529300212e-02
         - 2.9735722633527490e-02
         - 2.9452756774527328e-02
         - 2.6532798889843601e-02
         - -2.0086382161648368e-02
         - -2.7470799676520333e-02
         - -1.2552475981123570e-02
         - -1.9491559803546013e-02
         - -1.2792751180274765e-02
         - 1.2592313526656029e-02
         - 1.1069215980495244e-02
         - 3.9750318720801828e-03
         - -3.5469499482337651e-02
         - 2.2329094815381721e-02
         - 2.5339088400429595e-02
         - -1.7350778140375344e-02
         - -2.0976055516342871e-03
         - 2.7532473200004254e-03
         - 1.3651117973215313e-02
         - 3.8048270402979367e-02
         - -1.2000369099550779e-02
         - 1.4240509134715815e-02
         - 3.8527043495901504e-03
         - 1.6536299886224595e-02
         - 1.6198003267694013e-03
         - -2.3425500955274597e-03
         - -2.1940315425281132e-02
         - 4.7780027722231624e-02
         - -4.2541239397492048e-02
         - 1.4546183368815246e-02
         - 2.5161553721297903e-02
         - 3.2822743969816236e-02
         - -1.7386021107644905e-02
         - -3.1108637822533446e-02
         - -5.6170314820020812e-03
         - 6.6040545783866917e-03
         - 1.1791269499474231e-02
         - 2.0178668191351248e-02
         - -7.6756891721764531e-03
         - 4.0921388839513162e-03
         - -9.3596405844237444e-03
         - 3.6459757446350764e-02
         - 1.1487869942167741e-02
         - -1.2848029343138527e-02
         - -8.3538035002620678e-03
         - 1.6590065747229508e-02
         - 1.1922104673478640e-02
         - 2.7647899828889939e-02
         - -1.5972242661317880e-02
         - -8.8705784599745381e-03
         - 8.4291297175449267e-03
         - 4.1244178580697649e-02
         - 1.1208586454549755e-02
         - -1.0524063150467982e-02
         - -1.6126973351378242e-02
         - 4.0407557574999080e-02
         - -3.8229971916709696e-02
         - 1.0344430035041572e-02
         - 2.0581006334998101e-02
         - 3.1270138912395946e-02
         - -3.2778341888770357e-05
         - -1.7172709276997451e-02
         - 2.2782632155698840e-02
         - 7.0381465262729153e-03
         - 1.5202920827624726e-02
         - 1.3882746611904051e-02
         - -1.7249574649882689e-02
         - 4.1020561709114722e-03
         - 1.6641467887825881e-03
         - 2.0548209267973992e-02
         - -8.4817747834096870e-03
         - -1.3060081226924083e-02
         - 1.2420018488570135e-03
         - 4.6080189726667251e-03
         - -4.0909483032418132e-03
         - 2.1014279047253021e-02
         - -2.4197894956860800e-02
         - 1.9080741979962818e-03
         - 1.0101487014006594e-02
         - 3.4780947428681631e-02
         - 2.4394500193878595e-03
         - -1.3484958106789784e-02
         - -8.2448980850803651e-03
         - 4.8618872052470535e-02
         - -1.2739004360267026e-02
         - -3.5919292100281557e-03
         - 1.4965023785160472e-02
         - 2.8952033421084149e-02
         - 8.4991477927704173e-03
         - -2.3588144720123536e-02
         - 1.6060292326777637e-02
         - 4.3521790523671344e-03
         - 1.7964144459825703e-02
         - 7.7792659403044598e-03
         - -7.1584598775610948e-03
         - 9.0811497937053308e-03
         - -2.0146809736960223e-03
         - 3.5516206618806862e-03
         - -1.6491171996885792e-02
         - -1.3947308729681201e-02
         - 1.3202337731565515e-02
         - -5.8771756541843474e-03
         - 1.0043341362011392e-02
         - 2.4758695723217868e-02
         - -1.8606495743735057e-02
         - 2.3804223864997247e-02
         - 1.7877135584470325e-02
         - 1.2587026338426606e-02
         - -5.9784178540364828e-03
         - -3.3791063234841134e-03
         - -1.1075823280349988e-02
         - 5.2797010014789807e-02
         - -3.6934821991646250e-03
         - 1.7553796066191989e-02
         - 1.8489385121739876e-02
         - 3.1905208402240877e-02
         - -1.7065931099079657e-02
         - -3.4669010122856246e-02
         - -2.2239193827385331e-03
         - -2.9243353655492930e-02
         - -3.3105573231572948e-03
         - 1.1682212037253928e-02
         - 2.5269823364220166e-03
         - 9.2615482631129582e-03
         - -1.5358788931183852e-02
         - -2.0848852008228057e-03
         - -3.8449339899076611e-03
         - -1.9214555629128549e-02
         - 1.7967641852651040e-02
         - -4.0558360745277522e-03
         - 3.2067801400501521e-02
         - 3.1497496428679064e-02
         - -6.4261374713498682e-03
         - 2.8896829587057849e-02
         - 7.9609006440384475e-03
         - 1.3703248296730301e-02
         - -2.0353691997641157e-02
         - -1.2958008176190982e-03
         - -2.5143544708506108e-02
         - 4.9471685144428637e-02
         - -2.5053651641787789e-02
         - 4.4321732973755648e-02
         - 1.7840151780761124e-02
         - 3.1599569701138100e-02
         - -3.2964524153729781e-02
         - -2.9716254821046749e-02
         - -8.3368289425719781e-03
         - -3.9108473018660994e-02
         - -1.5837884431251056e-02
         - 9.2020406198752777e-03
         - 1.1102090552988296e-02
         - 1.1201833197511179e-02
         - -2.6985844583206003e-02
         - -1.0748868411402447e-02
         - 9.6097622802864720e-03
         - -1.4305208779123814e-02
         - 3.0754857978855007e-02
         - -1.0133591647996638e-02
         - 2.7461362174322664e-02
         - 3.4889840390972954e-02
         - -7.7875990781450808e-03
         - 2.4529696742060181e-02
         - 1.4681270144546768e-02
         - 7.2452166461769180e-03
         - -2.0523295472961320e-02
         - 3.6701372145663347e-03
         - -2.9883500232656832e-02
         - 5.4941234133204730e-02
         - -2.4275603565736294e-02
         - 5.1739512140070630e-02
         - 2.2118911226844489e-02
         - 4.1826371437784268e-02
         - -4.7912476343740205e-02
         - -3.0920560962555108e-02
         - -2.1106872932884782e-02
         - -4.4269715581526516e-02
         - -2.2429617266630040e-02
         - 1.6112578057620827e-02
         - 1.7175801289964085e-02
         - 1.2381431246031069e-02
         - -3.0973222838507324e-02
         - -1.3176531400373966e-03
         - 2.2636757044990501e-02
         - -1.5648656595848076e-02
         - 3.1396837362861259e-02
         - -6.8471640517091857e-03
         - 2.7367350232937730e-02
         - 3.5935040119470261e-02
         - -1.3339576006180210e-02
         - 2.0331915060431839e-02
         - 1.7887560953248685e-02
         - 3.6675500123025252e-04
         - -2.0920215226106639e-02
         - 1.1472128775093309e-02
         - -3.7601053877981329e-02
         - 5.5975289125898366e-02
         - -3.2221756569225886e-02
         - 4.4667553470614567e-02
         - 2.7286004377089387e-02
         - 4.3846115228375733e-02
         - -5.0156230539479700e-02
         - -3.0156873469943186e-02
         - -1.0504423205983798e-02
         - -3.1834727879862620e-02
         - -2.6056365902457180e-02
         - 5.1368955190841574e-03
         - 1.1939031016060734e-02
         - 1.3146018366089978e-02
         - -3.0216401835982044e-02
         - -1.3144508338288200e-02
         - 1.6481903486617992e-02
         - -2.5705925967003652e-02
         - 3.3389997104068564e-02
         - -2.1879218063042716e-02
         - 2.0361431324373555e-02
         - 3.1879950602042233e-02
         - -1.7876238297766887e-02
         - 1.3049539841664565e-02
         - 1.6913757547507208e-02
         - -2.7620216180692908e-02
         - -1.6793189794914353e-02
         - 4.2162314413162361e-03
         - -2.9328493346383828e-02
         - 2.6009950447735124e-02
         - -6.7768527128021158e-03
         - 2.1610814665232934e-02
         - 2.6068055614660603e-02
         - 2.5276397147241801e-02
         - -3.6347957056387367e-02
         - -2.7439556189789011e-02
         - -1.6252397962117710e-02
         - -1.5657786524451999e-02
         - -3.3215862771880607e-02
         - 9.5436752389190041e-03
         - 1.3729460833734683e-02
         - 1.2033635963131424e-02
         - -3.7870141452383044e-02
         - -1.5994771091954216e-02
         - 1.5784797833768315e-02
         - -3.7486139839346101e-02
         - 3.4716743695340085e-02
         - -2.5032251867067989e-02
         - 1.7751616449031119e-02
         - 2.6203856254788341e-02
         - -3.1918560796278632e-02
         - 1.1599581467501320e-02
         - 1.6669526967131768e-02
         - -4.6688597356118716e-02
         - -1.5414220400873086e-02
         - 5.8411973222287465e-03
         - -2.8984271166219214e-02
         - -2.1544077935952404e-02
         - 9.4684801664893688e-03
         - 1.9398933417657050e-03
         - 2.0333567384737256e-02
         - 2.0333352595736875e-02
         - -3.0718553248642051e-02
         - -2.5117345479011326e-02
         - -1.8199072651786739e-03
         - -1.4234023816152918e-02
         - -4.5604998917192954e-02
         - 1.8115709612197755e-02
         - 1.1835716572117315e-02
         - -4.2631706733775853e-04
         - -2.8783010074599970e-02
         - -1.7964266798805423e-04
         - 1.7541737498085588e-02
         - -2.6428784248198528e-02
         - 1.5387367080655698e-02
         - -2.7323918184243824e-02
         - 1.7465739023836132e-02
         - 2.3158869906153342e-02
         - -3.1368231513419963e-02
         - -6.2099195802820068e-03
         - 1.1206544729112618e-02
         - -4.4785959147647089e-02
         - -1.9627550885853464e-02
         - 2.1397527028118445e-02
         - -1.7641862614104917e-02
         - -4.5440574302972964e-02
         - 1.9415694690494738e-02
         - -6.3802300939559825e-03
         - 2.2252139748369905e-02
         - 1.0104080943960351e-02
         - -3.4912646006133682e-02
         - -1.6270270155143592e-02
         - 1.2160432466002655e-02
         - -1.4763712011289344e-02
         - -4.8870320204031356e-02
         - 1.4926906938077886e-02
         - 1.4108381666760280e-02
         - -1.1727961229048403e-04
         - -2.6861394359848051e-02
         - 1.4611682774169264e-02
         - 2.0102456076984153e-02
         - -2.4026164997753650e-02
         - 1.1808122352098419e-02
         - -2.5498197719013849e-02
         - 9.7173763442204245e-03
         - 1.0988595244961308e-02
         - -2.5252796964225357e-02
         - -7.1904041530374484e-04
         - 1.2914058327425435e-02
         - -2.8714355312391925e-02
         - -2.8570729716727538e-02
         - 1.9799768612799400e-02
         - -1.9050153069611237e-02
         - -3.7336378500168327e-02
         - 2.5390174746304297e-04
         - 5.9214031703780775e-03
         - 1.5454950198616408e-02
         - 1.0888053592381739e-02
         - -3.4209161413889577e-02
         - -1.4166220429930295e-02
         - 1.9979971597834621e-02
         - -5.3951244990819965e-03
         - -2.2196484267993439e-02
         - 7.2619493628768060e-03
         - 1.3840132013170312e-02
         - 8.7519900601093024e-03
         - -2.5440381406541420e-02
         - 3.0191648330770971e-02
         - 2.8042939532662459e-02
         - -7.2379027205709190e-03
         - -1.0168077267694912e-02
         - 3.7565732183745339e-04
         - 2.6554141093917703e-02
         - 4.9860617208256708e-03
         - -1.9101294363861700e-03
         - -4.7703621293142279e-03
         - 1.4506396250615441e-02
         - -4.5915594181973936e-03
         - -1.6991190171573026e-02
         - 2.3491470942304835e-02
         - -1.3936250333471381e-02
         - -2.9185827821697864e-02
         - -1.6310664559247338e-02
         - 1.2066316009602741e-02
         - 1.8466514941736043e-02
         - -1.5198007101455019e-04
         - -2.7326196585281026e-02
         - 3.1461758070423815e-03
         - 2.3746235714135006e-02
         - 3.2092111200114608e-03
         - -1.7683630784263209e-02
         - 1.1156018200180178e-03
         - 4.2808262262387549e-03
         - 7.9303262548870088e-03
         - -3.8309792979878826e-02
         - 2.4539253179311920e-02
         - 2.4656743681061362e-02
         - 4.4685976942876408e-03
         - -2.9706392333656807e-03
         - 2.5517489131326291e-02
         - 2.8491322461437034e-02
         - 9.5016343840651513e-03
         - 1.0642518219723810e-03
         - -1.1083726615007927e-02
         - 4.3177476333653665e-03
         - 8.9059367048285234e-03
         - -1.6331185750899896e-02
         - 9.4244770555771250e-03
         - -1.8528815061192840e-02
         - -1.6481131459213493e-02
         - -1.9602679296947683e-02
         - 2.1237384776575763e-03
         - 1.4856590693453110e-02
         - -2.7729405983627892e-03
         - -1.1863842564390058e-02
         - 1.4477697815585522e-02
         - 2.0172971913811254e-02
         - -4.3225974871500426e-03
         - -2.6697414515240832e-02
         - -1.3846451537444612e-02
         - 3.9519016381119092e-04
         - 2.1421725995174347e-03
         - -2.2921757775531813e-02
         - 1.3457538681521346e-02
         - 1.2973546759030849e-02
         - 1.1302100783555979e-02
         - 3.2923919198328600e-03
         - 1.5004366959937022e-02
         - 6.4543148955059082e-03
         - -2.8866091403928766e-04
         - 3.6175310309512535e-03
         - -6.2120600710863453e-03
         - 3.3295160455605188e-05
         - -3.5400543839965944e-03
         - -1.3072445044073119e-02
         - -1.6427698970892315e-03
         - -5.1791418279748015e-03
         - 2.3601191308351001e-03
         - -6.0269369436308584e-03
         - 2.7002955200349480e-03
         - -9.7490616137485390e-04
         - 1.0961259009463381e-02
         - -2.4922443996165714e-03
         - 6.7180039843948202e-03
         - 1.9104079658863040e-02
         - -1.7754990231166456e-02
         - -4.4385659045468748e-02
         - -6.9971820463579333e-03
         - 1.1196080935632579e-02
         - 8.9816777919490762e-03
         - -3.0241775366079575e-02
         - -1.0068342664890290e-02
         - 2.2402022499392348e-03
         - 1.2399663654779386e-03
         - 3.9521272500170700e-02
         - 7.2389877777649062e-04
         - -4.3043400812897373e-03
         - 9.1656320120879313e-03
         - -6.8431951592492473e-03
         - 1.5418289930895324e-02
         - 6.1429902193211247e-03
         - -2.5063825946052463e-02
         - -1.9032583619280147e-02
         - -2.7361264215200074e-03
         - -1.7972150280069304e-02
         - 1.9663429072433656e-02
         - -5.5880579036526453e-03
         - 2.9729559354633082e-03
         - 7.4538572757262204e-04
         - 1.9960441619816520e-02
         - -8.9323721057700776e-03
         - -1.3397144467482977e-02
         - -9.2180592471364908e-03
         - -3.7535492057861101e-02
         - -5.3296399896479822e-02
         - 1.7601925194945901e-02
         - 1.3647950760039843e-02
         - 1.5667264807376170e-02
         - -5.8060965265592838e-02
         - -9.5697954522691014e-03
         - 2.0313110551034845e-02
         - -1.3914329160786203e-02
         - 7.5925695175158639e-02
         - -7.0504184889458726e-03
         - 1.1257017863037865e-02
         - 2.5658371699923459e-02
         - -1.5990886655016343e-02
         - 2.8983410639785535e-02
         - 2.1338138651128106e-02
         - -2.8117193683332653e-02
         - -1.9620381319628288e-02
         - 4.9223909396329439e-03
         - -5.6399508992965822e-02
         - 4.2412310173945943e-02
         - -3.5041209944257731e-02
         - 3.9806375433297285e-02
         - 3.6280424036032440e-02
         - 3.6321864660811012e-02
         - -3.4600149549957444e-02
         - -3.5414157499149529e-02
         - -2.4023629824827784e-02
         - 5.7802315051839236e-03
         - -1.8695929607189212e-02
         - 1.1470530210595697e-02
         - -9.9881057920790209e-05
         - 1.0749794610183994e-02
         - 7.6056513805982072e-03
         - 2.1721790608444255e-02
         - 1.2182595647124051e-02
         - -2.6144383044614930e-02
         - 4.3644842331199654e-02
         - -4.4242001763536876e-02
         - 3.2356710701550301e-02
         - -8.0181063658240129e-04
         - -3.0700719861311145e-02
         - -2.4201263587012498e-02
         - 1.8670294630877333e-02
         - -1.2224440450307661e-03
         - -1.5389717452682097e-02
         - -2.1616565772223095e-02
         - -2.8832492075614957e-02
         - 7.4502343160126102e-03
         - -9.1225565925937800e-03
         - 4.8423824648038960e-02
         - 2.4069220511728311e-02
         - 3.6631376486488947e-02
         - -2.4474922723045675e-02
         - -1.1407010349128914e-02
         - -9.6471965114532498e-03
         - 1.3450073170821676e-02
         - -2.7696345983926562e-02
         - 1.7322105608796327e-02
         - -1.4101550859755084e-03
         - -5.8000160141163028e-02
         - 1.4173053914893334e-02
         - 3.0504979917961181e-02
         - 7.8601017268568607e-03
         - 1.7389246304491586e-03
         - 1.6551915859254949e-02
         - -3.2957187778721517e-02
         - 3.3121921158254575e-02
         - -7.9127497659070654e-04
         - -5.6201342875844801e-02
         - -4.9898073281229513e-02
         - -4.6217268076052280e-03
         - 4.0807594179824450e-02
         - 3.4071293031835363e-02
         - -5.0235532993129044e-02
         - 4.2040715534900101e-03
         - -5.9788388875104664e-03
         - -6.3434628102356546e-04
         - 4.0779862037807500e-02
         - -1.3857102801896247e-02
         - 3.7950767311902923e-02
         - 8.6130034644134844e-03
         - 4.4048218320468159e-02
         - 5.0729300647187260e-02
         - -3.7747293073928781e-02
         - -3.2778766513903650e-02
         - 2.0559961730533108e-02
         - 2.1561468323593957e-02
         - -8.5277569473505704e-02
         - 4.7566310906429037e-02
         - -2.8426363008385549e-02
         - -3.8504658017145386e-02
         - 2.6662746511563671e-02
         - 1.2048236697935366e-02
         - -4.3411097807685541e-03
         - 6.0045961008322810e-02
         - -5.0386726899906108e-03
         - -2.5552205271315732e-02
         - -5.7509885368424343e-04
         - -1.6528257131257568e-02
         - 3.4958595912560085e-02
         - 3.0040356997765180e-02
         - -1.6994612863977909e-02
         - 3.6699544114890889e-02
         - 2.7928596356434177e-02
         - 1.3446594262589507e-02
         - 6.3537989864525996e-02
         - -3.3120623801840283e-02
         - 2.2585928142497467e-02
         - -1.1103605494390646e-02
         - 8.7372293691259539e-02
         - 5.4291905029496185e-02
         - -5.6795908611480164e-02
         - -1.8672012182835470e-03
         - -1.1893259836970167e-02
         - 5.0509838333260941e-02
         - -6.0695486804195731e-02
         - 3.2312944947732125e-02
         - -6.6952231267990353e-02
         - -3.7690784825509457e-02
         - 3.2262088491950412e-02
         - 9.0039798503915652e-04
         - 1.8092388085026480e-02
         - 8.5189254581873985e-02
         - -3.2528096828189815e-02
         - -1.0085628132348776e-03
         - 2.6259652983553792e-02
         - -1.8912404802579864e-02
         - -4.6638436260071558e-03
         - 1.9396369863826944e-02
         - -8.7308903156499938e-03
         - 3.9084505284698652e-02
         - 1.2152867817439185e-02
         - 2.7109659490291056e-02
         - 3.6587563843097609e-02
         - -5.6665953613469849e-02
         - 7.7517955405846900e-04
         - -8.9369924654887720e-03
         - 9.3653751045215769e-02
         - 5.1902637026183474e-02
         - -3.1611749260067983e-02
         - 1.4894893328595102e-02
         - -3.9581451778884599e-02
         - 5.2905938298844442e-02
         - -1.4052076119983208e-02
         - 3.4353905423131048e-02
         - -6.6286043841792347e-02
         - -2.1002631559488540e-02
         - 3.6070176018890301e-02
         - -1.8733124508032568e-02
         - 6.0469962671935891e-04
         - 7.3299906507553608e-02
         - -4.0671754185636282e-02
         - 1.7043359331499232e-02
         - 5.0480496658797929e-03
         - -3.5532786799908131e-04
         - -5.2809289848591803e-02
         - -2.0942661936281692e-02
         - 2.5212806954688020e-02
         - 3.5040825859578725e-02
         - -3.2678126857227929e-02
         - 6.0096895328503319e-02
         - -6.4070757991330825e-03
         - -5.4483053027785729e-02
         - -1.3797386467413072e-02
         - -1.1815752263251210e-02
         - 6.1740598895072232e-02
         - 2.8656732074358190e-02
         - -1.1516504975530330e-02
         - 4.2485852824148816e-02
         - -6.7193176074305958e-02
         - 3.7785317414973797e-02
         - 1.8881958048200715e-02
         - 3.5679088318572409e-02
         - -4.6760352183302170e-02
         - -1.8325893561931553e-02
         - 2.8057709543803842e-02
         - -3.7593422918707084e-02
         - 3.9875468205645354e-03
         - 8.1545611435931420e-02
         - -6.4668925420723347e-02
         - 3.1955689993023291e-02
         - -2.4572255353183959e-02
         - 1.4304083689438796e-02
         - -4.3552888793739947e-02
         - -4.0793533157781475e-02
         - 4.1688403498562877e-02
         - 2.4125903862706643e-02
         - -6.8504541332734217e-02
         - 7.0355195149095232e-02
         - -1.7363320190196017e-02
         - -4.3235015018469679e-02
         - -3.0018795375968625e-02
         - -1.1451983835007798e-02
         - 4.4006709375219083e-02
         - 2.3892078087196303e-02
         - -3.0347227431126465e-02
         - 4.7189961046926986e-02
         - -8.3749643997862624e-02
         - 2.5991070662496483e-02
         - 3.4941300368195871e-02
         - 2.8323396243023380e-02
         - -5.8790166381098914e-02
         - -3.6454964229285704e-03
         - 5.1029281492988255e-04
         - -2.1996723413048046e-02
         - -2.2198190192528805e-02
         - 4.6978540797169781e-02
         - -7.5069550715781641e-02
         - 1.9169593458853836e-02
         - -2.9338940946518774e-02
         - 5.8545821810834439e-03
         - -4.1016011025474669e-02
         - -3.7393931194062660e-02
         - 6.9571750977672035e-03
         - 1.0645125585986981e-02
         - -5.4550669997130222e-02
         - 6.8906263072785329e-02
         - -8.9483696136423031e-03
         - -4.0740831166941001e-02
         - -4.9965985948006657e-02
         - 3.5834094931944921e-02
         - 3.2641265650923873e-02
         - -5.1578729735563952e-03
         - -5.6309254803229132e-02
         - -1.3065163178590961e-02
         - -5.8024201089171584e-02
         - 3.9395271559154503e-02
         - 2.3949153847561192e-02
         - 5.6070980706070653e-02
         - -3.6813939720955036e-02
         - -3.7210965198616469e-03
         - -2.5511181462750353e-02
         - -6.3706021637187213e-03
         - -5.0334264550935690e-02
         - 1.2064198846935536e-02
         - -6.2899501103713937e-02
         - -1.5010957029298085e-02
         - -6.2518435537487871e-02
         - 2.4514527937802698e-02
         - -3.5525564640047178e-02
         - -3.7993663216629711e-02
         - 1.6533249801893083e-02
         - -1.1026118369153034e-02
         - -8.6906651373960753e-02
         - 4.6585650376908067e-02
         - 1.5111030722856627e-03
         - -2.2303925091576512e-02
         - -4.9148350137619826e-02
         - 4.3910161559200668e-02
         - 2.8060156115698062e-02
         - -1.6125830292349881e-02
         - -5.0376750378918402e-02
         - -6.2867535796387972e-02
         - -5.1482388799184826e-02
         - 2.3134708080052364e-02
         - 2.1063447638997004e-02
         - 8.6703111262932370e-02
         - -1.7283264199352245e-03
         - -8.7361483291532142e-03
         - -2.3415367172365885e-02
         - -2.0188125774558772e-02
         - -4.6622272865951574e-02
         - -1.5449413933132962e-02
         - -3.4927216805587559e-02
         - -3.4637744585024728e-02
         - -1.0092235676060535e-01
         - 3.5022171797600109e-02
         - -2.1055483298405835e-02
         - -3.7889895889150191e-02
         - 1.8471410708783553e-02
         - 6.7011222976685783e-04
         - -8.9171667792279113e-02
         - 4.6099533726510385e-02
         - -1.3713037937520541e-02
         - 1.2518412119196499e-02
         - -5.0475602104622506e-02
         - 4.3875926799391708e-02
         - 1.4281999464581367e-02
         - -1.9065086649185919e-02
         - -3.0599129953801308e-02
         - -7.5863215985834717e-02
         - -4.5122460486954626e-02
         - 2.5740459980151939e-02
         - 3.7917102597512485e-03
         - 1.0232468929990024e-01
         - 1.3262886317146333e-02
         - -4.4451203769301326e-02
         - -8.0273787156013108e-03
         - 5.0806645605580882e-03
         - -2.6182583727798303e-02
         - -3.7887509401578853e-02
         - -1.5855205024303851e-02
         - 3.1838815900011226e-03
         - -6.3178533258364117e-02
         - 3.2547599974883525e-02
         - -3.2764344271312945e-02
         - -3.9603514825253788e-02
         - -2.1639979506352484e-03
         - 2.4556003779035541e-02
         - -2.8562871040007345e-02
         - 9.4645678218412861e-03
         - -4.2251208813596543e-03
         - 1.9757596145581195e-02
         - -3.7795401960367125e-02
         - 3.9436717853775796e-02
         - 1.2172113728628070e-03
         - -4.1497507510697793e-02
         - -5.3655844700610598e-02
         - -7.8503939697269473e-02
         - -1.2390942569891589e-02
         - 2.4816896352634177e-02
         - 1.2194955842140831e-03
         - 1.0098890357369275e-01
         - 2.7102497846939366e-02
         - -5.8791917578817632e-02
         - -2.5628626640476311e-03
         - 1.7491931480823657e-02
         - 2.2183838016561572e-03
         - -4.3616053224412026e-02
         - -6.9233196999639980e-03
         - 2.8707980227500318e-02
         - -1.6582827777575956e-02
         - 1.6887209132858461e-02
         - -3.7522406932108301e-02
         - -3.5356960372476910e-02
         - -1.0312521332514436e-02
         - 2.2070243903602210e-02
         - 8.0099350112332705e-03
         - -4.4764913638199268e-02
         - -2.6934206938581287e-03
         - 2.3082572158492562e-02
         - -2.5243730931054444e-02
         - 2.0981170437381239e-02
         - -7.3630809724719208e-03
         - -5.9793386396132908e-02
         - -6.4260617281756832e-02
         - -5.1826032826153612e-02
         - 2.1089094324410806e-02
         - 8.8134322352561570e-04
         - -1.6742915385854366e-02
         - 6.9960992498018404e-02
         - 5.1638169454012714e-02
         - -3.1915636980136920e-02
         - -8.4731232684976763e-03
         - 7.9880903014363479e-03
         - 4.6338872447710670e-02
         - -1.2159435277982664e-02
         - 1.3403188995716830e-02
         - 3.8618818192539803e-02
         - 1.0895024470528356e-02
         - -3.1280007316238402e-03
         - 2.1814032550949256e-02
         - -2.0487844620549838e-03
         - -1.3307868232711462e-02
         - 9.3372195307185879e-03
         - 3.5732758954893078e-02
         - -7.8503955794585523e-02
         - 1.3692481234451059e-02
         - 5.4178473040657357e-02
         - -7.0914977165715074e-03
         - 1.2907675864162842e-02
         - -3.7609458875010166e-03
         - -4.4842786539846011e-02
         - -4.3745412964058754e-02
         - 9.4627264903965921e-04
         - 5.5089768293115238e-02
         - -5.1655124075851551e-02
         - -3.1822090274843388e-02
         - 6.0935409442272416e-02
         - 7.1253918086685825e-02
         - -1.4374699154045266e-02
         - -7.0071963418654867e-03
         - 6.4637594108173336e-03
         - 9.3353861963159715e-02
         - 4.2945193103601682e-03
         - 2.3946632692435594e-02
         - 3.2474105660505723e-02
         - 4.1412700710848370e-02
         - -2.2743094134331957e-02
         - 7.7167607313636116e-02
         - 3.7100527405581868e-02
         - -2.6652609659300681e-02
         - -2.1407319162991549e-03
         - 4.3794510786935331e-02
         - -8.7449440424068853e-02
         - 1.6334285158764082e-02
         - 7.5029960886283220e-02
         - 5.1022935579416971e-03
         - 1.9947780843844739e-02
         - 3.6589749879094909e-03
         - -2.5624751181470840e-02
         - -3.1790971470054760e-02
         - 6.9232084902404222e-03
         - 5.5019113146627628e-02
         - -6.8028887182610076e-02
         - -6.9222515554385064e-02
         - 6.8492056501359408e-02
         - 5.1519864563930415e-02
         - -3.4991083146578193e-02
         - 2.3717699034162421e-03
         - 1.8540909588506019e-02
         - 9.5267053931959569e-02
         - -1.9708863266515119e-02
         - 3.6330833720261517e-02
         - 6.9077750275372682e-03
         - 7.7549604811704628e-02
         - -4.3267622422483561e-02
         - 7.1662991278126448e-02
         - 5.6023622691323521e-02
         - -4.5368806596042602e-02
         - 1.6248719206576556e-02
         - 7.8666331158679437e-02
         - -6.2068098537937259e-02
         - 1.0862256418243994e-02
         - 5.9504405321108074e-02
         - 1.4848154451154299e-02
         - 3.2875874426856910e-02
         - 1.1775451392319995e-02
         - -2.3561106542004776e-02
         - -2.4982894267726850e-02
         - 8.8136779415665123e-04
         - 4.9776363990312968e-02
         - -8.3136691718365921e-02
         - -7.8135726587737805e-02
         - 7.8037348462927397e-02
         - 2.9426168818090993e-02
         - -5.9301901540919175e-02
         - 8.5019374760744969e-03
         - 3.5372905460457758e-02
         - 8.3850647571774156e-02
         - -2.2579029873092779e-02
         - 3.5952833763757679e-02
         - -1.6147931190418916e-03
         - 7.5198264956537822e-02
         - -4.3465839905054676e-02
         - 6.1826962898775761e-02
         - 5.2814770528127317e-02
         - -3.9849716167785251e-02
         - 2.6933740943679625e-02
         - 7.4071106408657286e-02
         - -2.6323298507409696e-02
         - 1.3930181081300038e-02
         - 6.0033146552161749e-02
         - 5.6244003364134768e-03
         - 2.3172440282176673e-02
         - 1.7204573216539520e-02
         - -2.9585624833157617e-02
         - -2.5226491283860845e-02
         - 1.4629039333214435e-02
         - 3.5412454897417699e-02
         - -9.4818575088589291e-02
         - -6.3740665322317397e-02
         - 8.1662260073979059e-02
         - 1.3687797262460820e-02
         - -8.3551621719629043e-02
         - 1.9000893271015917e-03
         - 4.0287749371169461e-02
         - 5.8324087685711790e-02
         - -6.5538920887322320e-03
         - 1.6963403904165973e-02
         - 3.9049455116510539e-03
         - 6.0110024897269153e-02
         - -4.5138239645971898e-02
         - 6.8150622590432572e-02
         - 4.5086034962531524e-02
         - -3.8698584722114508e-02
         - 3.0889518377500719e-02
         - 6.4588285963851674e-02
         - -1.7880977198989688e-03
         - 2.6316864394276916e-02
         - 5.8052985913094338e-02
         - -1.1387334456418409e-02
         - 7.6861733526312065e-03
         - 1.1096292609476964e-02
         - -2.6102281235042706e-02
         - -2.9296166940031575e-02
         - 3.4598722745513427e-02
         - 3.1677602726437555e-02
         - -8.4541604860510183e-02
         - -5.0827121170810334e-02
         - 5.5494434210714982e-02
         - 1.9473612469852526e-02
         - -6.5354073912725755e-02
         - -6.7903710336736384e-03
         - 4.8909809118496579e-02
         - 6.5722934971106442e-02
         - 2.6112613849735539e-02
         - 9.1813962335158972e-03
         - 2.4019974439973779e-02
         - 3.8756170047395289e-02
         - -4.3503623747314250e-02
         - 7.1159162932426093e-02
         - 3.0852051037417456e-02
         - -2.1688344531712773e-02
         - 1.1374677326925233e-02
         - 3.2661085835236560e-02
         - -2.1611181930381303e-02
         - 5.5629123513642992e-02
         - 7.1017915161673870e-02
         - -3.3678776968962230e-02
         - -1.8435131933851188e-02
         - 2.2650074229681426e-02
         - -3.2318074043429464e-02
         - -3.5180251923998269e-02
         - 1.4899278011859972e-02
         - 2.0979206694408899e-02
         - -4.7511364555376641e-02
         - -4.6220020509182051e-02
         - 3.2435514417610563e-02
         - 1.4024522832224443e-02
         - -4.2815561481507260e-02
         - -9.9958176532634804e-03
         - 4.8623142879091821e-02
         - 4.1887457721002788e-02
         - 1.0533581361957537e-02
         - 1.7695935334320716e-02
         - 1.5533936354320007e-02
         - 2.5718565080647061e-02
         - -3.4509323963757103e-02
         - 5.4107664012841922e-02
         - 2.2267571027564940e-02
         - -1.4471274234305987e-02
         - 3.8159971287167692e-03
         - 2.5705463947218548e-02
         - -2.9840127391549853e-02
         - 4.9039513424067947e-02
         - 5.8610112490702471e-02
         - -3.2790329482950221e-02
         - -1.5227883502978315e-02
         - 2.9314586147667895e-02
         - -3.9098866636933551e-02
         - 2.2444652876236324e-04
         - -5.5030009173049586e-03
         - 1.4804005217694562e-02
         - -3.0062547949204228e-02
         - -3.1792968738447211e-02
         - 1.3630144451588800e-02
         - 1.3650855384722438e-02
         - -2.4919778592161403e-02
         - -2.5295117603166228e-02
         - 4.9721950380895316e-02
         - 9.0358229629372636e-03
         - -1.8602347249202986e-02
         - 1.3988062122323121e-02
         - -2.5944224993527460e-02
         - -1.4735243427108120e-02
         - -1.7621702581899861e-02
         - -2.3178621834145876e-05
         - 2.7345456312539919e-03
         - -9.3093286059342095e-03
         - -2.1136902176550482e-03
         - -4.4949567072336993e-02
         - 6.7575257952125307e-03
         - -9.5630457490231378e-03
         - 4.1434985069950657e-02
         - -4.1066189300443104e-02
         - -6.3859818112063519e-03
         - 3.2138038521521937e-02
         - -2.4203048244671819e-02
         - 3.7481714934241912e-02
         - -2.1860303461507535e-02
         - 3.0687355713122332e-02
         - -1.2960417832294461e-02
         - -3.5865100807734730e-02
         - 1.4020389931319851e-02
         - 2.1677191036714456e-02
         - -1.9976162030189513e-02
         - -3.8124876810832833e-02
         - 4.1772722904807658e-02
         - -2.4546491526942212e-02
         - -3.9614535455969269e-02
         - 8.9720124409829547e-03
         - -5.2040248355555804e-02
         - -4.2867869168229655e-02
